1324 100
continuant 0.0013773717 0.7414276 0.3469752 -0.087371886 -0.27243978 -0.06540272 0.32587883 0.1522778 -0.32204303 0.13557935 -0.430534 0.7547917 0.26671085 0.5544094 0.80463094 0.17688271 0.059322856 -0.78498465 0.028350184 -0.23049475 -0.0021382815 0.23132482 0.3147407 0.14051442 0.32598117 -0.14656666 -0.65332925 0.6555997 -0.2804654 0.27296036 -0.20699733 -0.56084913 -0.47313687 -0.15882915 0.120978326 -0.42358592 0.5405485 -0.5741791 0.02058559 0.33261418 0.32508165 -0.33589676 0.5961175 -0.5527332 -0.2170458 0.0009948865 -0.021042256 0.29976797 -0.066823974 -0.057134718 0.17053051 -0.94028807 -0.20369387 -0.33224142 0.6957121 -0.13821606 -0.19710113 0.07415986 0.1564286 0.44699556 0.020653974 0.15474853 -0.63331604 0.2352391 0.38931075 0.26610956 0.5395458 -0.22958106 -0.24492964 -0.11599416 -0.042896703 -0.4279439 -0.0810668 0.255887 0.28119248 -0.17507046 -0.3161775 -0.013855589 -0.18385263 -0.111458726 0.14556257 0.22584574 -0.358063 0.5488413 -0.011267235 -0.028927753 -0.9838272 -0.31423223 -0.21787743 0.34020978 -0.25545448 0.12462009 0.45956543 0.08524616 0.6347978 0.1671715 -0.1968854 0.31998065 -0.057632875 -0.34749475
independent 0.37800497 0.36185354 0.40440488 -0.27487904 -0.49119994 -0.077638954 0.29361326 0.06332242 -0.42566106 -0.032858644 -0.38249412 0.94544935 0.39451915 0.9168787 0.3514527 0.16424364 -0.045926634 -0.5338303 0.0272931 -0.24982333 -0.089882426 0.17051126 0.06871599 0.35218656 0.32033262 -0.44516346 -0.3744063 0.06967465 0.014014491 0.37070644 -0.16482705 -0.35298088 -0.46787763 0.06711474 0.040765062 -0.5046229 0.37914163 -1.0005198 -0.054340675 0.40573612 0.4965541 -0.2468112 0.32611352 -0.56654435 0.19665208 0.08854466 -0.11431732 0.2898364 -0.023420915 -0.24319242 -0.066305995 -1.1388667 -0.3107647 -0.52529675 0.61263186 0.12837449 -0.29409158 0.43409786 -0.16148898 0.7320239 0.42755136 0.1531018 -0.65787816 0.4704284 0.5499589 0.4339201 0.4772577 -0.33127922 -0.38798183 0.02794791 -0.34878546 -0.3966624 0.04692157 0.21680905 0.41156298 -0.28963822 -0.120567694 0.027809877 0.27049613 -0.29553103 0.1429129 -0.09097167 -0.2148586 0.40296197 -0.16311917 0.10144878 -0.9643624 -0.6159965 -0.2091825 0.07466542 -0.118841715 0.22802639 0.17997853 0.06521779 0.84554493 -0.3267137 -0.09484505 -0.06334457 0.404642 -0.045572847
subclassof 0.8928298 0.5269871 0.07776469 0.3580103 -0.61749953 -0.099281915 0.69770736 -0.33742973 0.28918692 0.19929379 -0.3187269 0.10255004 0.25704733 0.5045252 0.22143538 -0.01355624 0.20636597 -0.49733368 -0.18185982 0.26706678 -0.24458887 0.362086 0.23387872 -0.020631168 -0.026052842 -0.453201 -0.03941191 -0.28249452 -0.6236939 0.037175216 -0.089082845 -0.7291537 -0.15011664 0.2614921 -0.3922086 0.004119193 -0.018099865 -0.55659187 -0.013653263 0.4834062 0.01213081 -0.270899 0.55124843 -0.20155545 0.012657024 -0.58316827 0.014497302 0.23085767 0.35794076 -0.3638703 -0.028614782 -0.4202943 -0.37895238 -0.06414608 0.40152988 -0.20896715 0.13848108 -0.039984327 0.30262357 -0.030806303 0.4554301 -0.24779272 -0.6069228 -0.15749867 0.41868374 -0.13573179 0.16961777 -0.07017553 0.060060132 -0.01206774 0.23166372 0.08827637 -0.5369725 -0.018245447 -0.0063675684 0.049480848 -0.3790858 0.24446814 -0.4931647 -0.54379016 -0.24924853 0.017721573 -0.30593044 -0.102165066 0.13158047 0.19128047 -0.5756954 -0.23359527 -0.46073723 0.3539015 0.06333264 0.28502592 0.3859962 0.3641402 0.11887539 -0.2531829 0.27336326 0.06906564 0.050223596 -0.018549608
http://purl.obolibrary.org/obo/BFO_0000004 0.23153013 0.8031241 0.24824181 -0.30481485 -0.37045646 -0.33701193 0.54808205 0.11247943 -0.20179547 0.04050352 -0.41357386 0.7052102 0.2662091 0.60775816 0.24389505 0.55470127 -0.092783935 -0.51249534 0.37456852 -0.228828 0.09110808 0.02668875 0.1329549 0.330459 0.3274169 -0.6118015 -0.9556369 -0.011947174 -0.053453956 0.27030239 -0.3013883 -0.58164686 -0.17893259 0.27167085 0.14682798 -0.32154438 0.6886336 -0.88167894 -0.1518342 0.54928166 0.17020448 -0.13999179 0.3716068 -0.5574749 0.3273724 0.035315882 -0.07714647 0.31917492 -0.5021833 -0.35058877 -0.062124416 -1.1884936 -0.31918508 -0.52720964 0.51027256 0.48132768 -0.48617613 0.59077054 -0.37072667 0.8863882 0.19926417 0.2439907 -0.9284683 0.45972973 0.30376408 0.485986 0.56518316 -0.22580428 -0.5529113 0.3051124 -0.24200325 -0.25769588 -0.13335775 -0.05559302 0.5758671 -0.45563507 -0.06874946 -0.056012217 0.2923009 -0.2240325 -0.49898463 0.09401694 -0.14135298 0.32616794 -0.5039512 -0.02708193 -0.61622816 -0.38729733 -0.015385236 0.0153402835 -0.19853747 0.21593331 0.17992653 -0.27124575 0.5956476 -0.27965853 -0.4983793 -0.11606242 0.06200259 -0.16594766
fault 1.0857697 0.34270248 0.03329515 0.9642948 -0.80053097 -0.23488481 -0.07053127 -0.3425461 0.24419867 -0.39483306 -0.5893705 0.014466472 0.2210589 0.41005516 0.19019654 -0.4877828 0.57161313 -0.6052073 -0.020227963 -0.007431481 0.1811207 0.45072567 0.8079879 -0.07930151 -0.25275567 -1.0555807 0.13071613 0.45608807 -0.78132325 0.009288912 -0.5759341 -0.08891881 0.15994222 -0.2617555 -0.15507463 -0.4585158 -0.07960014 -0.5468848 0.149224 0.0742408 0.27841565 -0.363334 0.29179946 -0.15775995 0.0031126044 -0.28515 -0.11393924 0.32408074 -0.11785165 -0.16738655 0.56568515 -0.5428381 -0.2501637 -0.29830006 0.10487213 -0.23439881 -0.41007724 0.2594689 -0.023556244 0.13491625 0.1713985 -0.13215658 0.036911003 0.12790707 0.38668028 0.20447662 -0.061505035 -0.083315946 -0.1469641 0.65820944 0.1975475 0.140901 -0.67029107 0.28331903 0.29509348 0.20817868 -0.27960593 -0.2311869 -0.2765695 -0.34951994 -0.09235233 0.32491416 -0.74944115 0.08686841 0.14666297 -0.3232657 -0.6843197 -0.57864976 -0.09851807 0.12973347 0.045079805 0.52381235 0.22289601 0.6599675 0.068716906 -0.20748727 0.0004916047 0.2112361 0.3682801 -0.291565
of 0.403715 0.4926587 0.269858 0.37765163 -0.4378085 0.09855435 0.117659576 -0.40975884 -0.15228276 0.025288569 0.15516065 0.26139587 0.4557772 0.79810274 0.6241634 -0.28062078 0.2861477 -0.5946365 -0.22117862 0.10792317 -0.35863864 0.044877794 -0.35091266 -0.03132146 0.046722565 -0.77914804 -0.31829032 -0.1965883 -0.27655712 0.33951712 -0.055243336 -0.7199091 -0.3512999 0.13345334 -0.35258192 -0.10455304 0.087634414 -0.6373378 0.008353671 0.050022665 0.17537293 -0.2352727 0.16021752 -0.14523916 0.3328198 -0.5135806 0.040304508 0.09884102 0.2536464 0.37838 0.19399577 -0.51947033 0.09625606 -0.23983917 0.46034163 0.20698656 0.38410297 0.2962906 0.4706888 0.28933755 0.0070555373 -0.2609559 -0.5689821 -0.062239464 0.5490144 -0.22025707 -0.11793495 -0.4071713 0.19239485 -0.19929434 0.32724205 -0.120736636 -0.42103204 0.27662656 0.030082101 0.020725774 -0.027428389 0.03180068 -0.2515033 -0.68235576 0.12175351 0.47919476 -0.57940966 -0.17050613 0.19558033 0.13386764 -0.59973276 -0.45809928 -0.11403131 0.3114087 -0.09530943 0.21701016 0.5028318 0.65456927 0.029796818 -0.1865114 0.088930026 0.31587672 -0.40546295 0.2625473
http://www.w3.org/2000/01/rdf-schema#subClassOf 0.60269326 0.8499168 -0.16047172 0.25741956 -0.5499399 0.060442165 0.7644929 -0.08885425 0.7517656 -0.1495303 -0.048043355 0.2123032 -0.13289517 0.42088085 -0.029222794 0.35501975 0.015452464 -0.5019096 -0.042224925 0.037645116 -0.25409007 -0.1068233 0.06661624 0.19597498 0.1841709 -0.7417643 -0.74631435 -0.32030323 -0.5999976 -0.082898915 -0.22914866 -0.9670323 0.21475834 0.25608495 -0.317932 0.07019974 0.21812019 -0.6663741 0.2821141 0.73200566 -0.12917903 0.20014991 0.35988232 -0.34315947 0.0389187 -0.705544 -0.15306118 -0.055919815 0.10401824 -0.19746839 -0.05496604 -0.3616732 -0.13784802 -0.21074012 0.055624202 0.22105275 0.16184779 0.3239182 0.06675976 0.22216289 0.07079697 -0.24084473 -1.0494323 0.19675344 0.4792739 -0.055002734 0.43503413 0.03835638 -0.15129317 -0.22157238 0.44455162 0.035853837 -0.2740549 -0.14368291 -0.017543705 0.05917812 -0.22659945 0.062245913 -0.19427966 -0.3734593 -0.18775697 0.29583192 0.16864046 -0.11300516 -0.3705294 0.15187158 0.070016034 -0.22772278 -0.342061 0.0012374737 -0.17148861 0.2786497 0.321386 -0.12652439 -0.30465153 -0.29721087 -0.36509058 0.17633687 -0.33068678 0.048156977
ro 0.8503677 0.20591544 0.120316215 -0.2395259 -0.7458599 -0.028196879 -0.16072975 -0.22375767 0.33326063 0.16379389 -0.26783353 0.19176455 0.06765709 0.6054154 0.85747504 0.089866064 0.35655108 -0.62586236 -0.2650944 -0.02427537 0.054723218 0.9852237 0.17117912 -0.62742597 0.42002955 -0.7990307 -0.33216903 -0.24389926 -0.7895225 0.1510071 -0.014596738 -1.0959041 0.1910531 0.06733865 -0.57598644 -0.24935544 0.29187712 -0.79387623 0.24141379 0.7284419 0.590477 0.21284539 0.6716324 -0.25827947 0.0069231116 -0.47729108 -0.25051674 0.2463689 0.26259264 -0.49248672 0.43724602 -0.85754395 -0.21033804 0.09995383 0.590034 0.061861362 0.16074148 -0.12367699 -0.022595882 0.1357938 0.25916827 0.11940569 -0.06349762 0.17062566 -0.09079878 0.4027366 0.04753644 -0.28306764 -0.08876438 -0.22436301 0.037417095 0.023833701 -0.4615172 0.5539304 0.3723832 0.27285194 -0.28136864 0.19524604 -0.16421603 -0.37098575 0.28227565 -0.29409003 -0.67715365 -0.5585694 0.0746648 0.082337104 -0.8570814 -0.12268355 -0.47060728 -0.46228126 -0.39066276 0.5281974 0.06681477 0.61814046 0.015518357 -0.9830948 0.13760129 -0.04099822 0.37403566 -0.052709214
super 0.5550015 0.39040974 0.09019727 0.45073107 -0.46896866 0.010297845 0.39456376 -0.29055673 0.1085818 0.16966633 -0.7020682 0.15805505 0.19252561 0.25864533 0.36725807 -0.14959915 -0.08382789 -0.30283535 -0.2749453 0.4939927 -0.37223148 0.3010584 0.19874763 -0.07155168 0.038827542 -0.74714905 -0.07543184 0.266872 -0.47938007 -0.15327433 -0.12442407 -1.0191877 -0.014439798 -0.18061498 -0.31682608 0.12289283 0.00980069 -0.7782701 -0.15515517 0.35503882 -0.071576014 -0.44370005 0.9018899 -0.29113123 -0.33899227 -0.87288594 -0.20941488 -0.0005529722 0.41742787 0.021833165 0.22595793 -0.28155488 -0.016699798 -0.10331068 0.21298935 0.573759 0.06276505 -0.0063668336 0.13745894 -0.013440762 0.45834136 0.21795554 -0.7457546 0.060993068 0.6745355 0.1836829 0.013318073 0.17756203 0.3346763 -0.30067074 0.13796587 0.052973934 -0.56019235 -0.005596995 0.17637014 0.15616322 -0.23780948 0.041629154 -0.23351942 -0.6285411 -0.5731578 0.34619325 -0.36943725 -0.28499714 0.17393425 0.26440603 -0.53306586 -0.5479911 -0.72584766 -0.10092863 0.08683836 0.5690762 0.28037962 0.49787226 -0.06374871 -0.13411902 0.29367927 -0.0036403227 -0.17270267 0.04617808
class 0.48744878 0.33899862 -0.052057054 0.69933265 -1.0488697 -0.11629027 0.4526874 -0.42836073 0.0971376 -0.21062629 -0.3128396 -0.12200505 0.066218145 1.034547 0.78302747 -0.13181639 0.1762627 -0.2724032 -0.49820054 0.045184363 0.15143904 0.2577403 0.1971209 -0.33199447 -0.032867525 -0.54426223 -0.16693045 -0.13724329 -0.78184694 0.18567571 -0.010208232 -0.82776105 0.06328247 0.28029764 -0.25813377 0.097795606 -0.21960515 -0.68073636 0.089872174 0.44121447 0.10333464 -0.349302 0.79498804 -0.36000267 -0.18224593 -0.87150455 0.21958128 -0.067845345 0.4697893 -0.25571296 -0.17467721 -0.5394805 -0.27173242 -0.34038672 0.42151323 0.53475696 0.084079646 0.005926479 0.5097509 -0.18216698 -0.035727233 -0.3200319 -0.39804345 -0.14827308 0.7327301 0.29408607 0.00041258038 0.12595735 0.23870315 -0.3100744 0.25831416 -0.06394673 -0.55601937 0.2517251 0.044213276 0.030415628 -0.47265825 -0.11535537 -0.22678101 -0.35793126 -0.31153727 0.24493395 -0.115092106 0.015784461 0.11853465 0.2910143 -0.34450617 -0.33256677 -0.4871901 0.22730441 0.041680638 0.4457119 0.4364914 0.20864268 -0.19233346 -0.14224961 0.23227994 0.094399266 0.12824906 0.016516231
http://www.semanticweb.org/owl2vec#superClassOf 0.7424429 0.68635017 -0.16186984 0.3851211 -0.6510122 0.07882888 0.6563238 -0.386385 0.7047792 0.061799657 -0.18264814 0.0655146 0.050842553 0.6622228 0.30239874 -0.019728445 0.03030878 -0.32214016 -0.3843302 0.06553368 -0.13116232 -0.039028954 0.06402068 0.112032525 0.16611457 -0.7027389 -0.8059515 -0.35529965 -0.36974797 -0.1169506 -0.05722787 -0.83770114 0.5304324 0.102237724 -0.4725934 0.09877378 0.2003419 -0.66274345 -0.0758686 0.7482552 -0.2097889 -0.07918071 0.57730615 -0.17054768 0.18234575 -0.87542206 -0.1908439 -0.2825491 0.11971351 -0.052274026 -0.1423775 -0.49328938 -0.14789088 -0.16135015 -0.065314874 0.5816678 0.10644423 0.22546974 -0.034459952 -0.023913946 -0.028987905 -0.24531174 -1.0191696 -0.026371347 0.4504 0.029996848 0.31735793 0.113012105 -0.0098303305 -0.14095348 0.2743225 0.13730036 -0.3942471 0.08424842 -0.093369134 0.2496006 -0.2701245 0.03310398 0.107817434 -0.42054886 -0.347023 0.41823253 0.14562985 -0.26511344 -0.336795 0.35753068 0.28219825 -0.06275011 -0.36038333 -0.0052623986 -0.101434365 0.49909824 0.4568987 -0.0024129902 -0.31590107 -0.47940716 -0.20695202 0.24537055 -0.26862764 0.11297795
label 0.06526972 0.14815013 -0.07365216 0.1669526 -0.5396787 -0.1721541 -0.2976748 0.5004348 -0.26833615 -0.10816234 0.33207157 0.49875194 0.36113054 0.37240052 0.29041973 0.09681504 0.31514698 -0.21629392 -0.57720834 -0.16672379 0.046542406 0.011043807 0.32545176 -0.55912673 0.32218382 -0.7415674 0.28088892 0.20710352 -0.43560264 0.09677203 0.3082375 -0.5217323 0.4079905 -0.4104437 -0.016319992 -0.13515541 0.09502225 -0.23980021 0.11790523 0.54887354 0.32101795 -0.39192587 0.9440388 -0.1148507 -0.31658325 -0.7745741 -0.09268156 -0.19345059 0.4426643 0.14461294 0.52943045 -0.17117658 0.077862695 0.33363268 -0.21154305 0.21973333 0.06483759 0.019995706 -0.4111415 -0.17974916 0.1803595 -0.050940514 -0.21636306 -0.49429882 0.88619685 -0.22269651 0.2986842 0.12294166 0.17454325 -0.06671884 0.29729095 0.16407327 -0.039344538 0.0965666 -0.101593904 0.16758004 -0.5101371 -0.3742278 -0.23133169 -0.29137763 -0.43345693 0.45785204 -0.2859937 -0.074980974 -0.12497803 0.4082821 -0.4656038 -0.372866 -0.096703514 -0.14585683 -0.09834822 0.5282477 -0.034562368 0.64157796 -0.049247634 -0.24477975 0.18355745 -0.09970278 -0.007779306 0.09270509
geological 0.8431181 0.32470194 0.47284943 0.45366856 -0.39752313 0.42513362 0.23388766 -0.12391409 -0.3182706 -0.13690172 -0.31283027 0.5141358 0.25599208 0.6185922 -0.11276474 -0.648127 0.15616544 -0.5939142 -0.27290726 0.07486451 -0.046819504 0.38956133 0.7550253 -0.09363529 0.273589 -0.29744622 -0.8066258 0.576885 -0.84827924 -0.20077571 0.38965178 -0.41643822 0.10010567 0.17737897 -0.052974977 -0.58274114 -0.066451386 -0.5569962 -0.34233445 0.060488895 0.414624 -0.08576182 1.0370369 -0.10281987 -0.064846136 -0.45269722 0.31261715 -0.13148098 0.12567961 0.18794203 0.001048451 -0.7010376 -0.6095304 0.08777097 0.5257742 -0.31158444 -0.33547917 0.22526631 -0.07463074 0.20832732 0.33554173 0.5942156 -0.7054076 0.55821884 -0.19460753 -0.5466118 0.03924383 -0.43381602 -0.090974346 -0.3314205 0.20024289 -0.41082186 0.025828745 0.33909404 0.20094833 0.31383276 -0.27056092 0.17786212 -0.6209332 -0.50753564 0.291224 0.28775218 0.105062306 0.5046849 -0.19890213 -0.03231269 -0.62237954 -0.53126854 -0.51271147 0.18136191 0.19259955 0.66955686 0.087009184 0.047561545 0.5350196 -0.003866438 -0.17856419 -0.030731658 0.038426008 -0.23657961
structure 0.43248498 0.2987034 -0.0967555 0.22911152 -0.4090871 0.21869983 -0.35254714 -0.13947666 -0.78450096 0.15740618 -1.0464903 0.54644203 0.5792413 0.7770267 0.8488232 -0.14707127 0.85275954 -0.11859914 -0.37854412 0.23990197 -0.43012476 0.057357345 0.9697064 0.7180182 0.20940842 -0.17594673 0.23187394 0.2148134 -0.6715858 -0.052750282 -0.3401499 0.14792491 -0.5762438 -0.050034586 0.05100623 0.5903016 0.25365078 -0.63662195 0.27642307 0.5472635 0.33143649 -0.3739827 0.6054604 -0.73805696 -0.57352054 -0.023449244 0.9989795 -0.51572204 0.42123786 -0.06200683 -0.32267028 -0.83917046 -0.5462599 -0.16113439 -0.49101958 0.11648511 -0.48594576 -0.11138618 -0.64304924 0.11212731 0.03430534 -0.027935881 -0.6270088 0.5409924 0.71178776 0.077633046 -0.05256241 -0.16215566 0.12769496 0.36808333 0.23726764 0.23076788 -0.4006376 0.012755374 0.51909626 0.31760347 -0.4318274 0.51356554 -0.3360563 -0.54915947 -0.0076689655 0.059682306 -0.56898004 0.5224896 0.14203456 -0.059259616 -0.5514149 -0.50833726 0.16425851 0.2161793 -0.24789715 0.59609944 0.7206395 0.4189447 -0.0116134435 0.29887316 -0.2583515 0.23493683 -0.30541804 -0.1420411
iao 0.73686695 0.13819832 0.355822 -0.15816796 -0.74788606 -0.19945171 0.30761254 0.28211436 -0.5596172 -0.04993824 -0.9050416 -0.012395747 -0.09037652 0.3907289 0.16586092 0.14606097 0.22551535 -0.2662394 0.0764103 -0.3057787 -0.0317439 0.73884636 -0.19087537 -0.20939833 0.036872886 -0.35885203 -0.51741105 0.1607673 -0.6265863 0.033865876 -0.31498262 -0.88330704 -0.13328214 -0.028657654 -0.36668205 -0.8714197 -0.15548798 -0.38169652 0.076574534 0.51545316 0.27931273 -0.3436136 0.8075243 -0.0016036681 -0.23280916 -1.0296822 -0.16448873 0.34999245 0.16515501 -0.09277349 -0.3204935 -0.48221025 -0.20001891 -0.18377107 0.573576 -0.3552539 0.45928538 -0.40546533 -0.1123218 -0.07663575 0.3344846 -0.25265527 -0.7906954 -0.58175296 0.7838538 -0.12476707 0.10419732 0.039439145 0.2439951 -0.4333421 0.15715237 0.2325119 -0.41764274 0.05139287 0.18485351 -0.3837262 0.0051195133 -0.2424468 -0.22809267 -0.34952322 -0.3961798 -0.2747489 0.062256943 -0.30132067 -0.17842548 0.5304754 -0.717446 -0.4295594 -0.5845761 0.18551499 -0.3034388 0.06665042 -0.11164221 -0.08605706 0.014724428 -0.051905867 0.23047547 0.21451 -0.560963 0.13548586
http://www.w3.org/2000/01/rdf-schema#label 0.6433571 0.28410885 -0.01193434 0.059063286 -0.6432047 0.09841015 0.47184974 -0.22970119 0.31861827 -0.07701433 -0.09738053 -0.2083676 0.3122971 0.47130507 -0.009870812 0.19149423 0.3053743 -0.31149632 -0.23709492 -0.0063514216 0.06869854 0.01964362 0.05928304 -0.12372725 0.24642476 -0.6508678 -0.34514797 -0.20693018 -0.60427177 -0.31679428 -0.087318055 -0.95320404 0.64100295 -0.18770948 -0.026919859 -0.09071671 0.13898085 -0.46577844 0.21322437 0.55088323 -0.015995618 -0.031584878 0.46500376 -0.16782516 -0.05869029 -0.69322085 -0.2692074 -0.44758776 0.04805342 0.11878506 0.11452229 -0.28986156 0.09584681 -0.05128803 -0.07996404 0.24759382 0.05105418 0.093998455 -0.074050754 0.18267927 -0.17522785 -0.18648733 -0.6661376 0.087853566 0.6403305 -0.105604984 0.44205475 0.08113279 -0.10754641 0.14239593 0.30073574 0.13934036 -0.23184644 0.03799574 0.1921102 0.26753804 -0.1976698 -0.0802127 0.071101055 -0.43108508 -0.35268182 0.39698416 0.09314208 -0.31244367 -0.23779841 0.29975763 0.10237084 -0.17207834 -0.06956819 -0.0997619 -0.051901318 0.45010757 0.44220954 0.07894658 -0.54995567 -0.23616517 -0.21350722 -0.004203003 -0.31114504 0.27488047
bfo 0.5623996 0.7252557 0.3361665 -0.5622596 -0.88344586 0.13046502 0.04447155 0.13820605 -0.2345802 -0.05190559 -0.3362554 0.1083737 0.30054876 0.6442132 -0.025767459 -0.4541247 0.12064012 -0.40502486 -0.49877053 0.54293424 -0.12430769 0.22226389 0.6232934 -0.4179185 0.5730669 0.320649 -0.52338606 0.15807585 -0.3488479 0.21855791 0.12596914 -0.4074556 -0.46232542 0.48070186 -0.08270752 -0.30284348 0.09740645 -0.468533 -0.5154965 0.327452 0.5958836 -0.83098257 0.83293295 -0.012779757 -0.38868317 -0.5665955 -0.15697089 0.32206243 0.7897006 0.19240023 -0.25704575 -1.1270353 -0.79668266 -0.4316312 0.18244949 0.10063888 0.42277336 0.58494794 0.28481573 0.028546406 0.33504778 0.13207625 -0.97735673 0.25348285 -0.042715695 0.06040252 0.32068932 -0.33168837 0.13674144 0.057510674 0.18369418 -0.12268307 -0.37222347 0.23442182 0.3454129 0.4255391 -0.07213697 -0.054103773 0.35673863 -0.7596901 -0.0013145534 -0.565716 -0.9427043 0.4226034 -0.014465618 0.26756915 -0.67172474 -0.7132905 -0.1756451 -0.40963215 0.041941892 0.88007194 0.16842462 0.12171569 -0.23599273 -0.4009974 -0.019763956 -0.1005456 0.19901031 0.45916694
object 0.4758588 0.16176844 0.39509872 -0.29124716 -0.064585865 0.571893 0.059952866 0.37650537 -0.7106954 -0.41361296 -0.32503477 0.60577303 0.05519893 0.8610247 0.19680408 -0.68688726 0.53708184 -0.7968061 -0.6318547 0.43798563 -0.039954066 0.35883406 0.46676433 0.43510124 0.4798942 0.23463134 -0.33213297 0.1465135 -0.8383041 -0.15100572 0.13082096 -0.1769282 0.13557638 0.23595811 0.065139644 -0.78670967 0.3269517 -0.048033874 -0.70509386 0.16081937 0.1946261 0.11906496 0.4604686 -0.15984517 -0.40058684 -0.03682043 0.7167119 -0.04074578 0.50356114 0.64959925 0.34106565 -0.65575135 -0.43487003 -0.23408696 0.63796043 -0.33599222 -0.060360946 0.3802722 -0.5397569 0.24493971 -0.0004343093 0.078950934 -0.72346085 0.4232504 -0.20357828 0.72562337 0.4756568 -0.5219162 -0.3174996 -0.51471835 0.10716447 0.00672976 -0.14865388 -0.1297849 0.42271626 -0.39137357 -0.47367215 -0.08273251 -0.08452452 -0.472907 -0.26242575 -0.0034088097 -0.45186013 0.5691902 0.062185414 -0.20655769 -0.6726029 -0.77595484 -0.44852987 0.3106534 0.5343938 0.55961484 0.013879705 -0.14521345 0.4457125 -0.49614456 -0.095069095 -0.3794914 0.1847824 0.1013836
entity -0.05325491 -0.19052182 0.31138715 -0.11382033 -0.4958947 -0.53370583 -0.3892261 0.042073637 -0.89172643 0.6983892 -0.011676099 0.9035898 -0.32456854 0.75762326 0.81788653 -0.55933076 -0.18309411 -0.8378193 -0.14064796 0.032132365 0.27320758 0.5127223 -0.42033905 0.31820711 0.48226833 0.442723 -0.26387107 0.41990888 0.00070853834 0.37930113 -0.0948943 -0.4042575 0.010457159 -0.466221 -0.4960411 -0.8543412 0.6986777 -0.4815017 -0.78114665 -0.05724578 0.16347034 -0.34192196 0.8291214 0.28349254 0.06371996 -0.2998861 -0.056991864 0.35377988 0.22574255 -0.052832153 -0.08950662 -0.7140938 -0.036299497 -0.11701416 0.548096 0.2126197 0.025008837 0.3093902 -0.34717074 0.24723704 0.20533839 -0.02017281 -0.13048616 0.047768865 0.56094176 -0.078778334 -0.04756715 0.16087264 -0.39699095 -0.07185983 -0.24545413 -0.16094638 0.0056699184 -0.10280923 0.11056913 -0.5334495 -0.32118595 0.30612975 0.09668766 -0.5884596 -0.3697689 -0.023260834 -0.6053896 0.22342794 0.16816759 0.048129853 0.003339753 -0.30456978 -0.69446945 -0.012156431 -0.35353646 -0.10844243 0.5076546 0.19456242 0.2112595 -0.3239596 0.10574344 0.58491963 0.1627226 -0.16430157
region -0.11426881 0.22039868 -0.06612325 -0.4899983 -0.6612724 -0.49492574 -0.026790345 -0.21281272 -0.8890551 0.93370813 -0.7714824 0.4407688 0.20549549 0.40770516 -0.33868143 -0.40517762 -0.28344798 -0.05447863 -0.27878422 -0.5163806 -0.08344639 0.33118272 0.25639227 -0.21380875 0.23459898 -0.28421074 -0.77626586 -0.44354683 -0.52110535 0.63046885 -0.7212264 -0.25420734 -0.08276864 0.15366125 -0.10671548 -0.4622052 0.15252818 -0.5848423 0.37432447 -0.13636996 0.1526359 -0.73062056 0.8046164 -0.746076 -0.22901914 0.03461555 -0.2786955 0.6149089 -0.70279026 -0.19424587 0.05970437 -0.5684342 -0.07347589 0.038905405 0.65023386 -0.12304918 0.14222895 0.2844147 -0.2719794 0.24149087 0.15830113 0.6901477 -0.7555029 -0.1971728 0.47656405 0.18662071 0.18762511 -0.24768434 0.036511663 -0.15816858 0.19863588 -0.5212469 0.26942694 0.34687108 0.1411083 -0.65698254 0.2812859 -0.15736513 -0.13302028 -0.1321059 0.117151335 0.23768854 -0.6287992 0.70110184 0.39506382 0.11078728 0.1919717 -0.8331755 -0.46315524 0.42760217 0.0071174544 -0.43907875 0.12004057 0.4408209 0.08205145 -0.35940367 0.26009318 0.3797451 -0.09705646 -0.07884643
zone 0.6152696 -0.33303326 0.19227408 0.006521381 -0.53861254 -0.44803077 -0.5362046 -0.26876435 0.025057605 0.09521927 -0.032718338 0.43029025 -0.40061504 1.092269 -0.0054471656 -0.5633338 0.19396046 -0.49779806 0.29143137 0.18688379 0.09826134 0.3769285 0.6104014 -0.110231936 -0.66622865 -0.4172654 -0.1433427 0.6478677 -0.22250266 0.004988552 -0.17320587 -0.36827365 -0.13871934 0.24511516 0.061253507 -0.6650823 0.085595556 -0.59943396 0.29100326 0.5696415 -0.11221075 -0.32231224 0.8986574 -0.16387826 -0.8367594 -0.03714843 -0.33058134 0.2554189 0.5538376 -0.05735014 -0.11938478 -0.88252276 -0.21577387 -0.04868937 0.075460754 -0.093363315 0.10582969 0.74421054 -0.07431511 0.65148056 0.38161254 0.031335015 -0.51692903 0.4222425 0.3798962 0.3144862 0.1922561 0.1662783 -0.7626397 -0.03458108 0.037531085 0.2739055 -0.25807673 -0.27025688 0.60306925 -0.24360082 -0.15013711 0.18483588 -0.30391586 -0.8551798 0.0681218 -0.34214357 -1.2726196 0.40491584 -0.14489987 -0.025147533 -0.45909825 -0.40377748 -0.123517424 -0.17840762 -0.06254893 0.37229306 0.5868184 -0.07818312 0.055202503 -0.4104177 0.27543285 0.19683109 0.5623308 -0.23000728
surface 0.58875865 0.7896236 -0.21540233 -0.4827113 -0.042239115 0.091246456 0.11490655 -0.21064037 -0.32533303 0.18387257 -0.68589526 0.23219323 0.85693014 0.6746548 0.42167228 -0.56477743 0.61395913 -0.53106433 -0.2320186 0.09610521 0.8681009 0.46580583 0.20938262 0.30260855 0.26239643 -0.59728634 -0.597634 -0.13835797 -0.650002 0.018001765 0.16206828 -0.2304082 -0.084697746 -0.39888743 -0.30542162 -0.4044804 0.23729514 -1.0179018 0.073713504 -0.037650988 0.26319063 0.19331835 0.50362927 -0.5790231 -0.20781837 -0.3425472 -0.3026795 0.7166983 -0.18096372 0.6482509 0.22101419 -0.352993 -0.17098469 -0.23481655 0.5867699 -0.26228547 0.056818318 0.5266721 -0.30599517 -0.086134695 -0.15741141 -0.16782553 -0.19267552 0.9062364 0.80318457 0.5863448 0.011267333 0.052063018 0.36777923 0.7156088 -0.3226576 0.30684423 0.057388615 0.24399465 -0.40174952 0.26578942 -0.8364386 -0.04111585 0.1563426 -0.16319066 0.3003012 0.027836874 -0.64479375 0.1645761 -0.03390556 0.122323975 -0.44022298 -0.7264198 -0.31912392 0.43655437 -0.18177933 -0.27211434 -0.1953956 -0.3330071 0.42955205 0.010362279 0.47904953 0.843437 0.15633027 -0.6455967
) -0.24782757 -0.6395249 -0.3924938 -0.045376092 0.031508423 0.14786659 -0.70801187 0.047427557 -0.9109326 -0.24784051 -0.10005193 1.127734 0.62410796 -0.07062972 -0.27126515 -0.76601875 -0.35442734 -0.08377554 -0.22763728 -0.18335465 0.28375897 -0.20886247 -0.030304559 0.09059389 0.186821 -0.05201957 -0.3128156 0.37763378 -0.8497826 -0.1984384 -0.14590468 -0.57368773 -0.18960129 0.0007451603 0.16823013 -0.10064475 0.18064268 -0.4070657 -0.35654026 0.7095233 0.32264435 -0.106172204 0.62504464 -0.62996924 0.3009351 -0.15725341 0.2354193 0.12566574 -0.3315233 -0.6217739 0.08946095 -0.71651274 -0.16561435 -0.26940003 -0.12678137 0.21976693 -0.3791826 0.15768477 -0.56249064 0.40819463 0.37186208 0.60261416 -0.950327 -0.17752503 0.14455995 -0.57672125 0.34430715 -0.6879156 -1.3799955 -0.21029137 -0.6939219 -0.06387677 -0.44509694 0.07555964 0.22897793 0.4897172 -0.24142191 -0.7472813 0.29604712 -0.06451063 -0.24842195 -0.21737972 -0.18942964 0.41868007 -0.1757354 0.77882296 -0.043255527 0.43356508 0.5555564 0.21475096 -0.69323844 -0.2265116 0.20524149 0.26770914 0.8102775 -0.09782193 -0.10694122 -0.22397059 -0.76520747 0.3010299
( -0.10664421 -0.5026511 -0.14176875 0.0032395301 -0.104513824 0.09440246 -0.43400446 -0.22804847 -0.8276195 -0.1319498 -0.39144355 0.82901406 0.55434996 -0.10263995 -0.2675095 -1.0731374 -0.17763333 -0.21223435 -0.33442307 0.0134153785 0.14590898 -0.061211444 0.07562185 -0.042178467 0.4038068 0.09118292 -0.19928432 0.11048319 -1.0777467 -0.48906514 -0.6213206 -0.3807642 -0.4191244 0.0052829506 0.20537391 -0.43392587 0.05885111 -0.048273016 -0.14724973 0.15927637 0.44320083 -0.5650243 0.7424477 -0.3856332 0.039201774 -0.31820688 -0.09827278 0.27996403 -0.18097898 -0.43598664 0.017724013 -0.741664 -0.09348996 -0.34096262 0.18193117 0.06920661 -0.3790144 0.002435572 -0.31991577 0.21706343 0.40179208 0.5705667 -0.54688734 -0.28519467 0.5046519 -0.47042373 0.3796784 -0.79351676 -1.1515627 -0.3533021 -0.56329703 0.026883777 -0.41337496 0.22478265 0.42860696 0.48308718 0.03850926 -0.89628375 0.2930079 -0.29168233 -0.21380562 -0.1194038 -0.039644558 0.17914058 -0.2416382 0.87483835 -0.21715079 0.4825466 0.4371392 0.39189443 -0.28952023 -0.40405035 0.28034237 0.31380776 0.5643988 -0.120443285 0.43194053 -0.07676841 -0.30907002 -0.06284035
quality -0.4445213 -0.19712746 -0.37105432 0.104469515 -0.39857763 0.23004298 0.24149597 -0.022101989 -0.24534993 -0.097409956 -0.74561083 0.0299593 0.26954097 0.29579204 0.34269613 -0.5459641 0.0404725 -0.5750832 -1.1412299 0.03082679 0.1270947 0.877862 -0.29271355 0.33788335 0.19974135 -0.025528332 -0.7828234 0.102310166 -0.418662 0.06352005 -0.30577555 -0.66342276 -0.0210318 -0.41701198 -0.20183301 0.7442835 0.2729931 -0.6079944 0.28194144 0.1108046 0.43079376 0.13793695 0.33968064 -0.19424704 -0.2050234 0.26548868 0.8193511 0.3218731 0.42934814 -0.60553867 0.22474848 -0.41374093 -0.83310395 0.38814625 0.7726213 -0.4147592 0.27843 -0.29366145 -0.5834916 -0.26924902 -0.07160311 -0.3197082 -0.2299953 0.0119565455 0.2979619 0.16674227 0.04933712 -0.22546194 -0.56880134 -0.5129543 0.51644516 0.14193738 -0.12459442 0.037731137 -0.13769618 0.016722672 -0.31349957 -0.37183657 -0.734463 -0.6267754 -0.31491157 0.15095676 -0.50557876 -0.6320757 -0.21190515 -0.30507064 -0.79564655 -0.8974002 -0.7316784 0.16187249 -0.23108894 0.09569358 0.14237271 0.018964589 0.08323258 -0.5513774 0.24194483 0.35462898 -0.62196815 0.29716644
comment 0.48575902 -0.0434564 0.18187888 0.2788514 -0.9208282 -0.05432885 0.525418 -0.10912335 -0.06579884 -0.4780984 -0.25546974 0.35101083 0.39156452 0.6147236 0.3231022 -0.065052 0.42707765 -0.16928186 -0.015114414 0.08253107 -0.1790494 0.28448367 0.2018193 -0.34752068 0.15692903 -0.74049467 0.048883352 0.29299036 -0.67736495 -0.17101288 -0.29168737 -0.73846614 -0.07080012 -0.055033866 0.048081785 0.09733475 -0.093232945 -0.19336097 0.15089832 0.6061691 0.19894232 0.06248037 0.4006022 -0.21308325 -0.32983178 -0.38534287 -0.16434248 -0.10267573 0.6274146 0.13211538 0.43884414 -0.75173837 -0.18001817 0.00824604 0.06703545 0.10925661 -0.026847549 0.15123256 0.17310208 0.19793455 0.052259084 0.074967735 -0.24257676 0.16997336 0.24031194 -0.24481948 0.45578083 -0.17587076 0.10359611 0.37739515 0.6975657 0.03401049 -0.45280766 -0.2028992 0.09620888 0.3798732 -0.41742283 0.04295348 0.07781616 -0.36514243 -0.08125929 0.20932879 -0.31110898 -0.65372205 0.14768218 0.3524545 -0.63393223 -0.43516624 -0.32975507 -0.24829571 -0.24731295 0.71298385 0.09646176 0.40393555 0.10319656 -0.17520195 0.060175676 0.0015158486 0.016034711 0.411978
material 0.35887668 -0.29851595 0.35685268 -0.25274634 -0.0442658 0.07157517 -0.2206165 0.09784533 -0.7824971 0.74306387 0.020263184 0.94391686 -0.15847433 0.8539275 0.0049773757 -0.72117317 0.49096912 -0.8724059 -0.3546763 0.43247145 0.46846563 0.7126061 -0.39724067 0.23441328 0.44493976 -0.009750427 -0.31676263 0.04387836 -0.46370447 -0.09135595 0.26764348 -0.35955662 0.20548576 -0.2971136 -0.45354584 -0.4970382 0.36016417 -0.3140129 -0.5364195 0.27571875 -0.026585389 0.3447603 0.56753004 -0.4279171 -0.4424027 -0.40672028 0.4421906 0.353275 0.5415852 -0.2504887 0.13925654 -0.23354176 0.042045217 -0.013518636 0.7161281 -0.01679475 -0.08156462 0.3840261 -0.35674986 0.3105842 -0.24993378 0.14208594 -0.13042141 -0.13304259 0.020241063 0.29763943 -0.058683906 0.044536714 -0.54566395 -0.19267875 0.12293255 0.21573904 0.56111866 -0.21551551 0.37834784 -0.40332323 0.17715704 0.3753288 -0.3587155 -0.6611837 -0.7277096 -0.31597605 -0.79230267 0.43281782 0.016244764 -0.35763264 -0.42279693 -0.7232975 -0.21899235 0.3264327 -0.19272706 0.05802072 0.42059034 -0.025644593 0.5627687 -0.682134 -0.18621723 0.37680522 -0.021534592 -0.077447265
spatial -0.048585314 0.7434864 -0.2503562 -0.24431871 -0.5941625 -0.31754354 -0.10731973 -0.14857846 -0.84448147 0.8600052 -0.95867753 0.17950456 0.8288697 0.45218438 -0.10402149 -0.21332377 0.050260607 -0.47034374 -0.30524993 -0.5589883 0.09369247 0.5161131 -0.15643618 0.13770582 0.2734507 -0.26696938 -0.7246897 -0.40438634 -0.42890394 0.2168381 -0.49206275 -0.3462165 -0.073129624 -0.30392548 -0.1645358 -0.42966783 0.32725826 -0.93271375 0.5227456 0.10488448 0.3325673 -0.6098283 0.48644942 -0.7004543 -0.24626398 0.23576109 -0.2904328 0.588101 -0.651352 0.1162781 -0.14124788 -0.92588186 0.15597223 -0.10923491 0.9231209 -0.18838423 0.06850627 0.10060721 -0.26719588 0.38499278 -0.25948158 0.23998559 -0.39019278 -0.22766419 0.34924436 0.46251374 0.012765842 0.068762995 -0.2932486 0.24823672 -0.33000442 -0.46857777 0.1822059 0.2448103 0.2090809 -0.496028 0.11037868 -0.025260353 0.30302876 -0.059384674 -0.21102582 0.16789187 -0.35219258 0.9407962 0.45845905 0.036422275 -0.53326315 -0.55035424 -0.19662672 0.6370068 -0.076734886 -0.30410823 0.45259655 0.38345313 0.06691405 0.12993138 0.51120865 0.22566426 -0.037842646 -0.2034991
core 0.66961545 0.09979701 0.7559068 -0.061588608 -0.5252972 0.45203525 -0.2607488 -0.11359438 -0.06831227 -0.2728592 -0.42574093 0.10178198 0.24211703 1.2518919 -0.39916176 -0.61471874 0.5516137 -0.09401393 -0.31792378 -0.030045887 0.01964055 0.41975582 0.17962615 0.038149666 0.38132387 -0.7200214 -0.35425854 0.11216101 -0.67925924 -0.21322213 0.1660402 0.11066095 -0.5389664 0.17806078 -0.11869213 -0.47616944 0.3834469 -0.3317784 -0.07322334 0.25030145 0.38174123 0.18827255 0.43352184 -0.6911401 -0.4168069 -0.29623047 0.4071907 0.36934626 -0.04324384 0.06524794 -0.07518501 -0.65829974 -0.41664955 -0.2374741 0.3222468 -0.19956034 0.27980906 1.2178768 -0.020411717 0.46317762 -0.024375996 0.4011938 -0.31800532 0.5128568 -0.26179746 -0.014361097 0.16637175 -0.5258874 -0.2067381 0.2681512 0.021979326 0.12677336 -0.27774364 -0.044226293 -0.19476122 -0.13192815 -0.16647148 0.029196322 0.21581517 0.061029166 -0.36371055 -0.41691533 -0.8042996 -0.0997187 -0.014269042 -0.29835352 -0.17660467 -1.4544734 -0.48568362 -0.2325909 -0.34017566 0.24964488 -0.10985605 0.50527644 -0.029382568 -0.3335465 0.28512764 0.054242056 0.19151849 -0.30912668
rock 0.4015817 0.056609035 0.6506526 0.2331991 -0.5587348 0.93260497 -0.02928173 0.24060152 0.05531658 -0.21350473 -0.026027443 -0.5925679 -0.06163876 0.61338645 0.12949777 -0.26420578 0.46156344 0.013763732 0.15049045 0.55802923 -0.31039152 0.69287133 -0.032148395 0.18253455 -0.18100697 -0.59436345 -0.3193945 -0.3125404 -0.93719035 0.058014892 -0.04663044 -0.683838 -0.33592418 -0.13029782 0.12917815 -0.9090941 0.6256771 -0.58532447 0.19687894 0.31437907 0.6249959 0.06502268 1.2525582 -0.8931339 -0.22875282 -1.0708537 0.38363913 0.0011206637 0.6551712 0.21472001 -0.110145085 -0.69090503 -0.05583202 0.14130908 -0.1641486 0.18961233 -0.40965977 0.54556406 -0.17469563 0.5187472 0.47281438 -0.17485262 -0.11285613 0.16535752 0.52956563 0.694038 -0.31149018 -0.23241359 -0.85125977 0.016278232 0.5562178 0.050533433 -0.6741761 0.34759012 -0.3063564 0.28745636 -0.41433552 0.22390726 -0.68087924 -0.8050387 0.08368903 -0.21732666 -0.7116016 0.45756993 0.034534052 0.27669087 -0.28253362 -0.38881418 -0.05909479 -0.021496072 0.045547795 0.6367488 0.39684305 0.20608775 0.27521846 -0.24450935 0.040696375 -0.71167713 -0.22822148 -0.2623811
boundary 0.1403216 0.10739716 0.11463961 -0.37751168 -0.4208858 -0.021498267 -0.039252207 0.20099147 -0.66109186 0.7752692 -0.70030904 0.47225752 0.119497664 1.0691162 -0.3517545 -0.35369608 0.1409778 -0.832001 -0.2826157 0.041051894 -0.01934852 -0.11908281 0.3796436 -0.37940618 -0.28877237 0.1008958 -0.4206496 0.39327997 -0.6851671 0.26650432 0.13529395 -0.45147905 -0.054530058 -0.32350442 -0.40855974 -0.09925881 0.46822086 -0.77649146 -0.6064101 0.01696814 0.17248048 -0.6579462 0.60825974 -0.124902405 -0.7806608 0.01580626 0.2936875 0.37564674 -0.35727924 0.02482905 0.1501654 -0.62648696 0.006661407 -0.16866194 0.30681515 -0.011063883 0.117725804 0.45484787 -0.7019735 -0.13996868 -0.6597909 -0.3815664 -0.9028856 -0.40905592 0.36024088 0.06459084 0.41611326 0.004102351 -0.1418609 -0.57613146 -0.09513581 -0.3732806 -0.081913956 0.61067855 0.9011291 -0.23767318 -0.22559431 0.66110283 -0.34478825 -0.3750194 -0.012722021 0.09677351 -0.5984979 0.40939742 -0.08580499 0.20989423 -0.7775275 -1.0014743 -0.5049004 -0.040881343 -0.19022115 -0.30095625 0.6431196 -0.2011346 0.41455868 -0.19422215 -0.19824761 0.014804992 -0.055844832 -0.5981986
0000602 0.34603947 0.12670936 -0.08449911 -0.14860809 -0.47308356 0.08628449 0.9458606 -0.033534314 0.015042804 0.1051787 -0.4631776 0.2742613 0.19291735 0.3560975 0.26087174 -0.06883785 0.02696315 -0.046799645 -0.5108702 -0.39277717 -0.07041041 0.40614894 0.13438965 -0.33321542 -0.041084617 -0.30866075 -0.27663615 0.09437747 -0.50505614 -0.10571641 -0.5598434 -0.8395362 0.34839028 -0.6961539 -0.037258156 -0.70115775 0.10081433 -0.4001384 -0.13410571 0.20060764 0.07447186 -0.4760703 0.948076 -0.3562622 0.06437208 -0.5125376 -0.3828221 0.087444305 0.26903903 -0.1633482 0.16521727 -0.6953313 -0.29928744 0.28616595 0.28138912 0.43820533 0.27700642 -0.3023969 0.024265643 0.19722994 -0.31666324 -0.14649123 -0.8281993 -0.21922252 0.22896999 -0.196524 0.30743322 -0.41161215 0.14924958 -0.30283326 -0.114219874 0.029728148 -0.22963303 -0.10332202 0.2838154 -0.08297048 -0.28995028 -0.08516573 -0.54497457 -0.6270439 -0.27692136 -0.059353065 0.22239543 -0.25721803 0.1812054 0.56217974 -0.3067299 -0.26048428 -0.3300546 0.32150003 -0.0732651 0.29325408 0.23144189 0.31618115 0.11725096 -0.483541 0.33282456 0.5225724 -0.0495324 -0.19496575
http://www.w3.org/2000/01/rdf-schema#comment 0.7943885 0.25956994 -0.10449569 0.12044893 -0.7888567 -0.07774746 0.5924822 -0.07039514 0.26783657 -0.35583642 -0.038733058 0.22938319 0.33082408 0.5492066 0.103901386 0.076127514 0.2177771 -0.13260876 0.23579736 0.008599568 -0.09537419 0.11485577 0.25112256 -0.012647904 0.25188634 -0.87076986 -0.47791484 -0.019814383 -0.7173252 -0.40326864 -0.2868353 -0.7219184 0.27810934 -0.10416771 0.06984489 -0.013170287 0.088125244 -0.27059644 0.49052322 0.648706 -0.008939687 0.3005334 0.40054396 -0.03552621 -0.098015405 -0.56071746 -0.23595311 -0.29638314 0.21517956 0.115513064 0.117121905 -0.467576 -0.022592966 0.08820243 -0.362409 0.27057382 -0.14592744 0.31444788 -0.18430698 0.25065264 -0.06546518 -0.010075952 -0.5496737 0.26417607 0.281424 -0.2453831 0.5911703 0.07154665 -0.19580282 0.5271807 0.62055194 0.19839366 -0.19970563 -0.17445183 0.09190729 0.38069242 -0.3628727 -0.057068046 0.06113892 -0.40912664 -0.44291705 0.3839884 0.051005874 -0.7069735 -0.25737572 0.23592967 -0.13647935 -0.19872224 -0.15875836 -0.39701402 -0.31905264 0.41816473 0.03927412 0.09157683 -0.24693157 -0.18748753 -0.43012846 0.027380886 -0.26935044 0.27459928
https://www.inf.ufrgs.br/bdi/ontologies/geocoreontology#UFRGS:GeoCoreOntology_geological_object 0.9162276 0.38108554 0.44152877 -0.32088792 -0.20975342 0.4172848 0.2205565 0.2352416 -0.43950975 -0.2329381 0.11677171 0.36891323 0.23435663 1.0139616 -0.44558585 -0.8390627 0.26613247 -1.0756265 -0.53887904 0.2651914 -0.24645728 0.10871971 0.7280296 0.2685587 0.79905254 0.06272983 -1.3160602 0.30972704 -1.0159224 -0.3477063 0.24073744 -0.27161518 0.30958676 0.46060318 0.010098253 -0.59499437 0.55511236 -0.6487248 -0.36416623 0.19752516 0.018574148 0.32072085 0.3783614 0.059750535 -0.22478531 -0.2444616 0.3432559 -0.26284197 0.09533965 0.40817863 0.13739759 -0.52430797 -0.50814945 -0.1688286 0.4219475 -0.11200828 -0.38251737 0.89942163 -0.32489598 0.4821954 0.17674607 0.39792553 -0.81150436 0.71595985 -0.716657 0.23012064 0.67925674 -0.59623337 -0.5551878 -0.10271958 0.33240634 -0.12215964 0.12980537 -0.24024498 0.47602868 -0.12953123 -0.26736355 0.14312674 0.3257441 -0.4151599 -0.41302413 0.30919817 0.17332768 0.32329273 -0.29686284 -0.5246436 -0.035039738 -0.57428974 -0.54601055 -0.026340328 0.18573494 0.63425106 0.06550488 -0.5914974 0.31522596 -0.027321076 -0.7467803 -0.038415488 0.119112186 0.3936801
dependent 0.5089257 0.56061125 -0.13093346 0.3166363 -0.36664787 0.06855731 -0.26374325 -0.07492981 -0.7850253 -0.0054856176 -0.68226653 1.1802074 -0.101800114 0.46831074 0.42165527 -0.29831985 0.22168298 -0.24713425 -0.5975301 -0.22476128 -0.015026424 0.30448878 0.51876485 0.19874793 0.13876483 0.11349343 -0.26686642 0.24356286 -0.08085833 -0.09487849 -0.44834757 0.070657246 -0.39778072 -0.53840685 -0.5185364 0.14733864 0.105854094 -0.70932287 0.40803686 0.5358543 0.76401514 -0.64617944 0.6431354 -0.48816136 0.44761088 -0.16249764 0.080638975 0.15945162 0.3223513 -0.16178428 -0.038281802 -1.460464 -0.31412348 -0.32250145 0.5990692 0.24750869 -0.117476344 -0.26628876 0.08402786 0.253006 0.06760065 0.4600832 -0.23502663 -0.0043840506 0.42230955 0.24414076 -0.014758566 -0.82749915 0.070891455 0.0049806433 -0.351788 0.28557983 -0.15198138 0.07941714 0.01874294 -0.54291856 -0.20229754 0.43855774 -0.15988131 -0.15335368 0.39743522 -0.35118437 0.2459844 0.104208715 0.39339474 -0.59833205 -0.44070765 -0.2648291 -0.27455574 0.17207056 -0.87514347 0.63550496 0.55485 0.47487032 0.50682575 -0.29126307 -0.5310903 0.47692594 -0.72761804 0.36263964
role -0.19702174 0.37907597 -0.18013678 -0.638946 -0.9148671 0.31767696 -0.20400533 0.10327727 -0.716539 0.1427555 -0.017104987 0.39504194 -0.5195207 0.31184864 -0.060641784 -0.3927572 0.1484214 -0.40425396 -0.12690006 0.008526594 -0.031853456 0.28914917 0.43493882 -0.34966454 -0.37549907 -0.16301756 -0.15426065 -0.23524143 -0.12542129 -0.07183554 -0.6972689 -0.09890716 -0.43677235 -0.005598098 -0.105393425 -0.44427216 0.14742497 -0.91764575 0.60839194 0.42924187 0.74349314 -0.8029011 0.74260354 -0.10718235 -0.8109298 -0.13915047 -0.26173323 0.6323719 0.51187956 -0.55213165 0.047437947 -0.93926144 0.43738925 0.10511662 0.18460901 -0.078020126 -0.20413493 0.22919008 0.09109823 0.81581175 -0.022944152 -0.39554465 -0.1727445 -0.3167402 -0.099725805 0.38654917 -0.17580576 -0.50597095 -0.66646194 -0.31234556 0.34588066 -0.13489306 0.15474902 -0.24526523 0.38922998 -0.39155552 -0.06845441 0.31867254 0.3751985 -0.6478487 -0.2767157 0.07151217 -1.0955536 0.3109294 0.67039704 -0.34634557 -0.58625716 -0.33962548 0.4118086 0.029594602 -0.8710996 0.15412892 0.43965662 0.50537854 0.012469971 -0.52873266 -0.24897443 0.28092456 -0.20864435 0.42045116
process -0.026602514 -0.40585393 0.07390575 0.47194272 0.102662586 0.063578844 -0.19499168 0.28083155 -0.68028665 -0.14800659 -0.37088555 0.66983 0.04749472 0.48631337 0.3969516 -0.6124475 -0.4825303 -0.06486125 -0.040633794 -0.078234605 0.6335514 0.08790496 0.32422808 0.18646121 0.011481353 0.6203118 -0.40072843 0.1130928 -0.014190306 -0.039466552 0.53574747 -0.29194835 -0.52246314 0.12352535 0.43286926 -0.47392687 0.06510551 -0.4447478 -0.6705739 -0.05027111 0.15628952 -0.24015348 1.4070334 0.19450739 -0.16727492 -0.6256727 0.40100205 0.12847696 0.879893 0.06674081 -0.5119463 -1.2655901 0.13022856 0.08293365 0.26478946 0.17442198 -0.2984516 0.6164076 -0.72207665 0.2889522 0.55106 0.5873841 -0.74304867 0.1576102 0.68512887 -0.4787388 0.35565543 -0.6228476 -0.69448465 -0.48107594 0.16756168 -0.32439205 -0.15895982 -0.13628638 0.16945785 -0.4925785 -0.080629066 0.47329548 -0.43845204 -0.8066523 0.22555296 -0.26409328 -0.34173533 0.6803279 0.7314654 -0.27260628 -0.18907267 -0.8121409 -0.22471079 0.2171186 -0.25164613 0.48542345 0.43574294 0.18637232 -0.014487302 -0.51335365 -0.516975 -0.030121764 -0.09493167 -0.019582812
wall 0.20194519 0.15826102 0.18553264 -0.32643476 -0.54719627 0.42929366 -0.41409537 0.08371344 0.008053742 -0.34438446 -0.15863572 0.019139549 0.77102894 0.7689225 0.40214354 -0.4931041 -0.031698972 -0.66043496 0.035518628 0.23232226 -0.2280415 0.43716237 0.44333526 0.14486244 -0.442875 -0.14387417 -0.29071087 0.08094297 -0.22824505 0.11746513 -0.27581528 0.22641681 -0.24397756 0.06976688 -0.23027176 -0.51938516 0.33220893 -0.6536718 0.73269325 0.4195781 0.75604117 -0.29938385 0.9397609 -0.14434475 -0.27609757 0.12615064 0.17489229 1.1147987 0.47185126 0.023486897 0.049072374 -0.71212715 -0.3821209 0.056749266 -0.18245353 -0.17973112 -0.0967155 0.25852007 -0.061006356 0.43322423 -0.26565915 -0.46871158 -0.43654668 0.66566694 0.31049404 0.101980604 0.4512633 0.0006923145 -0.24813251 0.60692346 0.03504523 -0.017203169 0.03631691 -0.5769585 0.053691808 -0.26038513 -0.21129242 -0.18965602 0.6192029 -0.18705283 -0.3101714 -0.21541578 -1.000982 0.09251114 -0.24151714 0.20124611 -0.906651 -0.62092894 0.25703898 -0.40495756 -0.40630987 -0.011724686 -0.21538855 0.6772369 0.26775578 -0.28229725 0.28859374 0.21329787 -0.022916226 -0.3389764
volume 0.5080254 0.5554925 0.4980953 -0.37075415 -1.0912387 0.7722419 -0.4355546 -0.23154424 -0.04645451 -0.041567445 -0.49224898 0.0042854743 0.03586669 0.92979807 0.21436237 -1.134486 0.22031856 -0.81863844 -0.21806674 0.36180922 -0.13056076 -0.3271784 0.5321008 0.13633125 0.52802813 -0.36092582 -0.5020457 0.57581687 -0.29303157 -0.21466912 -0.19453232 -0.14819966 -0.5623221 -0.18900047 -0.39976677 -0.8828668 0.56144226 -0.6164027 0.09371782 0.39900795 0.51318693 -0.7976372 0.82720184 -0.66775805 -0.5201878 -0.14304337 0.47709268 0.48284772 0.5093281 0.20220482 0.016109664 -0.93009174 -0.58123213 -0.039284848 -0.2928711 -0.068042 -0.041791197 0.1634907 -0.32677343 0.4130785 -0.20453167 -0.28191006 -0.08902391 0.2034798 0.25195763 0.5783673 0.074362114 -0.21580712 -0.4611526 -0.22128773 -0.22567141 -0.16818134 -0.22602108 -0.14686449 0.3815273 -0.07099679 -0.06045011 -0.21142833 -0.10753788 -0.34733734 0.0025814972 -0.1980018 -0.97685623 0.09635169 -0.22322647 -0.14702322 -0.33589163 -0.35733 0.28241232 0.12340299 0.15173188 0.21714582 0.34032312 -0.026839701 0.5638388 -0.14922333 -0.3804633 -0.14398898 0.09454319 0.05298165
occurrent 0.31511235 -0.13103817 0.1759139 -0.2529755 0.05838396 -0.046737183 0.26107904 0.2835785 -0.9101592 0.23100097 -0.32922772 0.82832885 -0.21370007 0.4941134 0.16996162 -0.9654239 -0.1563547 -0.31175607 -0.12881823 -0.3276931 0.7719496 0.10437348 0.37974265 -0.17731564 -0.04303727 -0.30001003 -0.70944065 -0.07059842 -0.32946908 -0.038698126 0.16867195 -0.5834247 -0.38931912 0.1555641 -0.12616687 -0.49605188 -0.10034163 -0.55848247 0.464686 -0.46740782 0.015896784 -0.18856728 0.6521691 0.18595503 -0.18300773 -0.2649675 -0.039705683 0.32568496 0.33165315 0.13386334 -0.1293021 -1.1301382 0.36810046 0.30337766 0.810269 0.0828915 -0.53982943 0.47954962 -0.5453311 0.19554695 0.39704606 1.144817 -0.3630355 -0.2841531 -0.081959195 -0.10383135 0.42498934 -0.8430602 -0.68249327 -0.40303072 0.54015243 -0.32355064 0.12784247 -0.25946265 -0.034014348 -0.6798289 -0.13668442 -0.07389264 -0.03625382 -0.42963222 0.31934878 0.14183575 -0.48875976 0.42179856 0.4947892 -0.03878966 0.043578178 -0.67417 -0.44846192 0.46307677 0.012756025 0.3553781 -0.23639539 -0.13914919 0.5050336 -0.91389424 -0.13592587 0.20449562 0.075671665 0.102991365
fiat 0.010850648 0.6173732 -0.4659813 0.16208607 0.03363762 0.2592323 -0.56060946 0.19966893 -0.8696581 0.10404442 -1.187182 0.7506156 0.2977292 0.77536017 -0.3468739 -0.5866235 0.114164494 -0.73168576 -0.66545707 0.32085997 -0.19653043 0.3846781 0.2650501 0.21489437 0.20427193 -0.54470396 -0.41979936 -0.040817205 -0.8191132 0.15678972 -0.54524547 -0.4987035 0.2800674 -0.39336106 -0.36501282 -0.61111885 0.31475142 -0.4606711 -0.14585464 0.14133078 0.13947593 -0.22761475 0.9016425 -0.28443575 -0.57593197 -0.4316735 0.24896124 0.23993908 -0.055742823 0.3495572 -0.48517892 -0.82750535 -0.34354937 0.07864442 -0.06821509 0.1769844 0.48324412 0.11259858 -0.694384 0.19781601 -0.5473165 -0.56352746 -0.2514119 0.1123155 1.0092784 0.34296015 0.37300348 0.0063431873 0.24488437 -0.5001774 -0.3428433 0.6826044 0.27270946 0.6133155 0.2807836 -0.70875084 0.67824954 0.12197902 -0.71698266 -0.2044318 0.29094714 -0.0053083296 0.13851045 0.60702974 0.088546135 -0.11086269 -0.59655726 -0.5079998 -0.08441618 0.51087415 0.0031117161 -0.054402635 0.47894928 -0.3461193 0.37073293 -0.35654488 0.173229 -0.30299464 -0.018122893 -0.3773129
http://purl.obolibrary.org/obo/BFO_0000019 -0.29294938 0.53096247 -0.5139866 0.09884093 -0.86060625 0.088965274 0.46824858 0.1439378 -0.04471041 -0.3622993 -0.9180641 -0.12065393 -0.056763746 0.43797114 0.24949272 -0.2508595 -0.20293418 -0.56457394 -1.0570374 -0.17720899 -0.09155982 0.54878676 -0.0064944737 0.48780432 0.49563012 -0.35993168 -1.0897659 -0.19014408 -0.24712823 -0.04134289 -0.5418661 -0.60510075 0.7985744 -0.4575758 -0.116325535 0.89461124 0.52517825 -0.8914924 0.17704464 0.16585372 0.029683728 0.6706289 0.16740455 -0.017804312 -0.15254845 -0.12737872 0.5048019 -0.04871361 0.22586283 -0.39479056 0.13162118 -0.70887315 -0.75025886 0.4969825 0.42531234 -0.47213575 0.41550666 -0.49933466 -0.6462158 -0.037959967 -0.09292058 -0.40197673 -0.3509039 0.25631157 0.13643084 0.31178567 0.18322386 -0.29685488 -0.6795277 -0.26633808 0.33204743 0.25123242 -0.5724002 -0.19162644 -0.25728247 -0.02755457 -0.60750437 -0.20464797 -0.29414243 -0.37791672 -0.29622895 0.56287044 0.051742833 -0.49070084 -0.3102779 -0.25498304 -0.15490746 -0.8243205 -0.95815295 0.2353748 -0.47231868 0.41473264 0.41277388 -0.6477014 -0.08081062 -0.47256336 -0.056658193 0.22475481 -0.590663 0.48555005
0000081 1.0572791 0.24050912 0.10386243 -0.6142993 -0.9719969 0.5606353 -0.09874703 -0.2765473 0.019302465 0.40594518 -0.1860609 0.12973854 -0.24977596 0.923895 0.19645682 -0.31014144 0.07537834 -0.5859207 -0.13886991 0.10360793 -0.23188317 0.25836182 0.20469114 -0.36968547 -0.048092674 -0.53902346 -0.46991405 0.24422997 -0.33683965 -0.12694225 -0.12042092 0.034004923 -0.37632027 -0.25419918 -0.74267894 -0.6638277 0.4274858 -0.896894 0.7752171 0.5874625 0.43725967 -0.6923752 0.92445505 -0.52316034 -0.53866404 -0.26051608 -0.3011055 0.29942423 0.34786144 -0.55332094 0.23045585 -0.71554077 0.32272273 -0.07032655 0.10489422 -0.18252023 -0.266111 0.33081564 0.23865542 0.3125561 -0.15317415 -0.53491443 -0.350961 -0.09996514 -0.11071532 0.7322179 0.14896722 -0.078295775 -0.9716823 -0.11238803 0.38625553 -0.096921206 -0.21042846 -0.15166095 0.37087435 -0.18357374 -0.40491074 0.59647113 0.19791178 -0.36197785 -0.6030553 0.23761679 -1.2628772 -0.41816106 -0.078155085 0.051547088 -0.6439518 -0.51434094 -0.2003629 -0.31331864 -0.88733715 0.2971323 0.017624814 0.46582824 0.45492718 0.0017178402 -0.21881792 0.46649525 0.13298684 -0.06937055
some 0.7480176 -0.47858518 0.11910445 -0.2686421 0.060414784 0.37004936 -0.28081667 0.17146036 0.24803632 0.59189373 -0.069820926 0.22715674 -0.51912117 -0.10660006 0.26510635 -0.29839018 1.0341806 -0.5324166 -0.37503698 -0.07722876 0.46792126 0.5990051 0.13847901 -0.18469715 0.8047328 -0.29293606 0.21043758 0.22982407 -0.9273916 0.21805242 0.2079775 -0.25158694 0.8448302 -0.16645126 -0.21627331 -0.6435297 0.31031528 -0.14180146 0.621481 0.0006162359 0.15853494 -0.44924483 0.58311516 -0.066746965 -0.019119974 -0.39356667 0.050030537 0.3259577 0.32260174 0.21419053 -0.03910994 -0.38081983 0.07867065 0.20855905 0.19502985 -0.08213913 -0.03219485 0.20628586 0.15974775 0.47123984 -0.29435927 0.37160945 -0.2738087 0.69139266 0.0217695 0.2811076 0.06673191 -0.19231859 -0.45282635 0.46478653 0.19510049 0.26454747 -0.037385624 0.46432886 -0.22312215 0.15524335 -0.03358657 -0.7926372 -0.23955832 -0.53733265 0.5683243 -0.009631103 -0.44259706 0.48664123 -0.71181095 0.05227537 -0.4060148 -0.27322266 0.2936936 -0.6983998 -0.33833975 0.8345176 0.06050342 0.35224774 -0.6140086 -0.6327639 0.20712882 -0.044290032 -0.6818117 0.1962327
http://purl.obolibrary.org/obo/IAO_0000602 0.45923376 0.21834522 0.104546696 -0.09380492 -0.4542137 0.09028638 0.52057993 -0.057195276 -0.029552205 0.0042017577 -0.48735902 -0.014699171 0.22472458 0.48468605 0.38575175 0.43157583 -0.07322807 -0.22542751 0.0667564 -0.36007583 0.19779599 0.08515908 0.018375788 -0.16899943 -0.027617313 -0.30768353 -0.7507578 -0.078889966 -0.3705276 -0.29057044 -0.24236518 -0.97863996 0.4557055 -0.51690966 -0.22261927 -0.4779664 0.2047917 -0.46490005 -0.089036845 0.42910153 0.029146073 0.0020737885 0.67863333 -0.056603234 0.16496988 -0.65205306 -0.4631512 -0.1701698 -0.23678331 -0.018744618 0.03219347 -0.4081839 -0.046731893 0.049851634 0.09743015 0.22410227 0.13977316 -0.20446081 -0.18341996 0.14239648 -0.37914735 -0.13844684 -1.0001566 -0.14892764 0.51124513 -0.35446882 0.48615405 -0.04280408 -0.08511245 -0.19740821 -0.014920305 0.08642518 -0.1929826 -0.24130802 0.25765422 -0.063376665 -0.17682128 -0.1240345 0.041153442 -0.13767444 -0.38354656 0.0675525 0.3831077 -0.36061886 -0.23046611 0.60523736 0.08350266 -0.16978239 -0.061129417 0.06722334 -0.40628093 0.27254498 0.24795604 -0.13183247 -0.20077763 -0.38593218 -0.1458909 0.11441652 -0.4411564 -0.004373935
than 0.46573293 0.5768992 0.8781447 -0.26923767 -0.9241509 -0.13281049 0.26317194 0.22916865 -0.653019 0.393212 -0.5036305 0.9943547 0.119104825 1.1670743 0.55771095 0.038307168 -0.07585519 -0.8910131 -0.034798194 -0.53692347 0.42664543 0.19257835 0.5576297 0.4057193 0.28266948 -0.57609785 -0.8635874 0.09064906 -0.13869888 0.14855805 -0.7296402 -0.6567347 -0.29320627 0.037436448 -0.18388277 -0.5990269 -0.23499355 -0.6162217 0.3573368 0.64518553 0.47858346 -0.054577958 0.77926457 -0.62446797 -0.17309792 0.012055125 -0.029771987 0.22764306 -0.085902125 0.09032186 -0.6129355 -1.2994457 -0.47824353 -0.39292684 0.35277835 -0.105575874 -0.6598773 0.80869013 -0.08677313 0.70707 0.19200477 -0.15178496 -0.88024837 -0.04614226 0.6469877 0.17298128 0.63411576 -0.2726265 -0.17379636 -0.11910985 -0.15620981 -0.542719 0.093043625 0.3636992 0.5391759 -0.1423764 -0.56826824 -0.13365276 0.11514908 -0.32083607 -0.28748184 0.2859622 -0.5201565 0.4523404 0.19690698 0.20216797 -0.7956051 -0.38882127 0.13259292 -0.09248169 -0.24250247 -0.1189453 -0.16922471 0.2816445 0.69818753 -0.69380355 0.03595059 -0.16195051 0.7955965 0.12640111
SubClassOf 1.0079253 0.38453135 -0.23058748 0.16760871 -0.32845965 0.25975984 0.41585067 -0.3499071 0.8789154 0.19568896 -0.021283958 -0.21087523 0.36022627 0.45009622 0.2188728 0.08209035 0.14337987 -0.44812107 -0.07940633 0.3410296 0.19788393 0.1631402 0.34762406 0.21945782 0.24898764 -0.4872823 -0.7553887 -0.4121788 -0.6370155 -0.24162845 -0.0535121 -0.5074307 0.434704 -0.12563358 -0.5666253 -0.3776917 0.14762141 -0.5159765 0.10732942 0.5593502 -0.22201228 -0.20991495 0.4406498 0.14233464 -0.036918916 -0.6156547 0.050185204 -0.18218106 0.026438659 0.17568362 -0.15169474 -0.19141847 -0.12310104 0.19487782 -0.30660644 0.11023061 0.21314403 0.044325694 0.15097511 -0.23598567 -0.084375136 0.046010617 -1.1034628 0.2610648 0.46369752 0.044195198 0.5824498 0.1335418 -0.46105808 -0.034365844 -0.0016500498 0.26244906 -0.3169929 0.1569715 -0.092639916 0.33182427 -0.4146203 -0.31907055 0.040072426 -0.5850615 -0.33124238 0.23645745 -0.011974084 -0.24029942 -0.2923353 0.42292756 0.06629961 0.08417365 -0.20155397 -0.20374411 -0.2541586 0.480571 0.56125903 0.13149749 -0.38705352 -0.50342137 -0.013238925 -0.0334236 -0.30225912 -0.056825723
deformation 0.5890206 -0.43916938 0.011930771 0.3477715 -0.48107898 -0.25309846 0.005959944 -0.13678664 -0.13537425 -0.015728919 -0.41561258 0.46087834 0.2560213 0.6907492 -0.026984066 -0.7286794 0.5310684 0.32411116 0.28482646 -0.053827096 0.39613312 0.5470125 0.59054387 0.07909475 -0.0055490434 -0.3734206 -0.5752455 0.38541102 -0.47593704 0.20144337 0.5723598 0.071112074 -0.08184242 0.019025339 0.20924082 -0.58913666 -0.01106314 -0.6733225 -0.47364086 0.37644684 -0.20688331 -0.0031784778 0.6470435 -0.23155262 -0.7729834 -0.40823287 0.09757872 -0.23617473 0.5051832 0.00840429 -0.00029259655 -0.7806609 0.21447392 -0.14439082 -0.08148622 0.09796014 0.054361053 0.367336 -0.43061695 0.6630643 0.45020205 0.35080633 -0.64490676 -0.24689135 0.08503568 0.041145686 0.027668333 -0.941311 -0.83639836 -0.6877713 0.07535694 -0.1062407 -0.575687 0.39200076 0.058110144 -0.15614781 -0.619439 0.49565133 -0.36430293 -0.82876545 0.19676287 0.06308344 -0.8736978 0.4713007 0.4852046 -0.29786047 -0.2542501 -1.2779251 -0.45663074 0.18047756 -0.1725576 0.86943656 0.33913818 -0.39810935 0.17855959 -0.7757721 -0.3326626 -0.47842726 0.2394452 0.119520105
slip 0.11097083 0.5530841 -0.088739954 -0.04374486 -0.33462512 0.36601946 -0.31322902 0.5344937 -0.822709 0.39321384 -0.73069936 0.46567932 0.6239833 0.9417097 0.37708423 -0.5434874 0.7599176 -0.84136057 -0.31542516 0.46740463 0.40235755 0.25720012 0.6977062 0.64373404 -0.0019374957 -0.28602624 -0.5386235 0.41184568 -0.25965434 0.20434998 -0.19632061 -0.61974883 -0.6262258 -0.10165765 0.27673787 -0.4336674 -0.1637976 -0.81188565 0.10814981 0.6141731 0.36450216 -0.40730438 0.26733035 -1.0122755 -0.12104155 0.51598203 0.5688606 -0.04408119 -0.45243895 0.5411327 0.5071506 -0.5144433 -0.68393064 -0.68468773 -0.22910802 -0.20906356 0.27256346 0.5739878 -0.68249214 0.6079255 -0.308848 0.34299138 -0.04854065 0.82801044 0.91408664 0.27071884 0.13192636 -0.33518443 0.33682516 0.14697307 -0.3391067 0.49359313 -0.4780053 0.10582298 -0.041717123 -0.017586755 -0.7503122 0.13678667 0.1016707 -0.28725293 -0.2245408 0.20773555 -1.1252671 0.054159366 -0.4404173 -0.07513132 -0.31294295 -0.7740671 -0.22288735 0.41610876 0.12438373 0.33660612 -0.39591134 -0.40179607 0.4305904 -0.15096678 0.28970435 0.29818264 0.5617474 -0.39996538
http://www.semanticweb.org/quy/ontologies/2022/8/untitled-ontology-33#GeoFault:fault_zone 0.61040556 0.12896079 0.06759532 0.17569384 -0.5585244 -0.6768076 -0.55113786 -0.13545483 0.7636777 0.41988522 0.03951028 0.41763613 -0.4837509 1.0547701 0.35981467 -0.40258437 -0.10184523 -0.5068149 0.67743254 0.08219948 0.40344366 0.1886468 0.38914052 -0.017986847 -0.62399864 -0.5054351 -0.9930861 0.38911384 -0.19627981 -0.23095505 -0.2474351 -0.41235825 0.54017097 0.2477535 -0.15202752 -0.48929778 0.087203205 -0.6062096 -0.13151146 0.8319034 -0.090581566 -0.2498012 1.1056653 0.37609413 -0.8775081 0.1602218 -0.26019484 0.1867147 0.2871429 0.11283398 -0.24302316 -0.9854872 -0.28191695 -0.42227405 -0.5169547 0.13809311 -0.09738363 0.84362125 -0.34146193 0.73899585 0.11984177 0.31468683 -0.79663557 0.34608775 0.38753584 -0.09312792 0.21770582 0.45294705 -0.9677036 0.5618183 0.24705471 0.20613587 -0.06581665 -0.14342329 0.6676564 -0.10715064 -0.22609767 0.05482191 0.2956587 -0.8978975 -0.05479391 0.124809 -1.3059584 0.1032984 -0.446405 -0.19579351 0.071016595 -0.3201727 -0.22741523 -0.17953354 -0.114795096 0.45211142 1.1081326 -0.21388613 -0.2921172 -0.9711189 -0.0035522126 0.33743584 0.17745152 -0.39164683
0000050 0.97358316 0.36865005 0.015191458 -0.003880104 -0.7550537 0.14634593 -0.016242951 0.20753531 0.17181985 -0.16907221 -0.6698272 -0.016580192 0.3150583 1.0102198 0.28893542 -0.20215926 0.07015889 -0.79985225 -0.24689665 0.6446499 -0.28457037 0.36351648 0.83984786 0.39642876 0.59851795 -0.71669364 -0.1103912 -0.03724848 -0.8794491 -0.11220819 0.07895819 -0.01812397 -0.26197684 -0.029477328 -0.17417546 -0.6340326 0.5869659 -0.68004256 0.3872914 0.32522374 0.39323825 -0.24596925 0.6084358 -0.14374322 -0.5258387 -0.6348217 0.36419722 0.47294706 0.4904365 0.07392969 0.044263817 -0.64740473 -0.7759569 -0.15793528 0.41729996 0.33232823 0.18323703 0.92579883 -0.02833797 0.45256108 0.008568046 -0.21206187 -0.40312427 0.8201804 0.11663368 0.409139 0.14761414 -0.23915488 -0.49030405 0.32868752 0.5926311 0.28251266 -0.4676625 0.024104716 0.49446976 0.070861675 -0.07557309 -0.2262204 -0.09584592 -0.5092506 -0.20756522 0.051795926 -0.738802 0.28509533 -0.2901282 -0.33857477 -0.7074503 -0.9293447 -0.3941863 -0.22251917 -0.11108221 0.51643854 0.29562074 0.30607605 -0.26257536 -0.47218567 0.16478696 0.13011418 0.67192733 -0.421037
0000601 0.20808601 0.20290391 0.21708167 -0.23293792 -0.4889504 -0.13585716 0.96514654 -0.10776339 -0.09349926 0.065284476 -0.37421927 0.4107955 0.14524327 0.32455078 0.28159803 -0.12565821 -0.052028626 -0.14246058 -0.5613093 -0.32015193 0.2643011 0.5179446 -0.07828267 -0.47069934 0.08298648 -0.48671526 -0.41843423 0.18193354 -0.46379748 0.089695625 -0.53908837 -0.86708814 0.1034124 -0.5454029 0.06104677 -0.599568 0.1875068 -0.28689203 -0.44636276 0.17225896 0.22956876 -0.26173273 0.5933758 -0.43254152 0.2929952 -0.55597365 -0.29385892 0.12694827 0.26162124 -0.13431773 0.123928055 -0.6894781 -0.38395852 0.20659171 0.41935027 0.52761614 0.20391646 0.08073175 0.041060075 0.34786567 -0.18619211 -0.13227294 -0.9034366 0.02215391 0.15114458 -0.09187557 0.22285654 -0.5795388 0.17482792 -0.118494816 0.053048477 -0.021554824 -0.19478147 0.10360929 -0.020627158 0.038993344 -0.43888375 -0.13797185 -0.515257 -0.6997 -0.17501476 -0.20108336 0.19846559 -0.041094378 0.12728395 0.58434033 -0.18555066 -0.54956144 -0.4555955 0.30711246 -0.008430934 0.36838463 0.30767167 0.036683008 0.26459157 -0.6141072 0.4476567 0.4779356 0.065063365 -0.051904578
generically 0.13794085 0.34632993 0.16617306 -0.15034522 -0.22100939 -0.035741366 0.17970665 -0.12273445 -0.80005187 -0.38653323 -0.47168636 0.66484815 0.12781715 0.7896843 0.60493374 -0.6498011 0.5725219 -0.61396146 -0.5783453 -0.5045538 -0.13919106 0.29045314 0.9138495 0.5220812 0.5682757 -0.54682153 -0.4536818 0.40030342 -0.4552689 -0.020229667 -0.77923054 -0.1460697 -0.19395247 -0.4304503 -0.52434784 0.45306543 0.37559325 -0.5452227 0.48413038 0.41961095 0.1408979 -0.10717438 0.68762094 -0.10723802 -0.014968928 0.09316379 0.25802392 0.33375978 0.23571749 -0.29671955 -0.09474639 -1.1550015 -0.10270469 -0.037130885 0.003966373 -0.11728231 -0.48340756 -0.16626155 -0.31134418 0.19625251 0.49043557 -0.358617 -0.32789722 0.38772956 0.4274165 0.4743623 0.3510984 -0.653309 0.06804848 -0.22929113 -0.36731386 -0.1250062 -0.51543593 -0.022297774 0.47449404 -0.35547262 -0.42744955 0.44787183 -0.011375962 -0.525778 0.40061826 0.028793985 -0.05044819 0.17203332 0.5080034 -0.07143732 -0.737746 -0.21609935 -0.2256041 0.016012931 -0.36357927 0.29894274 0.28817233 0.2933086 0.71386224 -0.091273814 -0.5658937 0.66878724 -0.29929912 0.5851248
https://www.inf.ufrgs.br/bdi/ontologies/geologicalspatialrelationsontology#ufrgs:geologicalspatialrelationsontology_externally_connected_with 0.45158106 0.5322525 0.08533393 -0.3243051 -0.55262357 -0.060937207 0.40760025 0.08051136 -0.31706622 -0.0491092 -0.16925207 0.5019766 0.5262152 0.8378829 0.11141228 -0.23480873 0.15446998 -0.7946684 -0.2701375 0.20351417 -0.0073480937 0.44584224 0.7056239 -0.021654673 0.39593074 -0.51104665 -0.30688426 -0.022256974 -0.24311098 -0.13118462 -0.24103342 -0.21875893 -0.36707017 0.08750867 -0.05605692 -0.3817124 0.07001136 -0.8303529 0.0751076 0.44650906 0.3536787 -0.26182556 0.3665283 -0.39808634 -0.3246126 -0.14786264 0.12490532 0.16148913 0.06033387 -0.06355439 0.07164344 -0.68371445 -0.5071195 -0.17361122 0.3657248 0.14891109 0.15802108 0.68138206 0.07741278 0.44299132 0.20509854 -0.083368376 -0.51903015 0.543653 0.2533868 0.16730766 0.38266847 -0.24456677 -0.16425876 0.28832027 -0.10378785 0.05739047 -0.011643919 0.21118705 0.19146141 0.15280105 -0.3889889 0.022411844 0.47803363 -0.38206974 -0.56238955 -0.119928665 -0.5402827 -0.02061641 -0.1692179 0.071696855 -0.7760961 -0.3285608 -0.15169677 -0.10879783 -0.117683604 0.40821314 0.025195023 0.21803196 0.26472557 -0.5247023 0.42241317 0.04323311 0.79442406 -0.066322476
0000087 0.69594663 0.5284962 -0.06837829 -0.34483707 -0.76893723 0.09792514 0.21790613 -0.023151197 -0.31163085 0.24161914 -0.34835744 0.37763298 0.06137652 0.69304454 0.25552392 -0.34777248 0.09007183 -0.5543136 -0.38544166 0.16281685 -0.24081142 0.42681938 0.6118381 -0.6033372 0.16694276 -0.6926141 -0.20421602 -0.03385985 -0.21224669 -0.21625203 -0.1518674 -0.13485771 -0.14161669 -0.16134956 -0.21307759 -0.44249147 0.08596009 -0.6955832 0.42460302 0.43870234 0.4947138 -0.43412054 0.7749834 -0.27069706 -0.50729537 -0.7858397 -0.21009162 -0.0727851 0.59132075 -0.30458444 -0.10080978 -0.48831874 0.2334921 -0.071998805 0.086447895 0.047234345 -0.13253754 0.4207033 0.22895232 0.4996899 0.1524235 -0.71654147 -0.29452795 -0.1455318 0.12055652 0.4792636 0.05109251 -0.35268387 -0.45377624 -0.20470925 0.29676548 -0.044366732 -0.2945882 0.21287228 0.16052239 -0.04721991 -0.19156763 0.13221192 0.21057287 -0.48930332 -0.42482328 -0.07632379 -0.9268281 0.0055341134 0.10379531 0.08599747 -0.6669198 -0.26526535 0.051222067 -0.24319278 -0.84428924 0.52808654 0.18951192 0.21942866 0.0750673 -0.47526923 -0.0009489681 0.11902545 0.29794872 0.14476906
http://purl.obolibrary.org/obo/RO_0000081 1.0780572 0.34803364 -0.04809958 -0.6868476 -0.7889732 0.65616465 -0.24500673 -0.44788688 0.2586743 0.5714913 -0.084643185 0.13746859 -0.22158924 0.98011833 0.041150935 -0.28364182 0.13748893 -0.7315868 0.16621476 0.037184928 -0.18557419 0.062143393 0.09200433 0.021365492 0.08499885 -0.30017737 -0.89175504 0.059110958 -0.50807714 -0.3200171 -0.38158914 -0.17136773 -0.03838395 -0.24614328 -0.69227004 -0.50525826 0.5730926 -0.827395 0.61111265 1.0377359 0.29683656 -0.6560771 0.6768316 -0.20176086 -0.4429724 0.06759021 -0.6919794 0.34224045 -0.068606034 -0.51685596 0.182098 -0.710228 0.3378369 0.050633356 -0.038036484 -0.021372963 -0.25840014 0.40587342 0.06751304 0.3290053 -0.42354178 -0.46073964 -0.5367136 -0.18822816 -0.24236341 0.5769779 0.2514927 -0.09269631 -1.0372312 0.0063240225 0.38318327 0.0692199 -0.02409802 -0.2104401 0.3535562 -0.16779698 -0.21288635 0.61012465 0.5405645 -0.26332235 -0.50493723 0.31556177 -0.80842865 -0.5977638 -0.4163185 0.127258 -0.10073107 -0.022338402 0.09241593 -0.47522944 -0.7607531 0.253532 0.10681352 0.036467787 0.2162704 -0.09398134 -0.64694107 0.42261475 -0.102346666 0.23762201
http://purl.obolibrary.org/obo/BFO_0000023 -0.054316748 0.8467997 -0.41221315 -0.7361783 -0.78640985 0.14154501 -0.14112529 0.12093213 -0.37675583 0.12488949 -0.11222666 0.25369573 -0.22321783 0.42003018 -0.026954545 -0.35355714 0.06651921 -0.5861104 0.33012372 -0.25521913 -0.07874176 0.120898806 0.1896987 -0.3098923 -0.52865416 0.021557879 -0.8444638 -0.29155034 -0.1442403 -0.41940278 -0.93223006 -0.19934854 0.21631546 -0.08016778 -0.055997968 -0.2474836 0.15580407 -0.74868864 0.6060736 0.94122916 0.55362695 -0.6838476 1.1262819 0.04223551 -0.51193845 -0.043640815 -0.44657588 0.67967904 0.3739892 -0.36652315 0.10852923 -0.7680106 0.23964526 0.021758752 -0.20344774 0.12913027 -0.020148447 0.41539037 0.0023668855 0.9402086 -0.39421836 -0.36307916 -0.34659475 -0.10350969 0.16946192 0.13843904 -0.03566432 -0.22994308 -0.59679514 0.06566567 0.29484338 0.039367285 0.45095062 -0.35648817 0.42192087 -0.3094749 -0.12471235 0.36223263 0.79527456 -0.54277015 -0.35135576 0.10970448 -0.9849983 0.015612227 0.23103277 -0.17427872 0.04184578 -0.16975974 0.36566556 -0.20721447 -0.9161909 0.3370658 0.6208227 0.017430661 -0.15281823 -0.5528001 -0.7036642 0.5253036 -0.45821604 0.19469541
0000600 0.24293117 -0.041039355 -0.24013548 -0.21989945 -0.6537225 0.13758217 0.6560426 -0.09998894 0.023238536 0.28167757 -0.5464674 0.07167777 0.25252157 0.41761553 0.14502467 -0.0042307335 -0.009171752 0.23652838 -0.5112507 -0.23499288 -0.02122008 0.53537846 -0.060655672 -0.33107144 0.1778034 -0.31200382 -0.1094588 -0.21115579 -0.5236407 -0.12212794 -0.25747663 -0.7497536 0.4606318 -0.66471684 -0.22177689 -0.78939235 0.117822334 -0.5121892 -0.28029525 0.24805446 0.023424454 -0.5707385 1.1945312 -0.29695147 -0.13121153 -0.7766088 -0.35867292 0.15870766 0.28581166 -0.1376738 -0.0875398 -0.6440266 -0.29177186 0.38723406 0.06440196 0.5361388 0.3191969 -0.32066837 0.0002348739 0.21305507 -0.48227704 -0.3988699 -0.72350794 -0.3703022 0.3661674 0.029480372 0.063911885 -0.18798004 -0.046464376 -0.4507115 -0.18817231 0.13405648 -0.29337168 -0.0031025962 0.21643169 0.15103264 -0.08901279 -0.18493974 -0.35232687 -0.77537847 -0.48665598 0.012862506 0.11752425 -0.17628554 0.083984405 0.6033531 -0.1374256 -0.24051632 -0.4062869 0.3487115 -0.060167838 -0.039435603 0.32299322 0.2278486 0.09388861 -0.4971298 0.5526828 0.39108118 -0.08653407 -0.27085
http://purl.obolibrary.org/obo/BFO_0000040 0.576146 0.46001035 0.35877582 -0.051236194 -0.43816522 -0.07106348 0.10991048 0.38833654 -0.5779933 0.5443014 -0.058706168 0.69962996 -0.29128996 1.3362145 0.27560022 -0.69589406 -0.044374704 -0.9916748 -0.011362546 0.3759942 0.10749174 0.36970913 -0.25619406 0.1870028 0.43893456 0.2130744 -1.1643672 0.18082201 -0.2037849 -0.09813176 0.20586714 -0.4985181 0.5695897 -0.1353611 -0.55839837 -0.4934872 0.85138917 -0.57973284 -0.6254551 0.27288732 -0.27700874 0.5354917 0.78027505 -0.19683674 -0.2612949 -0.5459538 0.004939184 0.33647478 0.27648008 -0.1724234 -0.14465061 -0.27443233 -0.12140632 -0.112592325 0.3513449 0.011069577 0.11933314 0.6619111 -0.49850595 0.31314087 -0.36293074 -0.1014223 -0.17391215 0.1614656 0.3416287 -0.01241423 0.17523858 0.26465753 -0.6117588 -0.16682623 0.13600242 0.22560684 0.601134 -0.25747383 0.24117182 -0.6450484 -0.08100632 0.42081213 0.13921463 -0.8667532 -0.625264 0.015707722 -0.46656868 0.100083694 -0.49945274 -0.15292086 0.14568903 -0.61941546 -0.29708177 0.12804684 -0.19485706 -0.036723416 0.5483125 -0.85341656 0.41639733 -0.08915896 -0.8170189 0.57387704 8.154602e-06 -0.14455034
0000051 1.0537452 0.26171398 -0.06624203 0.062108707 -0.8070883 -0.0136196995 0.0949925 0.26543587 0.16788504 -0.18689366 -0.58771306 0.01974882 0.29195112 0.91480947 0.41644746 -0.2526493 0.1910229 -0.7288297 -0.13618322 0.56447643 -0.093654305 0.26441014 0.98766655 0.38203168 0.6520686 -0.6824405 -0.09183823 0.080618195 -0.7621885 -0.061836712 0.27491182 -0.15292898 -0.28893888 -0.01813121 -0.17279766 -0.51918566 0.46444196 -0.73264855 0.40999746 0.34509903 0.3254664 -0.42597154 0.5833247 -0.11076232 -0.5462228 -0.65005845 0.32478788 0.44136447 0.59624594 -0.023703955 -0.026167804 -0.63320816 -0.7184428 -0.26483303 0.30437574 0.3854284 0.18925588 0.863893 -0.047062896 0.40239343 0.11681263 -0.16576621 -0.37278444 0.6500351 0.22877206 0.11394111 0.11007064 -0.34992418 -0.5085539 0.2590675 0.52794576 0.15261479 -0.4298126 0.042370807 0.4719359 0.19464709 -0.11886328 -0.3464851 -0.16180228 -0.69671273 -0.033685744 -0.0023222512 -0.7436933 0.28468627 -0.41612375 -0.23886879 -0.6637981 -0.7259121 -0.25932813 -0.21165378 -0.06106324 0.5232563 0.30336174 0.17174365 -0.29493806 -0.43374473 -0.001574327 0.14647405 0.58661664 -0.3162492
http://purl.obolibrary.org/obo/BFO_0000003 0.82806087 0.3254596 0.37129897 -0.0036937161 -0.073924735 -0.32345432 0.663384 0.3772306 -0.611905 0.040685117 -0.55054486 0.57723385 -0.22630149 0.6555939 -0.020276727 -0.8894964 -0.3405672 -0.20118114 0.24928121 -0.36228603 0.6003321 0.0019846784 0.1920819 -0.09968291 -0.17632726 -0.32553393 -1.4157664 -0.072046734 -0.16874549 -0.2734509 0.18486622 -0.6396242 0.25384834 0.28870192 -0.10393637 -0.55613005 0.19284654 -0.7030071 0.2891188 -0.24982725 -0.19114363 0.16922411 0.6810204 0.3532476 0.22825931 -0.4551245 -0.2607815 0.20820144 -0.042627584 -0.05263654 -0.39269996 -1.1646389 0.12667353 0.16486527 0.6668338 0.46177736 -0.5234891 0.70878786 -0.6002205 0.46262464 0.2031835 1.0381196 -0.6170401 -0.41637534 -0.018410034 -0.37352303 0.30396494 -0.70850545 -0.69039685 -0.09470999 0.46613187 -0.18278982 -0.03229811 -0.13713336 -0.00069590093 -0.8676408 -0.15512028 -0.047451466 0.16380061 -0.5150411 0.02998228 -0.013418965 -0.16540086 0.2509143 0.008535837 -0.20385076 0.39041787 -0.75847745 -0.393463 0.46295452 -0.2138291 0.60601723 -0.22600912 -0.65933067 0.31206638 -0.769476 -0.46240008 0.41579026 -0.04406164 0.08708182
http://www.semanticweb.org/quy/ontologies/2022/8/untitled-ontology-33#GeoFault:fault_wall_volume 0.32384145 0.7884755 -0.111593716 -0.38589862 -0.37899983 0.30128047 -0.25574994 0.21467726 0.42724037 -0.43335828 -0.15046158 -0.04947596 0.6010493 0.91124004 0.32849398 -0.3445924 -0.05101844 -0.9504978 0.23987488 0.2163778 -0.1949653 0.533181 0.61133254 0.18365707 -0.4747137 -0.7285794 -1.1562214 0.036545943 -0.4018313 -0.15357105 -0.6198294 -0.028950462 0.087842315 0.26966757 -0.08279445 -0.3671059 0.379194 -0.7134322 0.7068654 0.65897304 0.5228026 -0.17509198 0.956332 0.101261295 -0.081963845 0.044099744 0.43887332 0.86827964 0.13685143 0.025867209 -0.10336636 -0.6819111 -0.40264007 0.078313574 -0.634371 0.17164569 -0.38934302 0.62281585 -0.30063957 0.583361 -0.23865238 -0.26971862 -0.6323503 0.81644803 0.13043909 0.1408352 0.34552094 0.043720823 -0.32365572 0.86680377 0.045185983 0.23613113 0.33256942 -0.39430004 0.17442957 -0.20163384 -0.057855528 -0.09259074 0.853892 -0.25255206 -0.63438046 0.22189328 -0.8925258 -0.1438113 -0.6237195 -0.044770136 -0.4016247 -0.2623 0.033005714 -0.4416609 -0.36434656 0.07631537 0.108899675 0.40813524 0.083588324 -0.5708888 -0.2023809 0.3554386 -0.13069856 -0.52303827
and 0.2846859 -0.119235225 -0.37515488 -0.18881422 -0.5512252 0.90094894 -0.23647153 -0.17397982 -0.33936548 0.30098078 -0.22466354 0.74451554 0.30554605 -0.057992324 0.31603897 -0.49413028 0.63291085 -0.05036956 -0.74936974 0.4547068 0.12669232 0.20180902 -0.29172847 -0.07580813 0.4148255 0.23851594 -0.19752476 0.10411667 -0.8510576 -0.35934335 -0.24960685 0.19212775 -0.5582391 -0.32587594 0.29875347 0.36276835 -0.12749676 -0.25463918 0.5848471 0.2234476 1.0004294 -0.37066022 0.24044308 -0.045903057 0.3028643 -0.112637766 0.3644351 -0.2492361 0.08726252 -0.33760515 -0.34899363 -0.75683755 0.21433054 -0.08054352 -0.20882753 -0.5436018 -0.46921238 -0.1835325 0.1415443 0.35330987 -0.08664944 0.15798154 -0.5446723 0.13000235 -0.017905675 -0.21768093 -0.032370392 -0.30482635 -1.0608019 0.4181258 0.3883194 0.42723566 0.014790399 0.9204624 -0.438546 0.24658547 -0.6321157 -0.3019338 -0.5312449 -0.86622554 -0.566423 0.68609875 -0.2567814 -0.38589773 -0.58952945 0.2679433 -0.55808276 -0.22663538 -0.14641178 0.13001332 -0.31960312 -0.14591692 -0.24101956 0.7500692 -0.22849621 0.10081746 -0.010711809 0.44068438 -0.4477908 -0.40842763
brittle 0.501895 -0.57986706 -0.057244804 0.24189122 -1.0797694 -0.3270828 0.32773483 -0.4008167 -0.100885935 0.08017129 -0.0594527 0.1100953 -0.015372189 0.43477696 0.09799764 -1.0317345 0.47434014 0.22962314 -0.04144709 -0.039680973 0.054957777 0.65354824 0.113133624 -0.08193075 0.8131323 -0.7343488 -1.001387 0.08753994 -0.48855087 0.114805415 0.56084234 -0.16476941 -0.14577827 -0.00571918 -0.01713059 -0.46284163 0.07171462 -1.0862572 -0.124479204 0.51400703 0.062197354 0.34715015 0.8363085 -0.057678662 -0.8837158 -0.20473225 0.25922364 0.07651985 0.31537735 0.10968395 0.20321885 -0.8946417 -0.5394234 0.35577178 0.27411252 0.06282923 0.3436835 0.276813 -0.6890007 0.7253691 0.39825803 0.7421434 -0.15076345 -0.17870067 -0.14087154 -0.16841796 0.42358765 -0.5293547 -1.1248522 -0.23086804 0.68978816 -0.57047117 -0.3709313 0.27067629 -0.1904653 0.4797694 -0.74986374 -0.023562893 -0.005316289 -0.5226585 -0.40803874 0.13815758 -0.6735803 -0.22799751 0.036961656 -0.5845841 -0.5197874 -1.0906798 -0.6782155 0.053397987 0.26015958 0.30190107 -0.0022469645 -0.0358696 0.16493717 -0.79592264 0.15905577 -0.6652841 0.3483581 0.5048609
damage 0.3032794 0.34519678 0.21207686 0.25537667 -0.3083588 0.4515924 -0.48044947 -0.00876104 -0.18391964 0.21670313 -0.33090585 0.43024406 -0.12955025 0.79421014 0.030907728 -0.60697097 0.287132 -0.93913615 0.023639508 -0.054382857 0.5130387 -0.00038358863 0.21127695 0.30112997 0.34886798 -0.18451631 -0.29451314 0.5399486 -0.16486083 -0.089546286 0.1565865 -0.040422644 -0.4435708 -0.10577579 -0.17231491 -0.9190189 0.43141544 -0.60898215 -0.6785999 0.3349346 0.54986966 -0.6389541 0.4028534 -0.61160797 -0.78598154 0.10824777 -0.14763446 0.37914038 -0.13488023 -0.76911366 0.50831264 -0.532206 0.060004495 -0.8109208 0.11927437 -0.13761038 -0.026652819 1.0366553 -0.32934356 0.33139876 -0.12847012 0.018494857 -0.420619 -0.027112368 -0.07158945 0.34626722 0.050195206 -0.5501291 -0.38640332 0.059496854 -0.34178466 0.11168474 -0.08428676 0.33802944 0.42233378 -0.31306568 -0.3278124 0.19551581 0.3073954 -0.27295238 0.119582094 -0.11728451 -0.8040037 0.3138975 -0.04493573 -0.052807536 -0.41535965 -1.0665095 -0.26767594 -0.09750873 0.17184356 0.49588037 0.25619912 0.0500766 0.2688081 -0.1682649 -0.16030326 0.12007787 0.47393474 -0.29093048
shape -0.6754504 0.5194869 -0.60352194 -0.028819628 -0.47337362 -0.52663887 -0.18398125 -0.21603805 -0.45911726 0.19690774 -1.206509 0.43137935 0.3070423 0.34092093 0.4066105 -0.34846088 0.2879864 0.022922821 -0.38398424 -0.23667012 0.09820774 0.36316893 -0.27144918 0.85710794 -0.36683947 -0.26399717 -0.8307818 -0.48438436 -0.36313406 0.065955356 -0.582627 -0.49379358 -0.14744529 -0.6628305 -0.17824192 0.13616809 0.07225807 -0.7469089 0.5264152 0.5909132 0.98586184 0.47511905 0.45826244 -0.6381519 -0.5684926 -0.16608621 0.11655941 0.43070248 -0.082849585 0.28297865 0.035627197 -0.42785606 -0.96753806 -0.15125364 0.29126287 -0.26287645 -0.15591627 0.23223291 -0.6131935 0.0010921732 -0.0020576385 0.16887744 -0.370007 0.65313107 0.8436035 0.23947205 -0.17952095 0.11885163 -0.4903297 0.4858009 0.44181347 0.6578465 -0.5317086 0.023460018 -0.50505847 0.19100322 -0.9090016 -0.20263647 -0.2558189 -0.36392543 0.3061083 -0.3279001 -0.51532096 0.2975818 0.07070068 0.27283984 -0.35234126 -0.76632273 -0.57850623 0.1824391 -0.7224543 0.21380614 0.30235127 -0.2562112 0.36489457 -0.07711889 1.076612 0.6987456 -0.37028822 -0.7026329
temporal -0.0938584 0.013643318 -0.23411813 0.17291857 -0.49574438 -0.40914473 -0.075786084 0.07005806 -0.93150663 0.5253526 -0.609838 -0.05028582 0.64856404 0.20926228 -0.36569527 -1.0090804 -0.0748963 0.112091824 -0.32752255 -0.7112788 0.08402595 0.1284423 0.067979045 0.40113294 0.20815189 0.17482819 -0.39718086 -0.25615236 -0.76402247 0.3141952 -0.0012158258 -0.6075193 -0.32670844 -0.17288518 0.16096468 -0.41768587 -0.045758322 -0.95213485 0.027209096 -0.26556194 -0.12100588 -0.89769167 0.92694384 -0.21540296 -0.5267706 -0.020965166 0.038475726 0.641643 -0.12756103 0.14859737 -0.24614224 -0.8134695 0.2295753 0.2366519 0.22133006 0.17999943 0.4479132 0.14480919 -0.71785164 0.08085345 -0.27482533 0.6784947 -0.74220675 -0.6997217 0.5544125 -0.4079196 0.055627823 -0.47374424 -0.46831992 -0.2061335 -0.030379524 -0.36249667 -0.2295269 -0.15358558 0.11187604 -0.49815214 -0.024997108 -0.2888115 -0.13688889 -0.39402747 -0.14134121 0.1931694 0.004547146 0.8602742 0.69653654 -0.081234425 -0.11451671 -1.164376 -0.21870585 0.76135844 0.3959094 -0.11585297 0.67353314 -0.029475726 -0.17839214 0.088553905 0.2275371 -0.014885937 -0.23140183 0.38306463
immaterial 0.3336322 -0.09046502 0.5656331 -0.19231372 -0.38664097 -0.18069401 -0.43055338 -0.62460226 -0.8009861 0.7636184 -0.1840807 0.5854976 0.13495678 0.95195943 0.29078904 -0.37105682 0.4395136 -0.89983076 -0.20290498 0.01732519 0.7532248 0.043399252 -0.67356604 -0.09851249 -0.4722969 -0.38540626 -0.37151265 0.107760526 -0.011509337 -0.20807613 -0.027302474 -0.563505 0.1459587 -0.17069736 -0.43046585 -0.31979886 0.022671308 -0.72360677 -0.20701149 0.3860825 0.21730599 -0.18792206 0.24226215 -0.6129055 -0.105766885 0.01444991 -0.5087802 0.30316398 -0.14525679 0.22474718 0.36707628 -0.5268844 0.2783003 -0.58558565 0.88478667 -0.18277551 -0.43781883 0.2541364 -0.39566627 0.46305835 -0.11218212 -0.0638418 -0.5252527 0.30278483 0.4656676 0.5782966 -0.024541238 0.15004784 -0.28664073 -0.0149823 0.014585225 0.1777803 0.28525317 -0.1963158 0.5823473 -0.18835019 -0.15109149 0.20017616 0.22154902 -0.26859543 -0.020375032 -0.2201237 -0.8423571 0.60030955 0.019599631 0.3159223 -0.50552195 -0.7544739 -0.34215468 0.6559814 0.21146159 0.38993666 0.73452497 -0.17503496 0.51891077 -0.3742053 0.19646233 0.45754093 -0.080891415 -0.36655128
https://www.inf.ufrgs.br/bdi/ontologies/geologicalspatialrelationsontology#ufrgs:geologicalspatialrelationsontology_has_proper_spatial_part 0.36283848 0.42213106 0.53596795 -0.09464087 -0.32767352 0.06287854 0.33421478 0.19326997 -0.29488528 0.020593617 -0.47169882 0.5699369 0.19179781 0.9651377 0.11787852 -0.1871178 0.36346185 -0.7677938 -0.34408835 -0.2541164 0.038298856 0.21748449 0.46571767 -0.045656182 0.38747284 -0.67487484 -0.5460484 0.2918844 -0.32828644 0.003907883 -0.07343502 -0.71031976 -0.2720058 0.12843774 0.022207038 -0.3878796 0.23111704 -0.77128834 -0.15581253 0.22446382 0.22588363 -0.2017966 0.6539725 -0.615927 -0.2520995 -0.3171771 0.22554083 0.050021313 0.019788608 -0.06834361 -0.21477485 -0.9213827 -0.39205262 -0.3681579 0.4235659 0.090381846 -0.08490524 0.48525363 -0.032653037 0.5559466 0.2879748 0.029502107 -0.39180952 0.22687085 0.25959927 0.018298475 0.2933257 -0.6210264 -0.057386674 -0.36498955 -0.32247174 -0.21209776 -0.18086651 0.2891148 0.3457764 -0.21317644 -0.02912169 -0.18183307 -0.079939 -0.16590154 -0.14671846 -0.1429148 -0.33995557 0.06769643 -0.114720665 -0.0207138 -0.59893996 -0.44496387 -0.24812314 -0.006218713 -0.22406486 0.2615703 0.076883115 0.15640676 0.3952833 -0.55269325 -0.026946776 -0.09368091 0.4179252 -0.24393536
http://www.semanticweb.org/quy/ontologies/2022/8/untitled-ontology-33#GeoFault:fault_core 0.85067606 0.4079658 0.47859275 -0.15681495 -0.36031634 0.23555528 -0.2578699 -0.12183158 -0.13596457 -0.06898847 -0.46777076 0.081881285 0.20805079 1.1878366 -0.4313923 -0.58429956 0.21347626 -0.44909933 -0.031570945 0.23123449 0.24393858 0.34436274 0.5417094 0.20618959 0.47902 -0.5957342 -1.040929 0.18704616 -0.52206963 -0.25746197 0.18878789 0.0062385155 -0.27886102 0.49427056 0.04380406 -0.6215026 0.7321019 -0.28202286 -0.073828205 0.5639351 0.15331064 0.2861202 0.4704009 -0.60596246 -0.09007962 -0.21196666 0.21222697 0.1449056 -0.33847713 -0.07811244 0.16947389 -0.5143505 -0.20992197 -0.08865323 -0.028351648 -0.023957267 -0.103634 1.5149279 -0.44626838 0.5511996 -0.17104895 0.32971433 -0.5235244 0.55626565 -0.38253933 0.22100954 0.3327147 -0.4574571 -0.46781367 0.4097655 0.2422308 0.204185 -0.22775173 -0.053311456 -0.036858942 0.064742126 -0.053042345 -0.014423336 0.49488717 -0.0974329 -0.51119953 -0.13411121 -0.6757101 0.032974638 -0.4030686 -0.2113826 0.2841824 -0.86953616 -0.0372801 -0.42044824 -0.25713181 0.4711325 -0.19388446 -0.21039625 0.14841217 -0.2686249 -0.45024234 -0.14913854 0.2395036 -0.08789039
http://purl.obolibrary.org/obo/BFO_0000050 0.97794837 0.6237093 -0.05659488 -0.11156662 -0.57538015 -0.09242711 0.06234033 0.109020285 0.48810706 -0.004258799 -0.41753224 0.09093233 0.19971168 0.9861805 0.20090751 -0.124330364 0.16781019 -0.60699385 0.03685725 0.45922908 -0.27750865 0.29222685 0.8894384 0.42943212 0.7788869 -0.62653387 -0.73063415 -0.20925508 -0.8115903 -0.10794064 -0.03150764 -0.17326516 0.13643205 0.14596495 -0.015542369 -0.7084946 0.6380648 -0.56858146 0.34467992 0.6881414 0.11451536 -0.04088998 0.7705869 -0.14925216 -0.47985816 -0.72354174 0.20425473 0.22702628 0.33750737 -0.024860233 -0.078026 -0.4551176 -0.5482607 -0.26135767 0.0792992 0.37312332 0.24266885 1.0429226 -0.1815884 0.5012953 -0.038377773 -0.14289804 -0.57116187 0.5710539 -0.001453293 0.3763286 0.29918402 -0.10282654 -0.55127597 0.44841307 0.38669235 0.4397174 -0.12545326 -0.18664093 0.39938635 0.027497888 0.081077166 -0.4125303 0.17786503 -0.54845893 -0.40953082 0.16281995 -0.40762705 0.072148725 -0.5554283 -0.21904372 -0.198607 -0.55274725 -0.06226378 -0.4500237 -0.097403444 0.539233 0.38980258 -0.23206794 -0.4710255 -0.371524 -0.3994749 -0.23854621 0.22539738 -0.075879104
physical 0.04568458 0.7542041 0.33326367 -0.16426697 -0.7054346 0.39908084 -0.27452707 0.20847596 -0.80099726 -0.15601388 -0.6038979 0.5669218 0.5223752 0.7739193 -0.012000241 -0.14384831 0.32931772 -0.64515024 -0.32590377 0.22394352 0.45406935 0.0852032 0.29682145 0.4756441 0.066442356 -0.1099848 0.0959752 0.23450682 -0.28468952 0.30562186 -0.2924091 0.003981925 -0.49833935 0.07405066 -0.5247583 -0.7128664 0.16527723 -0.17956996 -0.36040708 -0.035878185 0.0037895532 -0.083759286 0.46758202 -1.0933853 -0.34300667 0.2155575 0.6470836 0.06392778 -0.4583451 0.23801382 0.18266942 -0.8226783 -0.45785135 -0.14395654 0.026791234 -0.43811265 0.011449191 0.7771049 -0.50405204 0.22368048 -0.4451629 0.3255916 -0.03140707 0.9964003 0.5744179 0.14403175 0.060762383 -0.27948362 -0.10468633 0.39318293 0.31219137 0.061677143 0.23715423 -0.054148294 -0.29891682 0.033890337 -0.18913426 -0.054613616 0.0551743 -0.38431486 -0.11589606 0.10074049 -1.3311214 0.07298868 -0.37744114 0.38485473 -0.1785758 -0.6550773 -0.13776015 -0.17361307 -0.20936307 0.5316205 -0.120756336 0.10915642 0.7164521 0.19001792 -0.06465453 0.53565985 0.1657834 -0.3363818
system 0.5450641 -0.059036467 -0.68251145 -0.028754378 -0.70291024 0.38750383 -0.47489792 -0.0326757 -0.39908734 -0.002334143 -0.5250937 -0.11120676 0.44855654 0.6574606 0.11139122 -1.1097829 0.5174529 -0.67396164 -0.53409785 0.3453311 -0.1837893 -0.18030734 1.0809757 1.0390878 0.12235837 -0.10648563 -0.19296247 0.40548182 -0.8246905 -0.16976412 -0.09336361 0.21527746 -0.47962657 -0.17534266 -0.1279617 -0.11598738 0.44218755 -0.81196547 0.8675383 0.6604638 0.37781885 -0.70313007 0.80028385 -0.5666637 -0.5933405 -0.11051651 0.58494925 0.0776402 0.6746659 0.36323118 -0.085653536 -0.92607987 -0.26802364 -0.16057228 -0.78614503 0.22000508 -0.44249398 0.19313985 -0.7457475 -0.26856896 -0.13194613 0.06712891 -0.25565472 0.7147891 0.717774 0.51486915 0.14165963 -0.24016258 -0.25515375 0.21679334 0.04307561 -0.11810046 -0.4625015 -0.113764495 0.20900421 -0.24135059 -0.40549868 0.32094657 -0.3810192 -0.4531447 -0.04503811 0.37025407 -0.7045045 0.29236418 -0.2961146 -0.02761963 -0.49505922 -0.35706562 -0.17277092 -0.48640305 0.11822743 0.28235918 0.29433072 0.45659104 -0.23703614 -0.009661099 -0.36170095 0.13627422 -0.12956552 0.10533578
http://purl.obolibrary.org/obo/IAO_0000600 0.414057 0.07023528 0.104083754 0.0008068641 -0.5728112 0.12788288 0.3545707 -0.16278514 0.035844598 0.048615113 -0.4468724 -0.2576841 0.12946303 0.5386611 0.13768001 0.3413056 -0.036362417 -0.10793707 -0.006124417 -0.17619772 0.04167736 0.17922534 -0.15556152 -0.046003778 0.1094263 -0.27685127 -0.5942059 -0.28344303 -0.48774052 -0.22369218 -0.22840534 -1.0548922 0.5991045 -0.49678037 -0.27830404 -0.57975584 0.25002453 -0.561675 -0.34052515 0.44824573 0.015473859 -0.17285395 0.85102385 0.0194034 0.05483064 -0.83537614 -0.5315603 -0.06709267 -0.0645102 0.09525802 -0.008190521 -0.35696027 -0.01398353 -0.011991031 0.13564093 0.2910381 0.27203947 -0.19466095 -0.06564957 0.13579343 -0.32314146 -0.2119282 -1.0566902 -0.22332375 0.5583119 -0.23172635 0.2764747 0.05458766 -0.11952777 -0.2754386 0.029466918 0.21861723 -0.33843982 -0.29952133 0.23936051 -0.12147261 0.028508808 -0.067823336 0.026732398 -0.34272733 -0.5364975 0.23262335 0.31200653 -0.33492282 -0.05509207 0.59241176 0.26301527 -0.31753063 -0.19857463 0.11102133 -0.15741505 0.25071028 0.3677176 -0.07942143 -0.42719674 -0.4134183 -0.033267926 -0.05279117 -0.55321306 0.15390052
disposition -0.53120404 0.25424993 0.19078068 -0.470649 -0.533181 0.35103637 0.1342418 0.24868174 -1.0461988 -0.16606666 -0.34563556 0.5959713 0.011965342 0.2735946 0.09829403 -0.48470584 0.04809632 -0.42406705 -0.14475605 -0.28686145 0.55523914 0.7454421 -0.6216541 -0.029747605 0.076587595 0.22625442 -0.59280723 0.031906515 0.39740896 0.4831893 -0.38502607 -0.40993664 -0.33262244 -0.20494655 -0.1516796 -0.29581937 0.3306274 -0.22352253 0.22969246 0.40563187 0.72348046 0.016535863 0.8701696 -0.68459165 0.4553912 -0.06967766 -0.09994359 0.48447198 0.5193721 -0.54351383 0.11370178 -0.8680402 0.331619 0.046370734 0.50174904 -0.029849943 -0.37076694 0.3173013 -0.20857263 1.0511667 0.2665305 0.2503288 -0.21098274 -0.21059921 0.37551507 0.43910503 0.28509262 -0.8420894 -0.63860184 -0.8280411 0.10019766 0.00034870897 0.040121965 -0.12344184 0.028058967 -0.45844236 0.13810743 0.42450824 0.6075781 -0.55140346 -0.20850822 -0.32268488 -0.7611854 0.18112858 0.4961715 0.004248127 -0.12771958 -0.71700114 -0.2474435 0.1619468 -1.0638406 0.34775376 -0.04832229 0.35119998 0.72095937 -0.60055566 -0.05220217 0.025012027 -0.059062026 0.30946514
0000080 0.54736894 0.02652817 0.17891273 0.5876929 -0.96505684 0.23721187 0.42406067 -0.23029292 0.26979688 0.025484873 -0.35085163 -0.4169592 0.28909343 0.45202377 0.05835594 -0.17498258 0.03415541 -0.086890705 -0.8271958 0.22410761 -0.09338196 0.6370446 -0.12818958 -0.047214676 0.21129316 -1.1749583 -0.4073773 -0.2646064 -0.022169383 -0.13409375 -0.1257578 -0.20011432 0.2999228 -0.40307263 -0.43452647 -0.18474919 0.045388844 -1.0168269 0.21942069 0.24559891 0.66981107 -0.0046983734 0.32884377 -0.44938862 -0.24 -0.29823416 0.10198772 0.033746265 -0.049416922 0.021489868 0.23980126 -0.43558753 -0.73966265 -0.05652589 0.5502377 -0.020487946 0.16363809 0.38767853 -0.2695847 0.47559634 0.22091882 -0.4545372 -0.43424317 0.24024226 0.52701724 0.47001758 -0.01726911 -0.08855523 -0.78629047 0.39406824 0.66614 0.16188237 -0.81859607 0.54974353 -0.4564323 0.46398818 -0.4733015 -0.663359 -0.0018236064 -0.5337956 -0.76623297 0.13175978 -0.66364485 -0.2530461 -0.48030943 0.00064453384 -0.7392623 -1.1350689 -0.6411331 0.24143039 -0.25341016 0.6688852 0.007127637 0.23397309 -0.017580207 -0.36700827 0.9288836 -0.057140917 -0.17426893 0.057333495
http://purl.obolibrary.org/obo/IAO_0000601 0.38822365 0.13706881 0.16612436 -0.003930842 -0.3551484 -0.08507553 0.61001945 0.081075065 -0.20506933 -0.08660227 -0.4771015 0.098720275 -0.122128986 0.4427439 0.14545089 0.41565827 0.045508813 -0.19290958 -0.029470908 -0.18227226 0.40602362 0.15013276 -0.20169574 -0.31068146 0.14819121 -0.42475906 -0.8713441 -0.07795981 -0.23906727 -0.33690962 -0.18781944 -0.93642926 0.41763213 -0.29053834 -0.20662144 -0.2897072 0.18904531 -0.4401736 -0.31176877 0.44714007 0.123285934 0.22894113 0.4301866 -0.06967515 0.3532164 -0.75831527 -0.29812282 -0.22335786 -0.14965771 0.14034645 -0.007905013 -0.5603102 -0.09039152 -0.039055813 0.18043569 0.3818279 0.13069968 0.21684526 -0.10500034 0.30867195 -0.3258884 -0.027306546 -1.028905 0.13334139 0.43772906 -0.38954788 0.38402078 -0.14801069 -0.15716858 -0.04813529 0.0734978 0.29073277 -0.26498023 0.024333434 0.14651592 -0.006095002 -0.20682573 -0.16289937 -0.0798957 -0.26004517 -0.349856 -0.054984625 0.37842706 -0.29565513 -0.30420616 0.388672 0.06959912 -0.32302216 -0.27581826 -0.036219124 -0.3765934 0.34942898 0.23059942 -0.38331133 -0.14242464 -0.5458238 -0.034676928 0.06848352 -0.56842667 -0.06749465
https://www.inf.ufrgs.br/bdi/ontologies/geologicalspatialrelationsontology#UFRGS:GeologicalSpatialRelationsOntology_externally_connected_with 0.45382908 0.7654176 0.14918055 -0.48517656 -0.17294422 -0.13156024 0.41810587 0.1148932 -0.18204741 0.017377958 -0.19013897 0.3662109 0.3421205 0.85520047 -0.11525589 -0.17480049 0.32499254 -0.7799846 0.01034731 0.23112606 0.03859952 0.25257537 0.53034866 0.09258757 0.5323993 -0.5102131 -0.8717281 -0.07149231 -0.45680812 -0.08965031 -0.33775848 -0.3582282 -0.09885557 0.33847702 0.00970583 -0.33205825 0.49653485 -0.69502306 0.10306189 0.548586 0.1296219 0.022756549 0.2516854 -0.45484832 0.047908116 -0.21045235 0.19890678 0.06682569 -0.2310941 0.16820554 0.04272735 -0.6052852 -0.36764657 -0.3108269 0.2425104 0.25855675 0.14492978 0.9134026 -0.09152184 0.66978174 -0.05533255 -0.0014631598 -0.55761415 0.70152354 0.2776462 0.25281402 0.41142842 -0.21702206 -0.28270575 0.49725157 0.1057717 0.13770491 0.048955813 0.018686038 0.13361089 0.12918338 -0.028246278 -0.034200296 0.5562646 -0.375971 -0.6915382 -0.019920643 -0.4193038 -0.004293046 -0.628101 -0.14391974 -0.14758202 -0.23095381 0.1034393 -0.1770118 -0.19762036 0.41085124 0.11842115 -0.2852592 0.04362043 -0.382414 -0.0834534 -0.16222826 0.1502659 0.06911846
https://www.inf.ufrgs.br/bdi/ontologies/geologicalspatialrelationsontology#ufrgs:geologicalspatialrelationsontology_proper_spatial_part_of 0.3334572 0.3409878 0.52441263 -0.14248948 -0.12463746 0.10803215 0.26770625 0.099210635 -0.20265321 0.18709956 -0.46189827 0.7683128 0.23196298 0.9517364 0.30791986 -0.10190743 0.20244512 -0.82035863 -0.22023728 -0.30014378 0.050727084 0.16061203 0.36563888 -0.14231601 0.18950452 -0.6245515 -0.44691744 0.32370585 -0.19061834 -0.058741316 -0.09372642 -0.50528383 -0.32358727 0.1162058 0.08935529 -0.54931366 0.27569154 -0.76848596 -0.05325954 0.2179709 0.11914669 -0.19734006 0.6563694 -0.6608724 -0.24171704 -0.21590222 0.234798 0.0705221 0.029599061 -0.043617554 -0.1955816 -0.89874977 -0.20365532 -0.20059872 0.3334624 0.08257223 -0.22053525 0.4546951 -0.23971067 0.5341498 0.15744407 0.02177731 -0.5131728 0.32910824 0.4694407 0.09517175 0.52223563 -0.55532056 -0.31526256 -0.37001985 -0.3364166 -0.27515465 -0.10522038 0.30395657 0.39865103 -0.29033265 -0.012904029 -0.065551735 -0.11949602 -0.07978954 -0.09234728 -0.28044334 -0.4819542 0.17902465 0.0010957238 0.0497994 -0.6774923 -0.37481672 -0.19839357 0.019404333 -0.28580716 0.24603054 0.36002496 0.17946807 0.53713995 -0.64457715 0.03284457 -0.19315495 0.22996497 -0.50972813
smeared -0.5901373 -0.13881941 -0.3513601 0.6233479 -0.3958583 0.4134945 -0.22249238 0.46557763 -0.5346657 -0.574585 -0.5428921 -0.58304703 -0.24464424 0.45182803 -0.6636224 -0.14187065 0.23692152 -0.19999157 -0.8782995 -0.019818746 -0.009250849 0.5046789 0.18000327 0.59978193 0.14013842 0.07276282 -0.13067627 -0.13497593 -0.2385122 0.09533098 0.029575145 -0.20456383 -0.028640123 -0.45892143 -0.07334385 -0.09150267 0.27986267 -0.89938384 -0.25345752 -0.20929365 0.81645787 0.25422177 0.8112659 -0.5161618 -0.28734413 -0.3483742 0.30052856 0.5011684 0.05522099 -0.18022172 0.29329008 -1.2277684 -0.56557775 -0.4100953 0.55753005 -0.8397029 0.025138518 0.34761328 0.14099304 0.42102802 0.31885815 0.12189455 -0.46242145 0.45747772 -0.24651723 -0.0136769535 -0.19721879 -0.81577957 -0.80834943 0.19344592 0.2106917 0.29204956 -0.5421807 -0.38820958 -0.5008617 -0.016473003 -0.58594346 -0.29263294 -0.32205966 0.12579668 0.4375966 0.2749817 -0.48452812 0.63237566 0.26939023 -0.28468263 0.13000987 -1.2582769 -0.90501297 -0.04191371 -0.37330824 0.3360675 0.120039254 0.10580973 -0.12390246 -0.34111005 0.7249445 0.43373084 -0.3743033 -0.056974396
http://purl.obolibrary.org/obo/RO_0000087 0.7952359 0.6812011 -0.10708097 -0.4142413 -0.5037659 0.013327983 0.25238234 -0.16043465 0.13732399 0.049922716 -0.11598952 0.2404043 0.020202948 0.748514 -0.0031791953 -0.23509452 0.21595936 -0.5594772 -0.05836751 0.10600133 -0.2754213 0.12999345 0.43664685 -0.3178585 0.26742697 -0.74847895 -0.72439045 -0.24630201 -0.46591514 -0.33140206 -0.4193437 -0.21814562 0.1884999 -0.02909389 -0.15596725 -0.24650362 0.55762476 -0.604717 0.3827827 0.9064761 0.30634186 -0.20806889 0.5623275 -0.30025044 -0.24098381 -0.572609 -0.3128042 0.11839973 0.3094716 -0.31404987 0.08725046 -0.43338272 0.18557805 -0.071877725 -0.17801802 0.35708284 0.003308704 0.6943171 0.19362922 0.5692989 -0.23306856 -0.6345296 -0.38679013 -0.11241652 -0.040374007 0.40361696 0.21336786 -0.28763804 -0.47606406 0.08911088 0.23054805 0.23340634 -0.102712475 0.041455887 0.28445613 0.09861523 -0.035507567 0.060309734 0.4344369 -0.22196695 -0.63523155 0.022509938 -0.5564016 -0.262836 -0.18720122 -0.12144599 -0.06798885 -0.12846255 0.2802324 -0.47774002 -0.77329725 0.4949204 0.39896488 0.012081601 -0.17679848 -0.48377693 -0.5515886 -0.058353778 -0.10761439 0.22249785
http://purl.obolibrary.org/obo/BFO_0000031 0.6098929 0.8310986 0.016450156 -0.037657905 -0.23080578 -0.14620738 0.123766564 -0.18608384 -0.48680794 -0.24256247 -0.30668285 0.93006665 -0.0030133806 0.51459086 0.31054556 -0.40394422 0.098943785 -0.5183392 -0.37174124 -0.37050405 0.014529226 0.11250831 0.95522624 0.37739065 0.4256535 -0.5804845 -1.0954489 0.37846717 -0.27079308 -0.28021878 -0.74644196 -0.15341681 0.27954033 -0.08662248 -0.36231405 0.3890008 0.46882424 -0.49345446 0.42182556 0.5949696 0.14482115 0.026685065 0.5850318 -0.103120066 0.47136727 0.052664965 0.156782 -0.25419423 -0.16881746 -0.29252037 -0.048136633 -1.0820808 -0.29924923 0.051762585 -0.11205923 0.06506178 -0.5370975 -0.12425896 -0.33332872 0.43741783 0.17816654 0.10779827 -0.43015924 0.15203962 0.23029122 0.32345334 0.23716666 -0.52611595 -0.09208477 -0.11072515 -0.17483932 0.22836208 -0.35926735 -0.03061723 0.3226685 -0.20117654 -0.38937038 0.40236342 0.18230374 -0.33081824 0.16650675 0.08275019 0.28039664 0.18178892 -0.06961508 -0.5507734 -0.020578628 0.0024020858 -0.15725675 0.12015265 -0.54664356 0.43010014 0.3454593 -0.15721877 0.592109 -0.25254363 -1.0171046 0.4829647 -0.6475874 0.6268784
0000086 0.59086806 0.3700577 0.14750442 0.4090163 -0.87738913 -0.057601295 0.4279449 -0.29218635 -0.0012035038 0.15298018 -0.4429971 -0.32272437 0.34839487 0.5681539 -0.08370478 -0.075185746 0.021663807 -0.08083124 -0.5803403 0.30852452 -0.08248855 0.7988858 0.2228514 -0.21414684 0.24211979 -1.2439308 -0.33211917 -0.28597257 -0.1564064 0.020993108 -0.17654265 -0.2174304 0.15556873 -0.31377566 -0.26389933 -0.1945129 0.2922056 -0.88849664 0.34775758 0.28462917 0.51333266 -0.034962304 0.35833263 -0.33789137 -0.11142401 -0.43932968 -0.0934077 0.094398916 0.09124081 0.07859677 0.043364014 -0.6316656 -0.6361945 0.24220146 0.593166 0.056033336 0.22395933 0.60921746 -0.03139751 0.54060763 0.28049108 -0.26497063 -0.09104613 0.30403388 0.38010207 0.65448856 -0.115019314 -0.28981528 -0.5332721 0.30280998 0.38866973 0.09407878 -1.0593225 0.6802071 -0.3883582 0.520143 -0.21092339 -0.46759236 0.03688665 -0.4377978 -0.7047027 -0.21335293 -0.89629465 -0.08670779 -0.06959931 -0.300653 -0.77096075 -0.97419894 -0.48810455 -0.12652196 -0.55689377 0.56110376 0.18802325 0.2305139 -0.30784577 -0.59707993 0.7693192 -0.24359863 -0.118954696 0.13494027
. 0.24294241 -0.4978748 -0.22394821 -0.07665475 -0.47245684 0.049442932 -0.27123487 -0.20369518 -0.451142 0.035173155 -0.29007006 0.30806255 0.35948852 0.29034275 -0.65289724 -0.9756523 0.078343615 0.1922951 -0.57925016 0.18525136 0.31547445 0.04982057 0.022970716 0.10762592 0.061266366 0.15124205 -0.19428319 -0.13586795 -1.175906 0.18251613 -0.6554754 -0.12941079 0.08474086 -0.16007805 0.40521696 -0.5291104 -0.29920283 0.027529236 -0.10885558 -0.30269885 -0.0020297607 -0.18959442 0.212839 -0.16493452 -0.40849397 0.34867707 0.11682986 0.22119673 -0.1960639 -0.47605237 -0.38846818 -0.519933 -0.35591832 -0.05830701 0.13977799 0.24792585 0.34940198 0.61815894 -0.030555317 0.7271115 0.165304 0.41314664 -0.44295907 -0.28871638 0.643 0.3044056 0.62574315 -0.60578096 -0.7830432 0.15411793 0.0132800685 0.5105906 -0.2966997 -0.6276454 0.25593537 -0.56894845 -0.36845204 -0.9653984 -0.25530297 0.13778612 -0.121402115 -0.49987224 -0.5488795 0.356836 0.5518159 0.6376928 0.15855913 -0.38149622 0.20857072 0.5917375 0.039202753 -0.347111 0.28134003 -0.16708827 0.28467792 0.015249749 0.43613708 -0.38693833 0.33916217 -0.16138352
earth 0.455718 -0.9286029 -0.015808111 0.27942917 -0.37695375 -0.06198353 -0.73186445 -0.10535222 -0.6379208 0.3352724 0.040406253 0.408195 -0.024817003 0.5458217 0.45871234 -0.940005 0.30405602 -0.53547114 -0.29409638 0.21490414 0.2151777 0.8737481 -0.57711965 0.6770944 0.25815132 -0.24121526 -0.8531741 0.18495478 -0.4895071 0.05439332 0.36647823 -0.414484 0.1783275 -0.10137684 -0.09291376 -0.65844053 0.57501394 -0.41534883 -1.0660915 0.7196308 0.28220275 0.03549521 0.86401415 -0.5245197 -0.2482652 -0.24429165 0.6379714 -0.47253308 0.5990485 -0.64677864 0.013843432 -0.3356776 -0.16733773 -0.23768727 0.5026281 -0.07033833 -0.22871488 0.43698227 -0.6527939 0.6280399 0.38300428 0.13358244 -0.4317885 -0.39872926 0.13664076 0.4523917 -0.28048822 -0.21776481 -0.6566894 -0.6760228 0.02652083 -0.1192466 -0.203958 0.11918947 0.4900535 -0.061054286 -0.31464165 0.4603635 -0.14281604 -0.6986641 -0.49236387 0.2493483 -0.46940428 0.7100033 -0.09811533 -0.59991497 -0.17394611 -1.0005803 -0.38782758 0.27030396 -0.1743347 0.50700223 0.53359216 0.33127934 -0.12770379 -1.0844035 0.051269427 -0.10246639 0.32876268 0.45574412
http://purl.obolibrary.org/obo/BFO_0000002 0.51355064 0.49791074 -0.021828562 -0.23204586 -0.6729852 -0.10256688 0.37476262 -0.13313845 -0.40429613 0.4088953 -0.5353854 0.4783885 -0.15351959 0.79730564 0.6215867 -0.14253668 -0.23483029 -0.29391727 0.21453196 -0.3612178 0.17055355 0.30742243 0.1557597 0.14256535 0.62493336 0.0072417734 -1.1944661 0.12868427 -0.19577283 0.057271842 0.00087980303 -0.61579806 0.04010823 -0.12462759 -0.062277865 -0.25666058 0.3339418 -0.52699494 0.095937364 0.5689377 -0.40476048 0.2261925 0.66804326 -0.26928437 -0.16296704 -0.14671119 -0.4776301 0.18387394 0.027693652 -0.17187741 0.4087696 -1.0940552 0.114186235 -0.09558574 0.76483285 0.23131202 0.11116375 0.10432812 -0.2684475 0.28404638 0.15280782 0.20693222 -0.48564723 0.11655012 -0.20598954 0.2728638 0.28734732 -0.41974607 -0.5773181 -0.2833984 0.25515884 0.06026233 -0.032829378 0.015962817 0.8326173 -0.20042108 -0.40372223 0.40679333 0.01182313 -0.41939244 0.021172933 0.36279228 -0.03408677 -0.3937364 0.10819996 -0.15869561 -0.021739013 -0.34981528 -0.3303633 -0.009860328 -0.30203015 0.52142465 0.37538487 -0.73282504 0.41393882 -0.018661486 -1.0449964 0.42403117 -0.3160116 0.34219566
