1324 100
continuant -0.34299228 0.18085542 0.17788506 -0.2325128 -0.19143304 0.5862197 -0.16121796 -0.113248356 -0.71032107 -0.4573253 -0.29534242 0.84337217 0.051934123 0.083551936 0.6961198 0.20757772 0.08421428 -0.8529484 -0.7470954 -0.3308211 -0.27695692 -0.26230648 0.0019478478 0.30486926 0.73653215 -0.3725221 -0.1794095 0.17069702 -0.19254768 0.37889692 0.06895146 -0.72194433 -0.4470577 0.09358666 0.21717872 -0.17531909 0.057965364 -1.0190426 -0.058266874 0.63011926 -0.100825824 -0.14161035 0.013016636 -0.20381561 0.10730651 0.4671514 -0.026385702 0.3137415 0.21270762 0.087732166 0.14284259 -0.81093574 -0.11330777 -0.031880632 0.45587865 -0.39761788 0.061072584 0.54516953 0.20978181 0.5534072 0.082930624 0.19571964 -0.46147627 0.7787471 -0.2759008 -0.31965622 0.34528747 -0.5864967 -0.14223446 -0.5504232 -0.038634438 -0.1978175 0.04080787 -0.2926743 -0.08776182 -0.05904231 0.12616864 -0.42288542 0.48406404 -0.07976275 0.47611192 0.2638995 -0.47525737 0.3901614 -0.09852067 0.25684503 -0.50475925 -0.59595245 -0.17875223 0.091301806 -0.19246297 0.5576685 0.30216882 -0.2553208 0.6036573 0.0057036723 -0.105593145 -0.05349034 0.12839295 -0.42933765
independent -0.2792305 -0.09868392 0.25082543 -0.43862695 -0.17734669 0.67568684 -0.09867506 0.109453835 -0.5310945 -0.34026405 -0.0356531 0.932259 -0.01213362 0.24366571 0.5633225 0.10775914 -0.19243447 -0.79712766 -0.42319986 -0.48314032 -0.032017235 -0.008962984 0.26906717 0.31152397 0.6487138 -0.45968413 -0.14400278 0.06385812 0.12705114 0.44084087 -0.29205236 -0.44290885 -0.3277113 0.24424157 0.27116692 -0.31098536 0.048340913 -1.2255629 -0.070223436 0.15216514 0.37668929 -0.04768135 0.1772582 -0.26550028 0.71482056 0.2880647 -0.17031637 -0.05950501 0.25062412 -0.43137774 0.31129062 -0.9325872 0.12947352 -0.25188133 0.3402137 -0.3432722 -0.35382378 0.8714999 0.3602076 0.859262 0.3937903 0.4295266 -0.5135466 0.49049833 -0.42794347 -0.24680522 0.050990585 -0.50367665 -0.33796436 -0.33727336 -0.51510364 -0.3159314 0.14873023 -0.17228656 0.45212358 -0.23061433 0.35653633 -0.5495896 0.5315577 0.25403568 0.34947088 0.051993955 -0.35009316 0.13607521 -0.24695404 0.20427102 -0.63573515 -0.63864136 -0.13595465 -0.38266814 0.07422733 0.7612733 0.034661807 0.0064631924 0.64348364 -0.25303063 -0.22989978 -0.23808722 0.23239246 0.07147562
subclassof 0.12914518 -0.1643537 0.37536994 0.33862463 -0.6407259 0.39784446 0.23147811 0.34468368 -0.43453792 0.0034181862 -0.24267137 0.34341514 0.0030491673 0.28297687 0.40350208 0.113642246 0.123738155 -0.84078866 -0.9926566 0.039081108 -0.42911652 -0.009750452 0.29374188 0.18708345 0.12621115 -0.31663525 0.4061177 -0.091188736 0.16385017 -0.25554487 0.025121985 -0.2635478 0.20807873 0.03300509 0.20579813 -0.23044445 0.030860715 -0.35351998 -0.21697396 0.17153531 0.31967527 -0.10902847 0.18165468 -0.22284769 0.32315195 -0.54750717 0.39269727 -0.23951286 0.47857985 -0.4617707 0.125076 -0.457634 -0.58615786 -0.07409098 0.049196135 -0.16140181 0.1998593 0.50552666 0.11154697 0.43381292 0.09263691 -0.42525616 -0.52224404 0.20435852 0.102376424 -0.39538974 0.14706726 -0.07836765 0.40778086 -0.16271302 0.18817748 0.12337535 -0.0232478 0.15184587 -0.08050794 0.10871682 0.27991432 -0.37978357 0.23133652 -0.3609084 -0.04916399 0.29175928 -0.16530648 0.34108666 -0.19325644 0.4318594 -0.03245908 -0.47270164 -0.012071641 -0.26749253 -0.0815998 1.1000607 0.34994453 0.06547251 0.12650591 -0.18418176 0.07443929 0.30953947 -0.2103423 -0.45699275
http://purl.obolibrary.org/obo/BFO_0000004 -0.15984932 0.053514346 0.048490237 -0.28521442 -0.04821328 0.45654985 0.28938973 0.098253526 -0.48909122 -0.4376058 -0.30675977 0.82676876 -0.23782884 -0.018640604 0.1790332 0.35729313 0.05956055 -0.53305733 -0.47414574 -0.7696897 -0.05215004 0.212109 0.3567354 0.66984427 0.7550134 -0.53096956 -0.6255959 -0.031118367 -0.0006751021 0.16275007 -0.25384733 -0.76248044 -0.3588913 0.4356774 0.08879367 0.124695875 0.21548662 -1.1734626 0.10221748 0.63786477 0.18898481 -0.20584007 0.40657806 -0.3625245 0.8323867 0.31108692 0.13138907 0.035082404 0.03283283 -0.43395388 0.2392547 -1.1763179 0.08548605 -0.19015239 0.52009183 -0.0018347848 -0.39157796 0.75942075 -0.10393913 0.7828857 0.1586567 0.78014773 -0.5658478 0.57614017 -0.36036137 -0.22293036 0.41576755 -0.465181 -0.12793891 -0.049797904 -0.48782688 -0.24831672 0.06682035 -0.09252135 0.27731958 -0.36311987 0.29316178 -0.25044027 0.4456117 0.19298986 0.14849672 0.085135706 -0.01899368 -0.27731004 -0.3670348 0.07620629 -0.36416608 -0.39002022 0.068142384 -0.6262191 -0.1407721 0.5166527 -0.14499497 -0.14871392 0.72858196 -0.5488675 -0.38890353 -0.299702 0.13530126 0.06884045
fault 0.15606767 -0.30756754 -0.05067039 0.35793245 -0.6060086 0.46408135 0.12794504 -0.15193354 -0.03619811 -0.81964815 -0.24560094 -0.32181102 0.32192266 -0.32216275 -0.02440928 0.26238984 0.49072146 -0.90346247 -1.1449761 -0.025794713 -0.17737253 -0.020291787 1.1559931 -0.103612885 0.38057277 -0.5288859 0.7090456 0.52922404 -0.34839323 -0.03039748 -0.043076046 -0.35534373 0.5381281 -0.035058133 0.07378327 -0.389535 -0.2999504 -0.46772003 0.12837401 -0.035823766 0.055360526 -0.50027364 0.11590157 0.1648935 0.5360572 0.11952541 0.00042235793 -0.03954531 0.1151649 -0.08290371 0.21827538 -0.25785646 -0.32267702 0.10605407 0.012490275 -0.10318464 -0.22873075 0.61387056 0.1620014 0.8313593 0.031929072 -0.38041407 0.0368413 0.5400737 -0.05152899 -0.103727676 -0.2693745 -0.09306729 0.069632 0.23035575 -0.085866295 0.1432596 -0.42893374 0.23191746 0.35636753 0.40326884 0.5277826 -0.50376976 0.07753252 -0.38769543 0.22859506 0.07606222 -0.5812464 0.40688804 -0.29937455 0.23719645 -0.21805814 -0.64299184 0.08174236 -0.1967684 -0.18096869 1.0851098 0.42037937 0.10601372 -0.12453972 -0.11115218 -0.16426449 -0.16931717 0.3492352 -0.47319877
of -0.09754106 -0.01555255 0.6236568 0.40882373 -0.52033234 0.37545836 0.009731705 0.08630926 -0.16453966 -0.22179486 0.3818755 0.5638297 -0.14317484 0.064932 0.6968294 -0.11832949 -0.0011512237 -0.6501683 -0.762102 0.06332522 -0.47996685 -0.29219553 -0.079455264 -0.07851526 0.2701072 -0.4437389 -0.0123110255 -0.034324627 0.14857727 0.2500445 0.2106506 -0.38530836 -0.008065511 0.17938523 0.10001028 -0.36214885 -0.30261716 -0.6584835 0.032921325 -0.089697495 0.14990783 -0.22880979 -0.03190135 -0.16582431 0.42084372 -0.6173587 0.003549927 0.009005042 0.32048327 -0.18281254 0.50514597 -0.5088815 -0.26405683 0.10568469 0.07371201 0.15926574 0.19069102 0.50979483 0.24143307 0.46777585 0.19454816 -0.30671072 -0.13667424 0.2383554 0.32361656 -0.43515876 -0.16653034 -0.27378103 0.29047188 0.08554372 0.30152053 -0.12843959 -0.39553636 -0.17800361 -0.32632643 -0.00017829533 0.3279434 -0.5411022 0.41094553 -0.5291148 -0.013717253 -0.01887767 -0.5184499 -0.0947942 -0.0028572567 0.5465593 0.00340645 -0.71940917 0.10463109 0.124292366 0.12729362 1.0331912 -0.13911162 0.81807524 0.25862566 0.19649926 0.09462093 0.1814998 -0.13504604 -0.35596356
http://www.w3.org/2000/01/rdf-schema#subClassOf 0.12880594 0.12888439 0.30368176 0.11715037 -0.384424 0.30391306 0.3998235 0.3155313 0.05799466 -0.11242799 -0.17419204 0.46168542 -0.37712374 0.53046024 0.40396187 0.16900724 0.038852416 -0.43659636 -1.1198063 -0.25326914 -0.2674092 0.09674978 -0.005554868 0.28317747 -0.0852816 -0.40817365 -0.24834427 -0.3351395 -0.055379108 -0.07849808 0.2793518 -0.64523095 0.45809153 -0.004665533 0.08267334 0.14653012 -0.074428596 -0.64227855 0.031640224 0.48555434 0.27925545 0.049562886 0.45812315 -0.41276768 0.64706093 -0.47850317 0.46318522 -0.1976524 0.3250543 -0.29868492 0.32962012 -0.5503762 -0.45983556 0.36824244 -0.24041411 0.21430716 0.068972975 0.49906707 -0.28452185 0.5927369 -0.23135555 0.033602923 -0.6143933 0.18613198 0.001515789 -0.08786214 0.35666975 0.08410861 0.54846615 -0.020951107 0.14497954 -0.032756478 -0.08380015 0.12140862 -0.25568253 0.10830505 0.14469339 -0.22640887 0.08100468 -0.026450234 -0.099361785 0.31588838 0.51652205 -0.015049966 -0.5747469 0.37076628 -0.014839856 -0.24689831 -0.1285908 -0.34377405 0.0057323677 0.9527524 0.25499222 0.1175052 0.18748261 -0.4322806 -0.2016524 0.3833184 -0.41525143 -0.4109447
ro -0.21688645 0.4756313 0.19746214 -0.24802276 -0.85960007 0.5236319 -0.10963648 0.07797709 -0.4013075 0.07828749 0.094455115 0.41472596 0.3983465 0.46174347 0.6857695 0.28435445 -0.045734692 -0.667414 -1.0991033 -0.09182455 -0.14589639 0.45216218 0.62855226 -0.47746447 0.18649009 -0.39126796 0.3543399 -0.4231655 0.08608946 0.047111988 -0.14312656 -0.5613948 0.33701083 0.22791556 0.261571 -0.17931286 0.025190912 -0.27401632 0.044349134 0.22305802 0.5537398 0.08010848 0.24321121 -0.30521956 0.7322925 -0.3822323 0.04044371 -0.40506163 0.32542783 -0.54876393 0.4596785 -0.6998834 -0.51304656 0.23308133 0.36571914 -0.386952 0.097655095 0.17443846 0.30120522 0.5204649 -0.17206508 -0.2594198 0.3536531 0.6579294 -0.48516154 0.036777128 -0.27329496 -0.68464535 -0.24351722 0.059051737 0.34038383 0.16532466 -0.5285979 0.024240093 -0.0028171653 0.30228895 0.2835105 -0.7461052 0.23467638 0.008307655 0.54528964 0.09678193 -0.8075061 0.07394958 -0.18795319 0.5939127 -0.45027196 -0.5687172 0.19558953 -0.6876171 -0.78453815 1.1300896 0.53647864 -0.020872153 -0.12426253 -0.69389516 0.8054625 0.09551665 -0.47800103 -0.5147266
class -0.31943893 0.15286604 0.3247807 0.34643817 -0.51460797 0.65313464 0.21552141 -0.014866322 -0.3305528 -0.06837043 -0.49415764 0.43470386 0.20253432 0.12669797 0.6976307 0.070918165 -0.494657 -0.81894904 -1.148702 -0.01891769 -0.43957254 0.0067006685 0.40051797 0.083765335 0.20477405 -0.661179 0.7387048 0.081358984 0.15494615 -0.18874104 0.46600392 -0.44794616 0.39351654 -0.16545184 0.023286449 -0.14580789 -0.53402895 -0.541373 -0.20435648 0.3262621 0.11162505 -0.09068282 0.53927416 -0.07952716 0.19326726 -0.8904874 0.14344673 -0.44736826 0.31010064 -0.27474967 0.2767804 0.0091828 -0.3690007 -0.10092955 -0.111901104 0.07857226 -0.011991832 0.17085747 0.15017027 0.46476018 0.1582111 -0.21335268 -0.43585667 0.42724758 -0.0029876544 -0.30427495 0.1413548 0.2637058 0.42332345 -0.10265968 -0.10280902 -0.27887803 -0.55192 -0.251073 -0.064442284 0.1802949 0.14748815 -0.19938578 0.35784265 -0.24877661 -0.2931702 0.44563305 -0.06525317 0.1642966 -0.34107035 0.55442077 -0.14967595 -0.6260186 -0.08192042 -0.3307145 -0.20827402 1.0633365 0.25072545 0.27854142 0.03708258 0.012838611 0.27813986 0.34347707 -0.40973055 -0.297817
super -0.5897726 -0.15282708 0.25177273 0.240691 -0.45948908 0.6031765 0.3622783 0.016362442 -0.6382789 -0.24226579 0.17967159 0.2381408 -0.28613812 0.33959836 0.471953 0.41331238 0.024452042 -0.49754754 -1.2897809 -0.17000341 -0.38892803 -0.023217741 0.57257897 0.036900703 0.052724034 -0.15730233 0.54587454 -0.19530013 -0.068296425 -0.124157086 0.19279857 -0.43482476 0.26096517 -0.021922894 -0.031568088 -0.3156596 -0.38795707 -0.5686564 0.097845495 0.21398601 0.48886412 -0.15428017 0.48196313 0.102903105 0.1236369 -0.8700655 0.58798796 -0.28998914 0.48148465 -0.52895707 0.2212868 -0.5311166 -0.46035022 -0.07490999 0.111245096 -0.0479994 -0.16918677 0.28866592 0.2995685 0.04649829 -0.18779367 -0.35459694 -0.11072347 0.5194225 0.17606264 -0.35895678 0.0027982607 -0.1851077 0.50777745 -0.16493866 0.19726267 -0.03305115 -0.30010593 -0.17044248 -0.22623833 -0.16984507 0.032333653 -0.4063064 0.33514503 -0.33651263 -0.17603287 0.54213536 0.02796981 0.3205811 -0.42139557 0.50408757 -0.11957763 -0.7309864 0.20477606 -0.094700135 0.29254234 0.86597604 0.081765145 0.075617224 -0.047134046 -0.14357491 0.40218952 0.5006964 0.33942124 -0.44528127
http://www.semanticweb.org/owl2vec#superClassOf 0.08708438 0.1706863 0.33042786 0.3556882 -0.5037829 0.5094061 0.6411628 0.20490454 0.108870685 -0.18132295 -0.100974426 0.10980324 -0.49686617 0.19439909 0.23751463 0.06879813 -0.035775438 -0.5013091 -1.2589927 -0.39313987 -0.1797508 -0.049924396 0.31163168 0.36519262 0.046007637 -0.3221221 -0.12661235 -0.29720873 0.1080239 -0.056790385 0.25848946 -0.7608657 0.66540486 -0.18802933 -0.18978943 0.07831431 -0.07533625 -0.7562745 0.2924553 0.4664464 0.37674496 -0.08611439 0.5251399 -0.36908272 0.6430499 -0.83532876 0.4387614 -0.45480886 0.19854014 -0.2834033 0.54268074 -0.39041469 -0.4116481 0.24288581 -0.1737028 0.2793985 0.025479602 0.27880713 0.0063191038 0.34894913 -0.25335556 -0.052697513 -0.54191446 0.3653938 0.14199226 -0.35270527 0.35853067 0.18098074 0.5523319 0.05049267 0.10806971 -0.16743529 -0.19953223 0.10364497 -0.4541019 -0.15340029 0.12452901 -0.45433167 0.08759868 -0.16691421 -0.19990471 0.29152653 0.48333058 -0.2620708 -0.57798964 0.52343225 0.27572164 -0.22429383 -0.08159776 -0.4262926 0.09150067 0.9374862 -0.09279901 0.0019094003 0.058174368 -0.36117685 0.028899688 0.4953168 -0.3453977 -0.40772557
label -0.36132592 -0.042376917 -0.07604579 -0.37116665 -0.09592619 0.6136124 -0.1823141 0.067677066 -0.4741384 -0.054740652 0.14845143 0.4329266 0.15763566 -0.13096754 0.41496357 0.37092823 0.0014834601 -0.5712666 -0.8670603 0.088308476 -0.39772642 -0.39848638 0.41796634 -0.52747375 0.039999947 0.09310369 0.8712158 0.106080756 -0.27471203 0.20093976 0.1640163 -0.068604775 0.17930023 0.22517778 0.070350505 -0.17305376 -0.02490959 -0.08095797 0.49515 0.4008242 0.13659133 -0.39191297 0.3186304 0.30547205 -0.08263749 -0.7437845 0.024899706 -0.2659962 0.06770158 0.021163162 0.2201134 -0.13911965 -0.2398908 0.2206479 -0.41077214 -0.25590587 0.12225966 0.19617738 -0.099988736 0.7589075 0.007823138 0.13219188 0.3729956 0.27286234 -0.04687229 -0.35612464 0.001424903 0.15178107 0.4163344 0.18348223 0.10064785 -0.29054153 -0.51822877 -0.17943951 -0.2160333 0.4832688 -0.035769235 -0.5846666 -0.37194908 -0.18969959 -0.38225216 0.22253303 -0.045559336 -0.3009802 -0.41713288 0.5528998 -0.27608755 -0.57736516 0.4001691 9.218874e-05 -0.13321915 0.35070494 -0.23596309 0.3970769 0.2841411 0.11710056 0.31573975 0.41735432 0.44639266 -0.2610548
geological 0.06845414 0.26357365 0.72849756 0.45335266 -0.15497752 1.3216864 -0.15867287 0.24869592 -0.87254435 -0.19722652 -0.32212883 0.76696354 -0.2600907 0.03148938 0.27317935 -0.61807096 0.15002938 -0.78264546 -0.8498597 0.0100404965 -0.18305215 -0.44324103 0.3796046 0.31234375 0.32067767 -0.095215656 -0.3128235 0.5191141 -0.2702467 -0.033330016 0.52709115 -0.092368886 0.20264348 0.09988452 0.14466825 -0.38279957 -0.58957577 -0.15630665 -0.18481407 0.2704493 0.24218261 -0.27345687 0.2269583 -0.048040003 0.34352607 0.07506244 0.38788283 -0.25534818 0.24777225 -0.031717833 0.43223333 -0.22654365 -0.6633992 0.4689567 0.27143073 -0.6408614 -0.3720281 0.0690031 0.4943416 0.4486017 0.020182593 0.41305315 0.03629167 0.42677137 -0.61269134 -0.53839076 -0.29508606 -0.2718004 0.20773211 -0.112601 -0.24398997 0.058917627 5.2622472e-05 0.106592044 0.306542 0.25321642 0.44859108 -0.2159843 0.0142819 0.3758658 0.19106556 -0.14161398 0.07058243 0.5630908 -0.3668658 0.016423156 -0.24808665 -0.50646937 -0.3530484 0.32400662 0.0061235204 1.1338135 0.07051644 -0.07410661 0.70724005 -0.28389925 -0.20959184 0.13559382 0.06296698 -0.91865027
structure 0.16762178 -0.64954484 0.11300924 0.39642942 0.23285884 1.0323458 -0.19780675 -0.19024752 -0.6530826 -0.19054396 -0.28727412 0.37600055 0.48156822 -0.061861582 0.8552337 0.07163002 0.5731541 -0.43748564 -0.8223939 -0.03908989 -0.34874827 -0.3345488 0.7233475 -0.06136027 0.24335073 -0.79520375 0.633712 -0.21729293 -0.5223653 0.03779345 0.2803981 -0.065447465 -0.10198195 0.36870268 -0.09359053 1.0649741 -0.55608636 -1.2380334 0.7308242 0.21832933 -0.20062186 -0.31057152 -0.061976314 -0.4150586 -0.4195949 0.5328486 0.48588085 -0.4051679 0.2613396 -0.14917034 -0.29854223 -0.26191768 0.40743068 -0.045361888 -0.15177645 -0.25262368 -0.4453231 0.41906044 0.025844662 0.6704928 -0.333593 -0.47489485 -0.38776964 0.4247746 0.32089326 -0.54989386 6.868125e-05 -0.7599027 0.5906498 -0.23834182 -0.27247941 -0.3098875 0.08117613 -0.13174853 0.4692271 0.32994822 0.23677728 -0.407705 0.45050666 0.06989424 0.45705804 -0.18246059 -0.029887127 0.46411243 -0.46037018 0.15619634 -0.36937279 -0.70018804 0.59554434 0.7376955 -0.73837155 0.81826043 0.35093153 0.23272766 0.19919525 0.016177341 -0.19200638 -0.08470794 0.009715205 0.23659533
iao 0.098145686 0.10202728 0.17083487 -0.16785352 -0.8273548 0.3005352 0.12623647 0.54778963 -0.8195015 -0.020846821 -0.5942437 0.4219095 -0.31891972 -0.18227269 0.35253423 0.2470977 -0.07056255 -0.72742766 -0.5625305 -0.67442626 -0.15039368 0.17391668 0.16094054 0.25876406 0.27986634 -0.04759065 0.41919944 0.42978644 -0.2064196 0.3473313 0.32588622 -0.53558934 -0.15363243 0.23717688 0.0041750823 -0.770367 -0.18171594 -0.28274095 -0.20873705 0.52654564 0.19561568 0.059008304 0.35370588 -0.10827199 -0.0020856676 -0.95198345 0.4655528 0.19944617 0.29231575 -0.76693445 -0.03970181 -0.92206436 -0.69049 -0.05680886 0.1713406 -0.43647203 0.325348 0.14526299 -0.058235504 0.39744303 0.088352576 -0.57123303 -0.20261054 -0.016395826 0.033395 -0.66948587 -0.059055097 -0.437267 0.219506 -0.25729728 0.38384533 0.024126578 -0.39395392 -0.30645135 0.13707809 -0.10730179 -0.01169466 -0.20388946 -0.070119984 0.14445603 -0.32942575 -0.29016048 0.0016643094 -0.20564641 -0.100533426 0.87708503 -0.42665657 -0.7451185 -0.3790454 -0.1008907 -0.5023654 0.4067126 -0.38612643 -0.124407046 0.1664645 -0.010646934 0.61350185 0.59276116 -0.22406447 -0.15424266
http://www.w3.org/2000/01/rdf-schema#label 0.08676764 0.055045083 0.10813619 0.010611449 -0.2400618 0.29891613 0.6220076 0.025349198 0.003052766 0.23590107 -0.277521 0.18857627 -0.40696073 0.17122436 0.3379432 0.22983307 0.026329653 -0.3365402 -1.1237205 -0.07682489 -0.25094253 0.046474207 0.14528881 -0.026604097 0.15787145 -0.35699707 -0.0270344 -0.20949031 -0.07308307 0.22322395 0.15392368 -0.54486257 0.4929315 -0.104855485 0.2083101 0.20609039 -0.17697756 -0.3528108 0.25898135 0.38047865 0.3321673 0.056268845 0.2466522 -0.19696552 0.42790258 -0.69605 0.2598715 -0.1661854 0.23589686 -0.1847721 0.41534227 -0.37439662 -0.3793708 0.4496994 -0.5200902 0.05380158 0.14548983 0.13487343 -0.029242149 0.61113167 -0.46521136 0.07049661 -0.13331527 0.18652593 -0.055540875 -0.10803165 0.34640446 0.10585524 0.5258282 0.3453751 0.08330399 0.021998895 -0.40922335 -0.033685274 -0.23602429 0.10135118 0.13538921 -0.36538428 -0.025674824 0.06903951 -0.3233805 -0.0090654725 0.30631024 -0.5138282 -0.5621899 0.6124063 -0.061205015 -0.33274096 0.14880799 -0.37872317 -0.13935234 0.5846152 -0.09212726 0.26654518 0.26383668 -0.18294805 0.14672275 0.1637383 -0.07291232 -0.20854829
bfo -0.2611027 0.40527073 0.80134803 -0.52640265 -0.46550837 0.95476377 -0.27518898 0.11005498 -0.55737984 -0.18930642 -0.088567294 0.44560814 -0.26976317 0.38405 0.31126624 -0.5744783 -0.35807687 -0.26325464 -1.2603782 -0.30251992 -0.3150486 -0.34328347 0.78943604 -0.070817806 0.36718717 0.15241773 0.16791762 -0.1773861 0.045172475 -0.056639016 0.26410916 0.07124562 -0.38705236 0.7018463 -0.18578365 0.047237657 -0.773043 -0.4284779 -0.07878217 0.35350928 0.47313043 -0.4750125 0.40529874 -0.2840317 -0.074283645 -0.53516436 0.40339553 0.057041563 0.517844 0.3534824 -0.23861857 -0.73005927 -0.8081807 -0.16324683 0.02305314 -0.572973 -0.07184869 0.73756635 0.5034932 0.44349337 0.12817521 0.5565143 -0.20923278 0.3450311 -0.4034783 -0.5497728 0.053987578 -0.027242562 0.40626758 0.15227966 -0.1660889 -0.276723 -0.006459338 -0.092884324 0.2920007 0.17539409 0.2002671 -0.16992816 0.9148213 0.007936813 0.3810776 -0.56478375 -0.3806918 0.60851556 -0.20974052 0.34579992 -0.028727753 -0.67059195 0.2845035 -0.5751568 0.048737418 1.5892782 -0.21588841 -0.4246083 -0.03227552 -0.10015495 0.19285883 -0.07098569 -0.055314325 0.19663267
object 0.02838248 0.20021927 0.6936265 -0.23791358 0.31886533 1.0226982 0.2806735 0.6012759 -0.64098734 -0.87855285 -0.44628596 0.7124279 -0.33976087 0.43341455 0.34381193 -0.3871023 0.1305794 -0.7378427 -0.9103676 -0.19332628 -0.74748147 -0.37159768 0.6783446 0.39630395 0.20988053 0.002076726 0.3406845 -0.043854415 -0.21646829 -0.04888718 0.578833 0.1317945 -0.10644324 0.6292543 -0.10961907 -0.027039116 -0.35887808 -0.4331412 -0.17288725 0.16557543 -7.090057e-05 -0.2731067 -0.10717889 -0.78001386 0.0007530426 0.17404178 0.41907793 -0.043780807 0.63166976 0.17838451 0.76054764 0.11949687 0.07319703 0.1589925 0.287743 -0.55591047 -0.26160046 0.13649915 0.25103003 0.097237796 -0.037795395 0.4397086 -0.51500297 0.3102442 -0.53325176 -0.014851518 -0.052999865 -0.5975039 -0.37528327 -0.19031973 -0.22051121 0.37318844 -0.29100516 -0.08559192 0.38270393 -0.27416715 0.004757487 -0.31712195 -0.01107045 0.17170298 0.03248489 -0.55084425 -0.38287342 0.527003 -0.11660664 -0.29357255 -0.61821485 -0.745469 0.010126895 0.37699413 -0.13562553 1.0820516 -0.32667807 -0.24134302 0.8512837 -0.21383737 0.40217778 -0.5594868 -0.18450458 -0.26169756
region -0.62001634 -0.104771495 -0.19302952 -0.46324146 -0.2998618 0.08206944 -0.51074904 -0.15384892 -1.0271157 0.09011214 -0.029722258 0.54099315 -0.3903155 -0.2529294 0.6687791 -0.77369744 -0.23131818 -0.7055045 -1.1124963 -0.69538695 -0.14142518 -0.29456645 -0.022229088 0.10836628 0.7340676 0.3478166 -0.22716479 0.47496787 -0.10861283 0.6106287 -0.16323696 0.028138313 0.23184793 -0.386984 -0.31919098 -0.17723686 0.16908224 -0.94193786 -0.40649343 0.33645684 0.031993825 -0.6507068 0.5453359 -0.07018801 0.20071293 0.12113013 0.0582498 0.46642908 0.03486789 -0.7031232 -0.1366134 -1.1331033 -0.015449657 -0.31613994 -0.1167748 -0.13175575 -0.082002744 0.4742363 0.1629478 0.6347912 -0.26542485 0.025053972 0.12025535 -0.29485056 -0.13619769 -0.53187245 -0.09626384 -0.14436543 -0.87810755 0.25744328 -0.6118981 -0.08339015 -0.15840961 0.279964 0.018822335 -0.29301447 -0.2621156 -0.2071032 0.6212734 -0.3510584 -0.02035773 -0.07482492 -0.6666089 0.6364035 -0.11630783 0.24284977 -0.141424 -0.6543043 -0.48445523 0.39149842 -0.41413435 -0.095785014 0.30630872 0.45253244 0.18477601 0.35415322 0.14890106 0.165604 -0.0038158428 -0.12352625
entity -0.09346023 -0.027476056 -0.122413754 -0.5145074 -0.28544053 0.42773345 -0.36363107 -0.24606593 -0.7824549 0.15652134 -0.4611112 0.86712134 -0.67163235 0.08863365 0.22609271 -0.40338677 -0.5718322 -0.75236243 -0.2191551 -0.036186054 -0.03441443 -0.4509011 0.30989236 0.024474172 0.3398647 -0.46711212 0.2615204 -0.29801705 -0.30803505 0.3085641 -0.4479001 -0.45654228 0.012078321 0.14291845 -0.34523693 -0.14288214 -0.6317991 -0.13661082 0.2833762 -0.0112705 -0.55822587 -0.6166854 0.2801941 -0.52383995 0.022932867 -0.14432648 -0.1542491 0.5756001 0.010815993 -0.57549995 0.5460806 -0.3411878 -0.31982288 -0.021865206 0.91768634 -0.4359306 -0.074354544 -0.0032670717 0.2670224 0.18882558 0.3867499 0.34071863 -0.7722841 0.5383772 -0.21845226 0.25477576 -0.1938891 0.108206585 -0.42836177 -0.26860863 -0.13357194 0.49766016 -0.040662266 -0.7234151 0.2471016 -0.29675764 -0.13411407 -0.65562236 0.44941887 0.01670938 -0.021703782 -0.07122889 -0.58628714 0.6766372 -0.19025987 0.9815328 0.17376278 -0.78026456 -0.10035851 0.21360558 -0.20266546 -0.08810234 -0.2770937 -0.008859579 0.67334867 -0.3178963 0.3797913 0.2931419 -0.091750436 -0.13697863
zone 0.26173413 -0.22514817 0.080755875 -0.34382847 -0.3308196 0.73859876 0.022119677 0.21362786 -0.2430812 -0.18076888 0.06840986 0.18301982 -0.60962075 -0.04004863 0.33438447 -0.36471608 -0.42693383 -0.52953786 -0.2779603 -0.058138978 -0.4592636 -0.04999725 1.2059308 0.06681177 0.23538521 -0.5225169 0.6208014 0.44909522 -0.26696277 -0.534932 -0.3232431 -0.8005686 -0.42787647 0.5082018 0.19439235 -0.0497491 -0.33378893 -0.5246235 0.6609298 -0.07986024 0.03190865 -0.046070132 0.55219525 -0.35808954 0.29632446 0.07802727 0.002996574 -0.11439113 0.7307187 -0.30181742 0.13821377 -0.6294108 -0.26593003 0.2321898 0.15348499 -0.16767965 0.07835852 0.37031627 -0.09549407 0.18175597 -0.018291073 0.3171997 -0.42985746 0.8016257 -0.2776505 -0.47309357 -0.00019368173 0.09903771 -0.4990727 -0.2637815 -0.41473252 0.20830762 -0.30118498 -0.32574525 1.2309045 0.10947825 0.028458241 -0.6230589 0.3632029 -0.32377806 0.6273969 -0.86874217 -0.8548776 0.3016479 -0.20503053 0.50091326 -0.19864276 -0.58876663 0.53777164 -0.7240403 0.1558492 0.70089203 0.57950777 0.11905856 0.2221971 -0.21423186 0.18148784 0.09334819 0.13871545 -0.07726402
surface 0.292485 -0.23051706 -0.59753025 -0.2044617 -0.020243412 0.3561802 -0.15311167 0.13937782 -0.9246659 -0.83171076 -0.27033213 0.60295695 0.69988394 0.4021034 0.23029518 -0.74378866 0.69798875 -0.49833676 -0.49351507 -0.10657391 0.19371328 0.33334845 0.5352319 -0.26443014 0.69323325 -0.16288422 0.1574205 -0.15927336 -0.51358986 -0.49166307 0.22761692 -0.092741154 0.51370203 0.053379677 0.4083289 -0.16732998 -0.3474515 -1.052412 -0.045873523 -0.05169953 0.17629623 0.3104348 0.65271026 -0.26760128 0.41911474 -0.20246778 -0.23542356 -0.032405335 0.87027717 -0.031957615 -0.036231566 -1.0506985 0.110379264 0.07625202 0.31261045 0.13571309 0.31699982 0.7199288 0.5264784 0.44759622 0.5022656 -0.10877735 -0.48961312 0.75064933 0.52285546 0.33940187 -0.14924091 -0.29395804 -0.106739216 -0.09686125 -0.81066126 0.46869648 -0.03573898 0.3348469 -0.08897947 0.042524096 -0.376661 -0.6702353 0.2763266 -0.12471721 -0.02999222 0.13404542 -0.63914734 0.073608935 -0.01824538 0.3242439 -0.44645602 -0.92676085 -0.06121391 -0.08471111 -0.5758324 0.3304259 -0.12432308 -0.004355258 0.48724115 0.043195914 0.06251947 0.09928232 -0.055134237 -0.35881838
) -0.6639487 -0.5729042 -0.21029961 0.07404292 0.093181394 0.67663664 -0.65489566 0.2599108 -0.7102563 -0.6824566 0.3429484 0.4423868 0.17765337 -0.69194114 -0.2018403 -0.098013446 -0.5679765 -0.16325457 -0.280075 -0.50711024 0.15956755 -0.9955502 -0.5322032 0.260194 0.44012251 0.26504123 0.20695975 0.23400061 -0.24821094 0.15088993 -0.060719922 -0.6096822 -0.24233736 0.3731724 0.0925229 0.6219755 -0.22288203 -0.2892674 -0.3665415 0.4572412 0.07091515 -0.14932111 -0.0071023367 -0.38960126 0.86192816 -0.12867123 0.30566156 -0.061082352 -0.4170308 -0.15946734 0.29030487 -0.2717181 -0.05643323 -0.07581838 -0.022496104 -0.23402019 0.023664901 0.14509808 -0.36250052 0.54789996 -0.088021025 0.8588014 -0.072236724 0.110509545 -0.28882834 -0.81046784 0.25770694 -0.6549825 -0.80068773 -0.20231375 -0.5499237 -0.088543855 -0.46512732 -0.19996962 0.52008414 0.5415847 0.3712536 -0.8913017 0.57466245 0.47011724 0.023186134 0.050322987 -0.04000515 0.06292691 -0.4887766 0.9620827 0.21557112 0.83498055 1.2926338 0.38189077 -0.24990332 -0.17706077 -0.13090093 -0.035860166 0.78293073 0.2816856 -0.025223307 -0.15073177 -0.43308538 0.2762111
( -0.49695373 -0.42850196 0.065179996 0.13057221 0.14915794 0.35608065 -0.35172686 0.012776316 -0.8288986 -0.4860036 -0.1291438 -0.027907511 0.116504535 -0.70238453 0.05894836 -0.4260902 -0.6765625 -0.49785042 -0.42264572 -0.20671831 -0.22018948 -0.9542432 -0.22090173 0.21848525 0.680387 0.1064687 0.0938595 0.036824048 -0.4088839 0.015948225 -0.23868962 -0.14315306 -0.49693486 0.07855096 0.30485484 0.024186132 -0.3162311 -0.29128206 -0.59060913 0.22728361 0.1958581 0.092559256 -0.045708146 -0.11415391 0.63734764 -0.48221198 0.25774154 0.1682923 -0.23123188 -0.31750503 -0.21843994 -0.16505907 -0.107922 0.019001555 -0.06115297 -0.2697565 -0.049372185 0.025630472 -0.10182131 0.38306358 -0.062788405 0.49436083 0.1771383 0.08833514 -0.028336255 -0.7719232 0.087554134 -0.77338 -0.84159607 -0.31477466 -0.6417478 0.14314789 -0.34500313 -0.2186163 0.5050714 0.56754553 0.48169774 -0.7238613 0.72826517 0.32743892 -0.3927244 -0.012927228 0.050978504 0.17401546 -0.739353 0.8841404 -0.08164134 0.57272935 1.2772343 0.3833162 0.13232481 -0.1819761 0.16759673 -0.041735362 0.3624023 0.36774024 0.42489585 -0.13081291 -0.3565288 0.035442103
quality -0.8657566 0.06884618 0.29809806 -0.03963202 0.01759522 0.35780525 -0.14100684 0.10258686 -0.8875783 -0.3898718 -0.30717036 0.116876334 0.416792 0.030326322 0.28990564 -0.6373369 0.13586229 -0.46217647 -1.1587865 -0.01454653 0.29835036 -0.28508645 0.068516456 0.29615045 -0.57575816 0.50040853 0.43816805 -0.21150607 0.0887373 -0.28589466 -0.62945974 -0.3066617 0.023974653 -0.29317755 0.19667354 0.40426844 -0.3419306 -0.3097089 0.4969394 -0.12868881 -0.093276806 -0.26385966 -0.08868967 -0.266274 0.18888554 0.5016357 0.43726075 -0.10914484 0.38238198 -0.67405856 0.40072158 -0.008272732 -0.5763715 -0.16477396 0.30045608 -0.63138473 0.2722766 0.46203718 0.2868485 0.46099642 0.2719542 -0.50445426 -0.29561973 -0.07112538 -0.10010714 -0.27800694 -0.18404497 -0.5081302 -0.4725243 -0.24540749 0.067618996 -0.07895016 -0.78302974 -0.59985316 -0.5296117 0.22036035 -0.16175976 -0.44465378 -0.8220056 -0.42346463 -0.29693583 -0.023948047 -0.3919126 -0.18527575 -0.6727716 0.56128734 -0.5267243 -1.147762 -0.52810806 0.33904412 -0.6871655 0.6117269 -0.20952135 -0.4254656 -0.00088787964 -0.22711177 0.37288028 0.4088839 -0.9931054 -0.34852976
comment -0.16386598 -0.3218669 0.36378103 -0.076116286 -0.49172604 0.41373864 0.12617597 0.010922473 -0.13684252 -0.37249306 -0.10138229 0.22545193 0.0522237 -0.024150852 0.6096455 0.43889022 0.21662848 -0.4633357 -1.1838797 -0.073872715 -0.34368223 0.04545142 0.5161541 -0.24058384 0.1936371 -0.74063414 0.55815727 0.04752124 0.0055085146 0.0832448 0.22050494 -0.40553907 0.1596848 0.019199112 0.30969182 0.0935579 -0.5820074 -0.23573549 0.057817604 0.23041894 0.38103372 0.09081056 0.13999301 0.46140638 0.027143907 -0.3356685 0.07674402 -0.08542994 0.36781263 -0.28426462 0.271298 -0.38583878 -0.6044394 0.20411609 -0.2168666 -0.076756984 -0.06513305 0.67764276 -0.03110397 0.4057135 0.11696811 -0.13202353 0.2215292 0.18054749 -0.051856685 -0.37886134 0.03124656 -0.22667095 0.31643897 0.25053522 0.2515249 0.18400766 -0.25487238 -0.6506388 0.0025738152 0.040211886 0.12788466 -0.22404198 0.19059567 0.099388115 -0.05566855 0.08221353 -0.05166369 -0.11378639 -0.32038203 0.18714799 -0.3463787 -0.4525891 0.3290958 0.007623424 -0.4882911 1.1960776 0.0021336568 0.435663 0.048161738 -0.15076977 0.37708896 0.19298089 0.16813016 -0.30153146
material 0.10004528 0.17366296 0.31215122 -0.6794583 0.21155354 0.39909884 -0.113832094 0.24982458 -0.7241584 -0.119424514 0.42642307 0.93896717 -0.5117141 0.04642479 0.021848664 -0.88134605 0.22884056 -0.93336165 -0.46892408 -0.031507965 -0.24034858 -0.32845873 0.46076816 0.30582955 0.41784644 -0.15659525 0.82201964 -0.15365355 -0.19435996 -0.68797743 -0.31330332 -0.12272435 -0.118032746 0.07673392 -0.41112092 -0.20728956 -0.5126423 -0.18868348 0.35331932 0.060896046 -0.20227608 -0.3324219 -0.15183821 -0.6550334 0.29195067 -0.25027484 0.3269392 0.5551643 0.41054884 -0.21072933 0.7035961 -0.24002782 0.5107555 -0.10743528 0.6746533 -0.27188277 -0.19405778 0.030170958 0.23410524 -0.24300858 -0.15201461 0.29047963 -0.65479213 -0.08820758 -0.48797286 -0.16754648 -0.35115197 -0.21913694 -0.7087285 0.061643563 -0.022281133 0.41263062 -0.04521355 -0.30347782 0.73705655 0.049524073 0.06989629 -0.3014367 0.14184584 -0.15403207 -0.40839243 -0.63348705 -0.6416966 0.4297749 -0.29737344 0.83093023 -0.42184302 -0.61881185 0.16694698 0.4810186 -0.4136784 0.32795435 -0.036840033 0.27564645 0.99726397 -0.20245598 0.041721873 -0.04443151 -0.5067466 -0.38920823
spatial -0.2548939 0.065069914 -0.5534066 -0.38429824 -0.31302357 0.35387197 -0.286319 -0.12461205 -1.0111835 -0.29443893 -0.15639149 0.14468947 0.029762598 -0.32200265 0.64536554 -0.4702192 -0.20345108 -0.5579797 -1.0204825 -0.80129766 0.094277866 -0.17183928 0.097381994 -0.17899029 0.91174567 0.18210119 0.062945016 -0.20415159 0.16718192 0.081525914 -0.15639503 -0.25678268 -0.014924444 -0.16292393 -0.19011311 -0.3222849 0.0536238 -1.3550346 -0.19848198 0.24841914 0.011606495 -0.45334253 0.4482771 -0.4445532 0.15569603 0.09606619 -0.08947487 0.57766867 0.25229916 -0.22228752 -0.19335902 -1.2892158 0.10630947 0.09217906 0.5305933 -0.26476982 0.3267411 0.8653022 0.15286718 0.6270471 -0.5295842 0.16573517 -0.45409402 -0.28889674 -0.23853025 -0.3435366 0.048243504 -0.28795463 -0.7315408 0.14041452 -0.44606358 -0.21475331 -0.3179739 0.18085678 0.10221269 -0.198303 -0.04570433 -0.16219908 0.5641209 -0.35109177 0.042199768 0.2823802 -0.4599217 0.6353351 0.078606196 0.39847583 -0.5323799 -0.7812466 -0.52105224 0.37492895 -0.12145276 -0.30816486 0.11740105 0.37020683 0.08565483 0.55800384 0.27618763 -0.1284197 0.05288622 0.015445824
core 0.30791208 -0.29749727 0.7046981 -0.36198404 -0.18615146 0.8237864 -0.4124118 0.112030774 0.11702696 -1.1391426 0.28847903 -0.089098826 -0.18381871 0.11723005 -0.16509305 -0.90959454 0.39029562 -0.11214774 -0.81308335 -0.21524881 -0.07483037 0.10417486 0.4619673 0.08770348 0.37759653 -0.23146111 0.37296778 0.6080636 -0.18328887 -0.44929183 0.1361514 0.12519015 0.1948604 0.113720305 -0.032535277 0.086632416 -0.24419479 -0.16972032 -0.12901187 0.12985647 0.2641582 0.2668725 0.4193065 -0.44608748 0.684063 -0.18779097 0.26662958 -0.19419454 0.42766902 -0.41926163 0.10731443 -0.69098693 -0.18492137 -0.53443086 0.24762379 -0.15627071 -0.11103163 0.8435011 0.4970937 0.56805235 -0.2474598 0.37934113 0.15712506 0.19673297 -0.45768067 -0.6879637 -0.41764942 -0.5211244 -0.39729476 -0.0015898412 -0.52108514 -0.049088776 -0.274847 -0.55431217 0.3477985 0.44823113 0.11923277 -0.35029447 0.7675926 0.4262748 -0.1543559 -0.73576826 -0.6961147 0.025276707 -0.18652572 0.002356489 -0.057915878 -0.8676584 0.04194983 -0.10609425 -0.58417314 0.754165 -0.18587065 0.66754985 0.24005926 0.07573069 0.39838633 -0.304151 0.14783765 -0.44610968
rock -0.48620114 0.57894397 0.9799769 0.33975092 -0.36602882 1.1776431 -0.16192335 0.40039054 -1.0071687 -0.8620568 -0.7302494 -0.08672576 -0.4363014 -0.2111932 0.50543755 -0.39279047 0.5457471 -0.25562438 -0.6389632 0.1705654 -0.5775102 0.03814674 0.31534332 0.3022271 0.7390343 -0.8935651 0.92164135 -0.39891008 -0.49199352 -0.20023537 -0.31775263 -0.14437458 -0.22024006 -0.1421633 0.60455835 -0.3622735 -0.025794331 -0.030864703 0.72242206 0.024707876 0.35002983 0.077107385 0.45777908 -0.7683658 0.258489 -0.9170148 0.10089271 -0.45597026 0.48909244 -0.027952893 0.45108593 -0.8582909 -0.21761666 -0.148733 -0.17704083 0.1449242 -0.420661 0.041642897 0.4840013 0.7780489 -0.06412259 -0.104137875 0.2859776 0.23979887 0.082012 0.08194473 -0.033250757 -0.4067514 -0.32736737 -0.13433027 0.055445775 -0.49616307 -0.45704442 -0.10441347 0.11835302 -0.015748117 0.14352322 -0.223818 0.0004705376 0.21723366 0.17542934 -0.5758287 -0.24747188 0.5367996 -0.30589944 0.55792487 -0.06498924 -0.4608845 0.7615939 -0.41082 -0.18819386 0.8774396 -0.02717695 0.47020516 0.17178771 0.07192788 0.086073294 -0.4239935 -0.092123225 -0.30632687
boundary -0.46455085 0.6455336 0.32390073 -0.43850696 0.26691514 0.5695746 -0.233783 0.07761175 -0.562136 -0.23434104 -0.2928929 0.53056306 -0.33583808 0.55341977 0.61701816 -0.31231278 -0.4487079 -0.7194909 -0.37562427 -0.25390983 -0.40287226 -0.33671057 0.66603893 -0.4319783 0.15755089 -0.053457327 -0.15344298 0.6835443 -0.3369101 0.26621503 0.15067771 -0.34849778 -0.18559313 -0.29533917 -0.4819151 0.19390316 -0.20860013 -0.981272 -0.10373514 -0.00087556045 -0.026476722 -0.8546372 0.27365068 -0.24833141 -0.26403657 0.17336796 0.44448912 0.49305183 -0.03674581 0.122472234 0.5019202 -1.0491861 -0.110449456 0.04357148 0.46819046 -0.71552616 0.4827073 0.23864305 -0.24778616 0.24442005 -0.71251893 0.082017906 -0.17951456 -0.0060884072 0.0075130677 -0.1369593 0.29113853 -0.24931237 -0.5346469 -0.65593976 -0.802938 -0.2211063 -0.30499786 0.23940468 0.9565592 -0.12121639 -0.17799278 -0.25917768 0.1496634 0.012887428 0.0063582812 0.0754188 -0.74872166 0.25103372 -0.42914274 0.54770356 -0.49580577 -0.942188 -0.013137603 0.0067760693 -0.39247185 0.45846966 0.472524 -0.11116021 0.8084643 0.0154502615 0.17643024 -0.10076178 -0.50339895 -0.4882802
http://www.w3.org/2000/01/rdf-schema#comment 0.12605776 -0.23218258 0.23168024 -0.17069583 -0.3655009 0.22317962 0.32444254 0.15910031 0.13927941 -0.2822325 -0.2100631 0.119933166 -0.3162391 -0.009134733 0.5197857 0.32037982 0.3675731 -0.18884599 -1.266263 -0.075848654 0.038955435 0.20724678 0.18525036 -0.079883434 0.05924054 -0.44262928 0.15390038 -0.11895469 -0.17419873 0.14966401 0.11161531 -0.5493385 0.30874944 0.0051369085 0.26585606 0.4378444 -0.30379063 -0.2577603 0.38989222 0.5649776 0.4342831 0.23301488 0.202515 0.23962812 0.28656363 -0.25793365 0.09716468 -0.16066656 0.32272065 -0.20023432 0.39305782 -0.5296217 -0.49458155 0.3684877 -0.47431237 0.119655885 -0.024908546 0.591923 -0.2694196 0.44000924 -0.11544193 0.18945315 0.021042176 0.20125179 -0.19096768 -0.14233133 0.24476928 -0.08049898 0.3930552 0.49672344 0.27934587 0.28833705 -0.1928018 -0.5202733 -0.17892453 0.051406365 0.015431717 -0.29188937 0.16865136 0.2428427 -0.121398464 -0.035216413 0.42241198 -0.489964 -0.5989724 0.33391565 -0.0012447125 -0.009566869 0.20229588 -0.21596074 -0.44165778 0.966497 -0.21662256 0.2305166 0.14641027 -0.24345383 0.15110433 0.31766126 0.08358966 -0.4543533
0000602 -0.091163926 0.29098228 0.23197445 -0.2524184 -0.62379766 0.35015738 0.43258205 0.51015985 -0.7073455 -0.024631713 0.003418694 0.53731376 0.14875071 -0.19143757 0.3488798 -0.10903517 -0.39176655 -0.8574152 -0.49461234 -0.8208618 -0.40144536 -0.46337214 0.38691187 0.26004565 0.28546038 -0.1663462 0.2264513 -0.2503142 0.0045054206 -0.05728454 0.4037511 -0.3321202 0.10914178 -0.49490565 0.2680457 -0.29211316 -0.29508236 -0.43582648 -0.20391734 0.36892286 -0.0388203 -0.39418796 0.42809823 -0.06888039 0.37874052 -0.36520383 0.19870715 0.07909322 0.055241086 -0.10636364 0.09974268 -0.37306193 -0.6989299 0.31803203 0.03444649 -0.24555781 0.25384936 0.011348551 -0.101303 0.5649663 -0.45580345 -0.4175904 0.1068089 0.517023 -0.16087444 -0.35298863 0.0067953104 -0.15270899 -0.15897992 -0.050950073 -0.056379147 -0.013151697 0.17644678 -0.304783 -0.31510895 -0.09001549 -0.36082008 -0.35749617 0.01016168 0.0072742514 -0.21112451 0.405264 0.06693274 0.040877894 0.0032424198 0.57374704 -0.23119454 -0.83587974 0.32698888 -0.23550212 -0.066007994 0.63525754 -0.0072146296 -0.11245399 0.020999964 -0.27449527 0.4332773 0.65952766 0.050039962 0.009052805
dependent -0.29054016 -0.35579744 0.08082131 -0.22693649 -0.49643746 0.65956146 0.24992245 -0.25767484 -1.0846971 0.13750623 -0.027677603 0.38000187 0.47408208 -0.38279158 0.63762176 -0.006884882 -0.06824589 -0.7145019 -0.70391834 -0.6378819 -0.4345842 -0.5316741 0.22177742 -0.085479155 -0.106129594 -0.027172262 0.20890065 -0.22139287 0.09254505 0.5148422 0.18112268 -0.36579463 -0.21279834 0.4246798 -0.3286371 -0.19964494 -0.53140336 -1.0976857 0.78951836 0.20356533 -0.17385323 -0.32831627 0.086437635 -0.08718944 0.4576912 0.29916534 0.10456438 -0.46843466 0.1553818 -0.11908484 -0.11040654 0.03304324 0.03455158 0.14077555 1.0167161 -0.4765418 -0.35211807 0.70164484 0.19878961 0.72491246 0.24326253 -0.18430378 -0.15200913 0.5922252 -0.29936522 -0.42569572 -0.15008165 -1.1155338 -0.020297447 -0.76119244 -0.08177908 -0.088952124 -0.22155645 -0.17622358 0.33279476 -0.2183024 0.24052885 -0.3211747 0.95155865 0.3253026 0.45038763 -0.10765091 0.22765507 0.13143279 0.40746137 0.50558734 -0.02477929 -0.5160834 0.11533608 0.30065474 -0.6465789 0.5006129 0.23359704 -0.41026586 0.4154352 0.21409172 -0.12379104 0.5001747 -0.8679033 0.11677622
https://www.inf.ufrgs.br/bdi/ontologies/geocoreontology#UFRGS:GeoCoreOntology_geological_object 0.3733804 0.39398733 0.38923842 -0.10845733 0.3440142 1.0101079 0.31730804 0.23795614 -0.32683697 -0.8582532 -0.59233105 0.867322 -0.92756855 0.36210236 0.122972175 -0.49111673 0.26105687 -0.36085394 -1.1905296 -0.13180119 -0.25879943 -0.03839452 0.47254127 0.51864433 0.3763774 0.2842746 -0.32075673 0.01724219 -0.12563306 -0.39763564 0.26699162 0.13750418 0.058570173 0.4945036 -0.23599266 0.27635223 -0.9181465 -0.22777611 0.34198 0.4182472 0.22695614 -0.306557 -0.062713705 -0.52293456 0.70002276 0.54747856 0.41286156 -0.11194386 0.4919749 0.19711451 0.8481196 -0.2929595 -0.18726368 0.47977898 0.2918819 -0.25851476 -0.49962646 0.39326197 0.26449853 0.17658761 -0.32743865 1.0106182 -0.21785867 0.033119805 -0.9309945 -0.091058284 0.06361866 -0.40001258 -0.15298095 0.24936128 -0.27769345 0.5954633 -0.16011547 0.17997919 -0.11283499 -0.10765491 0.11965559 -0.05813263 0.044110272 0.4527926 -0.022937013 -0.4803194 -0.030520964 0.02266894 -0.7008485 -0.3501097 -0.18680494 -0.40061012 -0.30604815 0.101373464 -0.39522195 1.031013 -0.52296346 -0.22477151 1.3552943 -0.48674482 -0.12880665 -0.51742965 -0.08278124 -0.383829
role -0.45730898 0.50366676 -0.30391583 -0.8262963 -0.8819532 0.83596617 -0.13881941 0.54585946 -0.5630046 -0.41073015 0.038881786 0.21678193 -0.46369165 -0.49202088 0.8434036 -0.6200467 -0.38514408 -0.36742678 -1.0083897 -0.1853441 -0.14010976 -0.50780195 0.7673405 -0.414354 0.14616846 -0.35661596 0.33331445 -0.045930784 -0.06939426 0.15284757 -0.88026416 -0.66726696 -0.7188138 0.06872094 -0.3081688 -0.13149224 -0.22725995 -0.5990249 0.49461183 0.07387246 0.405804 -0.098666444 0.06281869 -0.39566788 0.21235941 -0.0059475834 -0.0562113 0.4272814 0.4987007 -0.36843935 -0.32809943 -0.31111848 0.30781418 0.17175819 0.101132244 -0.4830495 0.007982473 0.596641 -0.05158212 0.33586973 -0.39148423 -0.47874087 -0.15792765 0.21890393 -0.42153886 -0.36965692 -0.11859016 -0.6435735 -0.47766826 0.48406506 0.024101635 -0.0035419243 -0.04773581 -0.20441176 0.73678386 -0.010994908 0.1381208 -0.1000355 0.7371709 -0.5535024 0.51261556 -0.21049367 -0.59654343 0.21905962 0.26891807 0.6637075 -0.22214492 -0.013715491 0.2691561 -0.24546327 -0.469261 0.45405665 0.14926483 0.23879343 -0.07573497 0.46705255 -0.499652 0.14523989 -0.5451677 0.56776047
wall 0.36898732 -0.24327506 -0.2667775 -0.22591484 -0.032332852 0.7850239 -0.08461724 0.41638246 -0.18789153 -0.6516957 0.006935742 0.044220366 0.040167462 -0.4517447 0.7806612 -0.6328744 0.007947215 -0.15492183 -0.7712332 -0.19105235 0.108507864 0.024878599 0.94769907 -0.16812116 0.77819264 -0.44820452 0.54567695 -0.058631204 -0.03214818 -0.28216696 -0.238608 0.17755899 -0.9455081 -0.053799823 -0.046972528 -0.035224754 -0.43355864 -0.90169 0.5702873 0.15922664 0.51692283 0.5024413 0.18109529 -0.1144379 0.55608827 0.09401224 0.37316838 0.35001928 0.6860172 -0.028466979 -0.2843418 -0.6869128 -0.5888439 0.16312438 0.22890015 -0.31318578 0.023610232 0.844354 0.05168611 0.525883 0.19731434 0.09968376 -0.066730365 1.024515 0.1345965 -0.15804105 0.22324485 -0.67789286 -0.36801353 -0.12895258 -0.4334754 -0.51051444 -0.132472 -0.4446441 0.5186775 0.49994594 -0.3607683 -0.60460985 0.12958327 -0.31219482 0.3561706 -0.7986363 -0.62728465 -0.31022546 -0.1513118 0.1798001 -0.5449986 -0.28069696 -0.010186107 -0.32321984 -0.24388705 0.75560683 -0.30283386 0.22288825 -0.24997742 0.46213445 -0.24639913 -0.3694981 -0.17137733 0.030915521
process -0.69595295 0.03654358 0.30242437 0.17769155 0.4403102 1.5704005 -0.09919505 0.2438819 -0.7455969 -0.07060159 -0.18918653 0.5732634 -0.63698477 -0.13840793 0.22178498 -0.70395684 -0.76811004 -0.70278335 -0.47369316 -0.36896747 0.096450746 -0.53420746 0.23277007 1.018607 -0.16242562 0.013192984 -0.35935637 0.07873446 -0.455791 -0.08385216 -0.060020518 -0.04092118 -0.13275042 0.66617155 -0.03538124 -0.33931047 -0.6619651 0.025119886 0.2220081 0.39524084 -0.07736106 -0.4452472 0.80455375 -0.27348354 -0.64823 0.20837109 0.08156552 0.35495758 0.3644271 -0.19912842 -0.118685685 -0.13053209 -0.1545335 -0.4312455 0.08757961 -0.2926212 -0.48022503 0.0032829503 0.18270506 0.75660884 0.007345704 0.26903158 -0.017609742 0.25820035 -0.37951553 -0.76362133 0.07227103 0.1141255 -0.42799994 0.05917538 -0.099598505 -0.05213183 -0.18368007 -0.5102501 0.49142617 -0.44041008 0.37027714 -0.16610628 0.5637537 0.38197955 -0.0028416659 -0.60313207 -0.35824746 0.6321121 -0.044699732 0.44052702 -0.10794872 -0.62080586 1.1236702 0.39261445 0.062050343 0.2735156 -0.11185577 -0.067163214 0.6345496 -0.4315913 0.23116326 0.19216047 -0.5915838 -0.7195309
volume 0.107734315 0.3551734 0.4085568 -0.65140146 -0.50679433 0.7589666 -0.3901758 0.08549317 -0.64812106 -0.95827585 -0.2444307 0.153219 -0.19124714 0.17812295 0.39685985 -0.91933125 0.36951938 -0.35349524 -0.52824646 -0.19604981 -0.6523857 -0.7109963 0.63258076 -0.09642811 0.69745505 -0.12281367 -0.08412373 -0.020780059 0.2234625 -0.39266497 0.050055947 -0.42373902 -0.14122437 -0.044375464 -0.34413093 -0.023420887 -0.53707004 -0.40384322 0.8169105 0.45576757 0.2957478 -0.2861633 -0.26521108 -0.563692 0.20208943 0.09351544 0.31848958 -0.25909862 0.49278277 0.26405686 0.28231224 -0.32846642 -0.20219028 0.059877783 -0.054980982 -0.36850962 -0.31645697 0.3693468 0.064598046 0.6978722 -0.19320782 0.015306396 -0.26175168 0.77817667 -0.011429012 -0.11242579 0.18219213 -0.534486 -0.18607563 -0.32149437 -0.50835013 -0.78426623 0.03835295 -0.20583618 0.65309054 0.26271346 0.37941995 -0.8098756 0.24294125 -0.24399844 0.51056707 -0.40089002 -0.32817024 0.32646897 -0.64820033 0.42417598 -0.22782555 -0.45462975 0.09195201 -0.1486977 -0.42445725 0.5895513 -0.3017638 0.035012975 0.6353046 0.28220806 0.37723607 -0.3604475 0.114439696 -0.010802336
occurrent -0.34295753 0.2505091 -0.2090313 -0.39104602 -0.0049372762 0.5713832 0.24540547 0.696157 -0.6930946 0.10950547 -0.17320228 0.5125086 -0.30465886 -0.353969 0.58399105 -0.99679595 -0.56635386 -0.8860793 -0.60907 -0.5722701 0.3146738 -0.24533401 0.12560107 0.52778727 0.20238452 -0.027397294 -0.08405865 0.18045199 0.030344415 0.1672643 0.16236842 -0.5139109 0.014037546 0.28391337 0.049314786 -0.40530056 -0.36538547 -0.039749235 0.18351334 0.09794783 0.1501422 -0.36279094 0.6760793 0.3813261 0.07374811 0.28574577 -0.16058254 0.30512 0.7286244 -0.45912567 -0.09938377 -0.39045486 0.39997616 -0.03619375 0.26997116 0.18671606 -0.33965105 0.25164205 0.20041305 0.510076 0.33147252 0.52209324 0.16874178 -0.39417914 -0.78387815 -0.7716753 -0.43546826 -0.61625457 -1.1493143 0.3950327 -0.27011922 0.49580944 -0.22843952 -0.16519682 0.6100732 -0.3855723 0.13917746 -0.35433233 0.5738792 0.05630543 0.025908904 -0.56584865 -0.35251996 0.64701 -0.045290243 0.039601885 -0.21287327 -0.2566364 0.30913475 0.6792136 -0.038069475 0.48324767 0.062183265 -0.04981343 0.6093775 -0.14389773 0.18999101 0.22634783 -0.06765632 -0.9906777
fiat -0.066683784 0.18770728 -0.14812809 0.14067376 0.3007977 0.59280384 -0.1678099 0.15624714 -1.094962 -0.19693613 -0.4860663 0.5742503 -0.11374438 0.1417914 0.015785666 -0.6101571 -0.3137384 -0.8222793 -0.7155509 -0.33813286 -0.591477 -0.34741268 0.8717492 -0.18526047 0.09611303 0.013699227 0.025757648 -0.14553519 -0.35011858 -0.06869689 0.13015176 0.12716427 -0.008176405 -0.02273929 -0.49616092 -0.6466053 -0.31652343 -1.3285384 -0.19267775 -0.21667366 -0.31282246 -0.2729098 0.8019032 -0.88415426 0.089220785 -0.689975 0.28546405 -0.07491114 -0.104621656 -0.16966788 0.15307738 -0.5791068 0.34882712 0.3116004 -0.24044344 -0.32462987 0.29153585 0.19215567 -0.6144048 0.8712259 -0.47852966 -0.2737375 -0.40094903 0.32928756 0.35128123 -0.38070676 0.08712957 -0.55577505 -0.046125755 -0.88354445 -1.094826 0.105480686 -0.1018955 0.40110716 0.117275864 -0.5554714 0.22235002 -0.009920035 -0.15842733 0.23171985 0.62218434 -0.6565486 0.3046815 0.6536403 -0.19286081 0.6174119 -0.6818709 -0.87155795 -0.1708751 0.7081552 -0.31427202 0.072095506 -0.019301485 -0.3082539 0.7517593 0.30415446 0.17038177 -0.41136688 -0.19225514 -0.387532
http://purl.obolibrary.org/obo/BFO_0000019 -0.6968685 -0.056258034 0.12258341 0.24602406 -0.29982403 0.39378193 0.53545094 0.17474395 -0.5998046 -0.35199004 -0.58762425 -0.03414203 -0.3568167 0.2847372 -0.006641012 -0.40780377 0.20068645 -0.54978585 -1.481189 -0.27841347 0.3226266 -0.13762915 0.052124098 0.44978425 -0.5221704 0.6101263 0.13646224 -0.44255275 0.30061647 -0.19945651 -0.4920805 -0.5654472 0.6409412 -0.35966986 0.32267815 0.89430994 -0.25150314 -0.93704385 0.7157127 0.043910675 -0.18098776 0.04534003 -0.0048785387 -0.37009114 0.4423651 0.5253185 0.27818242 -0.25233373 0.47404578 -0.806219 0.35422847 -0.2541694 -0.2596845 0.39818308 0.27699608 -0.45840454 0.06631174 0.32512993 -0.14983256 0.63017887 0.1456336 -0.17556198 -0.4924452 -0.25134692 -0.18064944 -0.08926094 0.07689174 -0.5733272 -0.09817097 0.12224462 0.16152647 0.100948885 -0.78980297 -0.5742497 -0.81521535 -0.21349362 -0.29780403 0.04794732 -0.6743346 -0.083780065 -0.25593555 0.12769394 0.24278727 -0.30257782 -0.99290967 0.19525714 -0.32500017 -1.022906 -0.9708791 0.072729506 -0.81042767 0.5815717 -0.18008715 -0.6937659 0.0012956162 -0.39647785 0.05419532 0.3783275 -0.6167977 -0.35269743
0000081 0.3827289 0.4725794 -0.17890176 -0.9806537 -0.9629706 1.1270087 -0.21128325 0.35869133 -0.21024196 -0.3293904 -0.40295082 0.28879142 0.046295807 0.101446584 0.7965125 -0.17531942 0.13730803 -0.4330168 -0.99238867 -0.0969236 -0.10271833 -0.5419713 0.9063997 -0.3351376 0.40641853 -0.41626954 0.24263419 0.10594374 0.108480975 -0.114047095 -0.55028033 -0.66217697 -0.36832348 -0.22650619 -0.05278505 -0.3259359 -0.24932267 -0.31002316 0.616126 -0.16020195 0.46355134 -0.2921461 0.20187356 -0.60645264 0.60460657 0.078377366 -0.2870901 -0.26641703 0.9201512 -0.32927865 0.022128854 -0.6316235 -0.20831855 -0.24289203 -0.03714304 -0.25089625 0.045862902 0.76176435 0.08290603 -0.034524027 -0.7041179 -0.44606662 -0.45226848 0.5632215 -0.5115048 -0.0121067995 0.039566413 -0.35658854 -0.43416676 0.30104095 -0.23149572 -0.23090877 0.20381701 -0.6410048 0.28713265 0.13759762 0.13228716 -0.5831779 0.749029 -0.08856588 0.20152509 -0.17391358 -0.92342305 -0.047143675 -0.5866462 0.8914612 -0.18551911 -0.24540466 0.4515367 -0.40475634 -0.4773349 0.6255632 -0.18862121 -0.09797803 0.023199763 0.3390972 -0.21799007 0.3946766 -0.13371862 -0.13035196
some -0.38167378 0.8117159 0.31393406 -0.57068986 -0.08876732 0.30481508 0.35204336 0.12437117 0.07679396 0.2641416 -0.025580108 0.45133388 0.16689175 -0.22700654 0.1416871 -0.5561775 0.7819849 0.004994002 -0.5535258 -0.29145536 -0.05540184 -0.18695846 0.24983032 -0.7323203 0.6893793 -0.6138764 0.8691621 -0.09417383 -1.0779107 0.48086312 -0.07256568 -0.0022344885 0.38001972 0.4031651 0.19588453 0.19646874 0.008546326 0.104926236 0.3005159 -0.1331111 -0.24318707 -0.16203225 0.13781281 -0.26450348 0.32519343 -0.49054074 0.24055085 -0.024958855 0.26130617 0.17046057 -0.22820382 -0.304818 -0.5392619 0.39989522 0.19877887 0.17290601 0.42244893 -0.14760204 0.41291 0.7390149 -0.27355656 0.74522245 0.26677752 0.75639206 -0.48779926 -0.13469245 -0.7156835 -0.06939964 -0.06823718 0.19217086 0.21663958 0.021856656 -0.46572375 0.22023292 0.039166283 0.31357732 -0.16986339 -0.8298424 -0.02870356 0.47041714 0.40397707 -0.7920437 0.141635 0.4528865 -0.5613554 0.43638644 -0.12515076 -0.4589682 0.09842169 0.04901915 -0.53466886 0.6519088 -0.030160366 -0.53928375 -0.46992877 0.34958386 -0.08566254 -0.501261 -0.50299346 -0.42697468
http://purl.obolibrary.org/obo/IAO_0000602 -0.026883645 0.1214194 0.02780982 -0.043777455 -0.35135627 0.17862739 0.532445 0.31816158 -0.34513342 0.07585469 -0.2731468 0.3272539 -0.30037302 -0.008886207 0.17661624 0.2932224 -0.14938565 -0.5054806 -0.6674198 -0.6806411 -0.1467562 -0.07888204 0.025206625 0.3000756 0.2537273 -0.09731901 -0.10975202 -0.09709636 0.1153083 0.29766855 0.30016848 -0.8405692 0.15068753 -0.17505527 0.046129037 -0.06860525 -0.17996033 -0.33078966 0.06303395 0.49301624 0.03221554 -0.27794468 0.36543107 0.021809995 0.5110905 -0.51471835 0.24335201 -0.0271848 0.049930166 -0.13915142 0.5748988 -0.6943314 -0.43405664 0.36587635 -0.18497188 -0.11471283 0.33013025 -0.037522603 -0.32422212 0.19841366 -0.56498444 -0.20955636 -0.10699378 0.3541319 0.03403144 -0.281818 0.42869997 -0.0522164 0.19919395 0.08062283 -0.19205871 0.037007384 -0.31005922 -0.26547176 -0.40393776 -0.26942188 -0.21139626 -0.29730856 -0.0620034 0.28785712 -0.32932025 0.02799152 0.43043858 -0.5876273 -0.25997627 0.7508874 -0.05297781 -0.44171333 0.036529016 -0.31428075 -0.29025 0.26931325 -0.3344363 -0.18138772 0.20101109 -0.41828388 0.32544267 0.38609868 -0.202352 -0.17844714
than -0.14011264 -0.17503534 0.5670378 -0.38414127 -0.7205003 0.6312826 -0.008118293 0.0995901 -0.8145657 -0.041779183 -0.441451 0.9235922 -0.02710028 0.36312845 0.8563512 0.03447303 -0.33409506 -1.2331579 -0.6985392 -0.7438708 0.25593528 -0.040905483 0.58196855 0.39936218 0.83690524 -0.5729981 -0.09157608 -0.05385221 0.29172367 -0.025814632 -0.74238104 -0.8987221 -0.079662085 0.2566793 -0.2200674 -0.09294094 -0.6487029 -0.72129256 0.3029392 0.4397498 0.1931299 0.22050281 0.3999078 -0.3214112 0.6913907 0.29904276 -0.0010852487 -0.0110045485 0.25453833 0.0837686 -0.35025722 -0.90526444 -0.099848084 -0.052808024 0.49646655 -0.6916124 -0.37562147 0.88678 0.4230948 0.7450551 -0.037797887 0.2610182 -0.62807 0.21832885 -0.052255433 -0.65817136 0.123245865 -0.5829791 -0.20337646 -0.58843297 -0.5054044 -0.5134538 -0.048253614 0.24326509 0.6256753 0.31707364 0.113925286 -0.8913186 0.36215854 -0.041257873 0.038875755 0.21803929 -0.71475065 0.2578937 -0.038049612 0.5569874 -0.71889156 -0.7559593 0.21781296 -0.18001053 -0.015899703 0.45113993 -0.12976225 0.19347589 0.71489733 -0.5675495 0.21128672 -0.538522 0.46662995 0.31859833
http://www.semanticweb.org/quy/ontologies/2022/8/untitled-ontology-33#GeoFault:fault_zone 0.57510054 -0.07818774 0.02570102 -0.1317323 -0.31052983 0.84492224 0.28364435 0.470384 0.18656583 -0.08984644 -0.16790839 -0.04802643 -0.95286185 -0.23232165 0.20455451 -0.31183687 -0.45550632 -0.32391247 -0.735377 -0.25714156 -0.2249528 0.18459307 1.3826548 0.120107755 0.12209522 -0.6704164 0.009540051 0.2840906 -0.6272525 -0.3646848 -0.47283956 -0.9418366 0.0856457 0.3285301 -0.19807836 0.098122865 -0.41330954 -0.6033731 1.0171754 0.46014306 0.2083964 0.05930367 1.1315546 -0.37688595 0.10014025 0.037130214 0.09955052 -0.2628971 0.68332374 -0.19892158 0.03076664 -0.806341 -0.54229313 0.1720482 -0.19424525 0.051145818 -0.38007313 0.06490845 -0.4695612 0.38046268 0.14847334 0.81567067 -0.5395628 0.78524786 -0.5054665 -0.0114023825 -0.09868549 0.26935342 -0.44739503 0.061046317 -0.114178024 0.4110169 -0.53898764 0.024631035 1.3245851 -0.13594545 -0.11397039 -0.52871746 0.25576335 -0.29206917 0.54695654 -1.0751953 -0.36846188 0.028473401 -0.41520512 0.5287595 0.081587 -0.29954454 0.53046614 -0.8451272 -0.085887216 0.8046897 0.45659846 -0.051403258 0.27724734 -0.33696234 -0.3258914 -0.15373541 -0.4734887 -0.5674664
slip 0.28633308 -0.51681095 -0.019853976 -0.10913189 0.38095167 0.47809327 -0.36975148 0.24822287 -0.69111836 -1.0135974 -0.29957733 0.6616828 0.3658612 -0.15473178 0.025419474 -0.63727945 0.77634335 -0.11544002 -0.63349456 -0.34523216 0.014821353 -0.052792914 1.1215281 -0.61371636 0.60519344 -0.17929272 -0.4143767 0.26524723 -0.7693777 0.026813561 0.5790278 -0.1591242 0.092260994 -0.13948633 0.5325977 0.32483926 -0.99840045 -0.7691784 0.078411706 0.25314763 -0.03547319 0.20835187 0.10402026 -0.42211202 0.26993963 0.007156956 0.21756388 -0.32701188 0.957591 -0.24866559 -0.34102783 -0.77841496 0.33095083 0.22244741 -0.23607999 -0.113179736 -0.11440961 0.39479843 0.460997 0.6029256 0.60329646 0.3442776 -0.72623795 0.22557437 -0.00620317 -0.34518686 0.105871595 -1.1573539 -0.55362433 -0.65432554 -0.84123147 0.09838858 -0.23146096 0.17449924 0.27575114 -0.18750763 -0.2687221 -0.6181074 -0.022410722 -0.61632985 0.23140411 -0.019035764 -0.6716141 0.32549766 0.06919542 0.1939145 -0.3614543 -0.8828348 -0.0069519435 0.28514776 -0.43432653 0.8095895 0.39830685 0.2474218 0.7704785 -0.4967622 -0.09089024 -0.7694204 0.41703033 0.34242108
SubClassOf 0.37504596 0.061363216 0.24164714 0.53747624 -0.45060292 0.42830878 0.66025597 0.35193077 0.16507515 0.40564418 -0.40924835 -0.041907374 -0.34319302 -0.025393983 0.31145555 -0.16451745 0.10009749 -0.30674672 -1.0199531 0.05891534 -0.185173 0.025281893 0.33254904 0.045416374 0.33417317 -0.43490463 -0.23978643 -0.14484692 -0.08454036 -0.13048644 0.2832013 -0.39958596 0.5416466 -0.27222243 -0.043429505 0.13314216 -0.0694021 -0.6774237 -0.0660975 0.5658671 0.3428257 -0.07761222 0.42911604 -0.4810785 0.59688956 -0.51093227 0.40909132 -0.34132743 0.35705578 -0.09502771 0.16893063 -0.66595185 -0.8144112 0.2521349 -0.17863895 0.15884835 0.22996637 0.013204527 0.24221301 0.44681177 -0.7363278 0.34474993 -0.23599228 0.4220683 0.398884 -0.28079823 0.2639692 0.42476395 0.30760318 0.24429785 0.09364167 0.301326 -0.34424207 0.3073587 -0.5884176 0.26718014 0.18502773 -0.5310652 0.5055059 0.22466692 -0.12157145 0.058120206 0.5655361 -0.13328752 -0.8432238 0.544224 0.20682669 0.012244541 -0.09246432 -0.41984832 -0.0018155256 0.8487273 -0.22631028 -0.13010713 -0.28999385 -0.10490135 0.29943317 0.058482017 -0.2023766 -0.38261718
deformation -0.67532027 0.23312286 0.4809626 0.2154775 -0.18217665 1.2304589 -0.118907504 0.794925 -0.28848568 -0.48682344 0.24793388 0.5514439 -0.80293703 0.02650711 0.44236147 -0.7615329 -0.3979404 -0.81767225 -0.5037666 -0.46458554 -0.38635013 0.0649799 0.79080665 0.5541525 -0.17506418 -0.5076725 0.24621816 0.57365227 -0.7430089 -0.49098253 -0.53507584 -0.3639 0.60692596 0.37700117 0.24807411 0.12756321 -0.2027192 -0.43316925 -0.041476835 -0.11984911 0.36302736 -0.23125751 0.3681052 -0.3717346 -0.36799487 0.07484542 -0.01561059 -0.057172798 0.21514386 -0.2911906 0.27429542 -0.5325176 0.26379076 -0.38245153 -0.21946579 -0.32206386 -0.42822176 -0.30137208 0.68547976 0.3635115 -0.4377744 0.2786396 -0.0042343345 -0.19761834 -0.28482553 -0.70849764 -0.33621836 -0.29914388 -0.67891717 0.17243402 0.21106003 0.15137969 -0.43360746 0.023669416 0.8240598 0.24421342 -0.02774746 -0.685691 0.40014932 0.1721924 0.37253186 -0.23087877 -0.7258142 0.2491911 -0.30820224 -0.19745485 -0.3749477 -0.47994974 0.60596657 0.08500751 -0.4097074 1.032297 0.26529887 0.12787421 0.7816845 -0.39197278 0.19919674 0.19230777 -0.3296489 -0.2669971
0000050 0.17139493 -0.031991135 0.39751554 -0.05642411 -0.061722334 0.89911747 -0.1526189 0.42301792 -0.28393647 -0.60070646 -0.33737457 0.48490217 -0.104876414 0.35264716 0.4295241 -0.3071961 0.03251033 -0.28507006 -1.0934584 -0.032168053 -0.48820588 0.14394054 1.5643412 -0.009916732 0.5478111 -0.67853093 0.45924 -0.26857919 -0.41350394 -0.423122 0.0189251 0.3468654 -0.1589834 0.32915613 -0.12001672 -0.24591546 -0.5840441 -0.55959874 0.5223987 -0.055152293 0.21884671 0.023259146 -0.043271337 -0.6806793 0.45339057 -0.32154348 0.43778718 -0.23534417 0.5039465 0.053933118 0.08185341 -0.44134152 -0.5419058 -0.05791143 -0.06008533 0.01284174 -0.019760583 1.0331784 -0.086286195 0.80448335 -0.26603872 0.5507646 -0.12740262 0.73937714 -0.42377013 -0.06532125 0.053639963 -0.23995358 -0.20217389 -0.20211816 -0.09085215 -0.1310511 -0.5040219 -0.267255 0.4784309 0.13035017 0.5332814 -0.66276366 0.42844045 0.19666933 0.23983143 -0.18484296 -0.40407354 0.3494674 -0.8493556 0.13902266 0.02475707 -0.9277652 -0.21805148 -0.2942898 -0.3330818 1.3352034 0.046506144 0.21087757 -0.07630199 -0.1366978 0.17069764 -0.20866783 0.17533998 -0.36444968
0000601 -0.23794115 0.28947684 0.35444376 -0.3523449 -0.49416482 0.1611268 0.49227247 0.33327445 -0.77852887 -0.12792432 0.03449701 0.7324769 0.062256146 -0.25738063 0.13086937 -0.33962202 -0.3622326 -0.8408695 -0.6308838 -0.92156315 -0.24800338 -0.29677266 0.20920686 0.27242965 0.22444905 -0.21065213 0.16958787 -0.19543202 0.10799872 -0.05641316 0.09690322 -0.34221625 0.16827808 -0.43321124 0.39141378 -0.12774172 -0.2109977 -0.29796058 -0.32288584 0.39056367 0.1470112 -0.40585902 0.45001754 0.109152935 0.62134326 -0.31272206 0.07323978 0.1038024 0.052681427 -0.15617049 0.28172535 -0.4948157 -0.5764666 0.18892911 0.16777404 -0.015684025 0.4003826 0.17408496 0.096898556 0.6169971 -0.1685037 -0.06343404 -0.035255328 0.565311 -0.30226043 -0.4070882 -0.221731 -0.31156564 -0.14056355 -0.22067595 -0.091856755 0.16740644 0.085162796 -0.38963997 -0.5091677 -0.21736912 -0.30784655 -0.41829148 0.11082841 0.05374103 -0.15584151 0.33208302 -0.02890459 0.163022 0.2608144 0.34941116 -0.07309886 -1.1022383 0.0055096005 -0.3550664 -0.08095793 0.7765268 0.16500066 -0.236347 0.09894524 -0.44428185 0.42334166 0.601951 -0.11379864 -0.16677098
http://purl.obolibrary.org/obo/BFO_0000023 -0.048934642 0.27005062 -0.59374565 -0.9480986 -0.64618194 0.6469232 0.09211423 0.49951205 -0.32170102 -0.3944276 -0.13313316 -0.04229047 -0.74782115 -0.44726714 0.9672263 -0.31590152 -0.31696045 -0.15392067 -1.5078708 -0.5147979 0.13621168 -0.15016282 0.85676134 -0.12489814 0.19193326 -0.35893106 -0.14904901 -0.23760396 -0.22450866 0.0821744 -0.97705823 -0.74372864 -0.63537407 -0.17132546 -0.5940463 0.2524886 -0.3069651 -0.5985893 0.93404245 0.74869615 0.426638 -0.12750201 0.5571548 -0.087539405 0.24208441 -0.050288286 0.15896167 0.5498101 0.34351742 -0.25529036 -0.23239258 -0.41633236 0.20279476 0.43252972 -0.11206537 -0.49027786 -0.20479287 0.49432197 -0.36936498 0.2781205 -0.43536398 -0.105815604 -0.17054129 0.28676495 -0.28446493 -0.05358306 0.2531026 -0.5837903 -0.13043784 0.4765738 -0.29136294 0.080993146 -0.11104159 -0.16361651 0.6414889 0.032045133 -0.20896202 -0.18675375 0.64199305 -0.34088132 0.29194728 -0.19882056 -0.04160045 -0.22307324 0.08433238 0.8405102 -0.04918847 0.38000262 0.13171515 -0.30776048 -0.40363416 0.39603624 0.03858892 0.107833534 0.23426692 0.10941307 -0.585054 0.2801957 -0.6656083 0.33153248
https://www.inf.ufrgs.br/bdi/ontologies/geologicalspatialrelationsontology#ufrgs:geologicalspatialrelationsontology_externally_connected_with 0.06831727 -0.08201672 0.15488538 -0.33674902 -0.03128477 0.33661422 0.013701337 0.34211573 -0.48260882 -0.4041056 -0.02443009 0.73043066 0.096856035 0.21854031 0.5303073 -0.14875942 -0.07165968 -0.5019697 -0.83995444 -0.34206775 -0.012518356 0.07513085 0.9881937 -0.13157308 0.5860283 -0.43424913 0.15767288 -0.06229029 0.018695574 -0.33022293 -0.23954736 -0.05647553 -0.2558519 0.21910352 0.2004726 -0.062166553 -0.41825265 -0.63944596 -0.086658955 0.12313878 0.5240669 0.38137898 -0.020250892 -0.30378342 0.60350233 -0.09993489 0.31497017 -0.1672552 0.4067283 0.036703847 -0.12163668 -0.5032148 -0.13226719 -0.08128127 0.08687798 -0.27941683 -0.006218082 0.8687764 0.4489195 0.3868524 0.316395 0.4015345 -0.46316037 0.2603696 -0.25405544 -0.2590584 -0.063365065 -0.56975484 -0.100566864 -0.29605028 -0.36748847 0.41949925 -0.20387864 0.027950134 0.17759196 0.10284314 0.14015485 -0.6274407 0.2927478 0.05356789 0.0036360237 -0.100062594 -0.44073948 0.0018451982 -0.118772045 0.3191315 -0.24855952 -0.38393214 -0.18220958 -0.26069948 -0.25781184 1.0103431 -0.025109924 0.05067642 0.30486602 -0.36197507 0.019025657 -0.3136569 0.0923549 0.17372964
generically -0.01750335 -0.2281568 -0.36555737 0.009404715 -0.77332795 0.9623017 0.091431074 -0.0018451709 -0.6525409 -0.52271175 -0.5004696 0.46306026 0.18917435 0.15119642 0.74747795 -0.45165148 -0.21309361 -1.0016088 -0.77126527 -0.14345287 0.2327735 -0.24792321 -0.22601897 -0.134736 -0.077638514 -0.25345385 0.54152155 -0.114856236 0.29476872 0.355458 0.12541348 -0.7786445 -0.11967367 0.03874504 -0.28830338 0.5889404 -0.37577066 -1.0059187 0.500694 0.17526071 -0.22596723 -0.332614 0.27800173 -0.06994103 0.35890257 0.54483813 0.1243995 -0.29344347 0.3301822 -0.3994849 -0.10955542 0.077251986 0.21411361 0.15970467 0.5813696 -0.5965672 -0.32538065 0.7333055 0.21926382 0.7192546 -0.057972822 -0.5132517 0.14734688 0.50972366 -0.4327787 -0.5087512 -0.28960973 -0.9123369 0.0954702 -0.36342278 -0.5328967 0.17935614 0.30255464 -0.4007813 -0.09650838 0.07621606 0.22349824 -0.4757118 0.5030401 0.17845991 0.6065324 -0.38369933 -0.12970704 0.23871194 -0.2725169 -0.010197691 -0.2767485 -0.32673362 0.38971576 0.20759252 -0.6709183 0.7056704 -0.17118548 -0.56772906 0.90910244 0.18884416 0.14163455 0.19480245 0.3028402 -0.15254535
http://purl.obolibrary.org/obo/BFO_0000040 0.62890476 0.08494173 -0.21200728 -0.63631064 0.2522902 0.2972624 0.008764512 0.14461766 -0.3459783 0.015598987 -0.042056207 0.94436944 -0.73127526 0.49865392 0.12380784 -0.7046035 0.24456087 -0.5525688 -0.7096929 -0.36167705 0.08398504 -0.1061911 0.6414661 0.3112077 0.20131706 -0.6760571 0.0017368984 -0.55470264 -0.21931359 -0.52865237 -0.37734908 -0.5930406 0.020270022 0.092655204 -0.5367913 0.05564265 -0.6142109 -0.29008347 0.6894555 0.10904563 -0.32910284 -0.36316752 0.25414026 -0.63746315 0.45339128 -0.08185956 -0.12810518 0.44087163 0.36800128 -0.15662841 0.9714201 -0.62249815 0.1731715 0.36107767 0.59309345 0.11332748 0.102123216 0.39754972 -0.13320647 -0.13421093 -0.09038553 0.43325502 -0.736296 0.016394252 -0.41369423 0.18596683 0.0015969141 0.14833994 -0.46829233 0.01989378 -0.26275745 0.63794816 0.10902158 -0.18447533 0.560719 -0.37004462 -0.06097156 -0.27826476 0.10057254 0.106937476 -0.19882551 -0.31340572 -0.42818102 0.032393288 -0.78005743 0.88702804 0.05067572 -0.24855909 -0.104132675 0.3101015 -0.5273052 0.44909203 -0.056959394 -0.053459007 1.2652087 -0.6401675 -0.09573195 0.3533217 -0.276495 -0.6284526
0000600 -0.055788964 0.42230657 -0.060305346 -0.08478058 -0.68833625 0.49915427 0.44876465 0.5046803 -0.63228166 0.119630754 0.07730856 0.44937068 -0.10388895 -0.29646385 0.24733235 -0.16449086 -0.48402926 -0.8923788 -0.47473475 -0.8007684 -0.50351423 -0.32090953 0.3970133 0.14041337 0.13920352 -0.24151357 0.48231936 -0.5013123 -0.074288964 -0.21043204 0.25212002 -0.1799576 0.4306724 -0.5173044 0.087036386 -0.39636347 -0.26198575 -0.4707285 -0.3655585 0.2804128 -0.0062867445 -0.27691808 0.5432751 -0.35394296 0.38487622 -0.7926184 0.08321522 0.06314578 0.031509906 -0.42901012 0.3363077 -0.41652992 -0.55818963 0.27557433 -0.088903524 -0.17708273 0.31500393 -0.258926 -0.114565775 0.6689813 -0.59735966 -0.6132982 0.094249964 0.5587572 -0.12133129 -0.2377516 -0.11783354 0.040903654 -0.29350948 -0.07793559 -0.07222542 -0.03811708 0.02494526 -0.2688298 -0.26193553 -0.13503402 -0.42281836 -0.24014443 0.12752219 -0.15031333 -0.236034 0.3938932 0.12483597 -0.036325116 -0.20077492 0.652106 -0.3243412 -0.9223507 0.39483067 -0.28569257 -0.1844866 0.5362945 0.020791804 -0.09763089 0.110417396 -0.23957187 0.70478475 0.6758201 -0.09138207 0.13196647
http://purl.obolibrary.org/obo/RO_0000081 0.53508174 0.5379214 -0.42902267 -1.0214138 -0.7463934 0.86910737 -0.21492599 0.33047685 0.110839054 -0.31651136 -0.32375675 0.07585213 -0.43371606 0.08987604 0.7487253 -0.3270396 0.14240836 -0.029879816 -1.1230613 -0.22816877 0.015093401 -0.32698697 0.78394544 -0.13344269 0.35658768 -0.23096538 -0.47959477 -0.3096732 0.031944152 0.017798468 -0.38642463 -0.77518654 -0.12680925 -0.24308528 -0.22514954 0.116702676 -0.3452667 -0.25253552 0.68579334 0.33888203 0.63073474 -0.2602155 0.20822103 -0.5772215 0.7011823 0.14407817 0.03292418 -0.4338563 0.74698144 -0.5114016 0.26879874 -0.6758198 -0.41551918 0.0966749 -0.1620712 -0.14982766 -0.20920993 0.72920346 -0.2789156 -0.13428308 -0.93934005 -0.1974979 -0.61873055 0.37968084 -0.7597161 0.085707165 0.3435653 -0.49798104 -0.44562984 0.42104656 -0.21348958 -0.32711667 -0.011692774 -0.5519396 0.19466451 0.26083016 -0.13295697 -0.6840791 0.81975216 0.053957485 0.25363228 -0.369612 -0.15774424 -0.30486208 -0.7425284 0.7374109 -0.031134207 0.21693946 0.12888551 -0.7036721 -0.60474664 0.23319174 -0.38380376 0.10547753 0.020594778 -0.01045394 -0.022165565 0.19162257 -0.59071624 0.11299573
0000087 -0.2724319 0.26466173 0.20067832 -0.57838196 -0.6606026 0.98582166 0.10802249 0.31748205 -0.37167162 -0.35487732 -0.11049704 0.47959253 -0.19058274 0.019150462 0.66151977 -0.19224687 -0.12674792 -0.36853004 -1.255726 -0.42324635 -0.122657776 -0.21152894 1.0355223 -0.4548899 0.19682886 -0.6869879 0.5188309 0.0778958 0.179335 -0.37787303 -0.56490225 -0.49394765 -0.24601042 0.11768916 -0.14461136 -0.16164702 -0.19368385 -0.30487722 0.27925667 -0.09549552 0.5255911 0.18917304 0.10774039 -0.5677688 0.45963556 -0.49774858 -0.08041709 -0.23229253 0.39197075 -0.12918831 -0.038420834 -0.35886106 -0.012468826 -0.12186314 -0.060752142 -0.22779797 0.05917166 0.71925044 0.16954184 0.2572507 -0.49129778 -0.110256456 0.084656104 0.4113737 -0.14362948 -0.41675812 0.055447802 -0.41377914 0.16476496 0.1680018 -0.01698542 -0.1829895 0.06915274 -0.14605801 0.25624838 0.22032216 0.5472276 -0.5448504 0.56066006 -0.098353736 0.14298593 -0.09885213 -0.5895641 -0.025507355 -0.25051463 0.6159881 0.05753506 -0.060107253 0.5537339 -0.27228743 -0.38886106 1.0206935 -0.1243496 -0.15402575 0.22411214 0.1037339 -0.17261936 0.11287927 -0.0004482981 0.11261626
0000051 0.034732543 0.0491426 0.29559976 -0.038533885 -0.033523355 0.8506098 -0.11428989 0.3257545 -0.2834493 -0.71008426 -0.2400093 0.43077374 -0.11598365 0.4125906 0.2868427 -0.26243865 0.04539522 -0.352864 -0.89269924 -0.11022685 -0.47000578 -0.053788695 1.3305082 -0.014145382 0.5378498 -0.7528874 0.43712103 -0.21712989 -0.5554967 -0.30317295 0.058378242 0.24902906 -0.07993167 0.35196525 0.035889607 -0.24940766 -0.7006541 -0.5026495 0.61892205 -0.21910742 0.17430562 -0.06463442 -0.10841056 -0.48779806 0.35573372 -0.35718262 0.48409516 -0.2552953 0.46986645 0.19211876 -0.085102834 -0.40506622 -0.53785264 0.15619169 -0.034926627 0.10245748 -0.018776203 0.9529819 -0.0070057474 0.770438 -0.33005401 0.53035945 -0.021038016 0.7660475 -0.3399748 -0.32588592 -0.082169734 -0.1252272 -0.02601293 -0.21230319 0.029710965 -0.06446287 -0.49173847 -0.18029772 0.46797132 0.21423022 0.5424499 -0.7383582 0.3890318 0.26486075 0.38595125 0.0005413647 -0.43688917 0.47960225 -0.8210304 0.28533003 0.22149599 -0.8706974 0.108994626 -0.2545026 -0.25092894 1.2366471 0.1411497 0.0128717655 -0.035810806 -0.2041968 0.037594333 0.030459901 0.2205404 -0.44559965
http://purl.obolibrary.org/obo/BFO_0000003 0.12286399 0.33081132 -0.35763845 -0.10043187 -0.15408286 0.44280487 0.51648986 0.91319615 -0.5410547 -0.12645687 -0.2971068 0.67582774 -0.70321226 0.03532437 0.51732355 -0.78445494 -0.5031119 -0.69422436 -0.6728884 -0.9406085 0.31731462 -0.11328291 0.02824933 0.9031018 0.20254536 -0.07505037 -0.48378906 0.06206974 0.044853333 -0.105023935 0.55433655 -0.81598943 0.33039048 0.26703167 -0.0684791 -0.26952043 -0.25767183 -0.35870048 0.5372275 0.2260973 0.18175408 -0.28276762 0.69184774 0.29295284 0.5328163 0.15224813 -0.12613687 0.14104217 0.42242438 -0.36794633 0.3723726 -0.82552385 0.21245301 0.28647506 0.21855985 0.5673973 -0.59999454 0.2849118 -0.13503844 0.4380851 -0.20377663 0.666667 -0.04272354 -0.44517916 -0.94711554 -0.6178447 -0.28630933 -0.37171972 -0.7651269 0.68969744 -0.2402297 0.3936079 -0.23937316 0.0010243393 0.48620087 -0.7692576 -0.05038915 -0.1876761 0.32673454 0.11914482 -0.0537356 -0.27094468 0.04314381 0.27172866 -0.29594794 0.19087261 0.035097178 -0.12484139 0.09748422 0.36153615 -0.37554136 0.5516624 -0.3150761 -0.03216683 0.8236683 -0.32878765 -0.060021713 0.5953132 0.019408254 -1.0051262
damage -0.106976606 0.11431074 0.16318607 -0.7986291 0.030526295 0.6595569 -0.69410515 0.49108136 -0.2552234 -0.95856756 0.122327894 0.35038915 -0.021062525 0.1843105 -0.29528487 -0.6300047 0.19313288 -0.76413155 -0.36944085 -0.3976438 -0.3278729 -0.18414669 0.88004047 -0.05611322 0.5786885 -0.44382083 -0.3143622 0.6502161 -0.3781057 -0.34300095 -0.39940697 -0.46655273 0.1689742 0.099826954 0.07518915 -0.2579009 -0.6688924 -0.42845178 -0.15019786 0.09998206 0.09690331 -0.66349244 0.19174251 -0.16436031 0.13406569 0.30510423 0.16785958 0.018732598 0.24958152 -0.10650601 0.06351264 -0.4748906 -0.011659826 -0.4665706 -0.19076182 -0.16170852 -0.16837958 0.45995355 0.5161825 0.2560187 -0.36279178 0.23693974 -0.6021879 0.30022022 -0.06953237 -0.06544308 -0.063929364 -0.48779926 -0.10891259 -0.40507066 -0.6142713 -0.08440702 -0.051229823 -0.46600038 0.66056496 0.20838033 0.11647925 -0.8925126 0.6796023 0.44431368 0.22133295 -0.4715082 -0.92408276 0.1629578 -0.26945025 0.44858566 -0.5933791 -0.7702651 -0.12371847 -0.12315909 -0.048430506 0.12808849 -0.15615392 0.14296475 0.45865905 -0.48368797 -0.017068883 -0.55193883 -0.16501938 -0.21262054
and -0.08251706 -0.008442637 0.43017417 -0.059017476 -0.18013696 0.8285988 -0.16904576 -0.29765576 -0.2790526 0.031069083 -0.28586283 0.27557713 0.5046754 -0.7279088 0.20609632 0.15118168 0.4301489 -0.09981175 -1.1225487 0.39280283 -0.08690861 -0.79207414 -0.01496459 -0.59574527 0.0228352 -0.06680132 0.31523958 0.2475836 -1.1110263 0.36078858 0.047967345 0.387929 -0.50290406 -0.39484155 0.7975802 0.5340118 -0.38920674 -0.65949833 0.4838658 0.091165125 0.4660983 0.10292887 -0.39823338 -0.90615416 0.32082897 0.06069861 0.16413918 -0.43882334 -0.04844999 -0.57834435 -0.295855 -0.21917507 -0.16548201 -0.024582654 0.08647405 -0.1863642 -0.08221537 -0.15371278 0.5010311 0.37920967 0.18725589 0.19035591 -0.41120225 0.5373631 -0.23367736 -0.29122666 -0.3185094 -0.7988633 -0.67703646 0.20550618 0.21426226 0.5675443 0.12601782 -0.04136886 -0.0662637 0.07133802 0.05885604 0.006198518 -0.23573412 -0.0930983 -0.789107 0.054472875 0.12784758 -0.2197956 -0.58862936 0.69679934 -0.44622684 0.009227553 0.70700467 0.58146816 -0.28661612 0.48033336 -0.28395224 0.031110946 -0.49140945 0.30840847 -0.4488794 0.20986483 -0.914705 -0.32089052
http://www.semanticweb.org/quy/ontologies/2022/8/untitled-ontology-33#GeoFault:fault_wall_volume 0.75243187 -0.12110852 -0.118698515 -0.2632276 -0.1255281 0.79461354 0.42729563 0.21252249 0.15370207 -0.7034848 -0.25814813 -0.19592196 -0.3956363 -0.56629086 0.7646885 -0.16599217 0.28961867 0.04443433 -1.3899324 -0.32540637 0.416152 0.41076046 0.97457343 -0.030756544 0.5351268 -0.33023494 -0.20623787 -0.20686425 -0.38088465 -0.22395986 -0.38558167 -0.29799965 -0.6902769 -0.10472583 -0.41281343 0.15843019 -0.4588911 -0.8335331 0.943987 0.7196437 0.64002603 0.34258968 0.48271075 -0.15880772 0.8363924 0.37487176 0.51746947 0.18313329 0.5462589 -0.023847632 0.03527432 -0.75568956 -0.6258087 0.45408145 0.106532276 -0.32367355 -0.1115435 0.766187 -0.08957655 0.5011005 0.016724335 0.3946849 -0.19091398 0.9420806 0.019549323 0.0068037543 0.39563847 -0.8290068 -0.39396203 -0.17521094 -0.2643579 -0.19224493 -0.022306388 0.14849047 0.1096772 0.42106926 -0.25424373 -0.6061297 0.061826855 -0.22731607 0.19074418 -0.7665485 -0.09384229 -0.6589641 -0.41745764 0.39542663 -0.1901691 0.019199645 -0.23295833 -0.4161132 -0.25151885 0.8261468 -0.20468727 -0.19850229 0.10935906 -0.2520161 -0.42251703 -0.5021271 -0.5016286 -0.25513238
temporal -0.3908869 0.032803945 -0.26085016 0.3895196 -0.05791456 0.85160893 -0.1987837 0.35935643 -0.68431646 -0.11159504 -0.15459287 -0.11984888 -0.67835563 -0.67757016 0.26359835 -0.8698457 -0.42587754 -0.7327561 -0.2372629 -0.8236942 -0.1818508 -0.8460833 -0.46547383 0.23297533 0.6890278 0.36701655 0.11694453 0.24480435 -0.11670512 0.063787654 0.14777955 -0.25385067 0.29809868 -0.0466807 -0.10273746 -0.12245136 -0.18416244 -0.92355025 -0.15109245 0.011616634 0.14962271 -0.8231348 0.49917683 0.24542159 -0.689871 0.18273012 0.37054336 0.3128966 -0.12651008 -0.42097268 0.065265365 -0.77187705 0.17250976 -0.00032046373 -0.07541194 -0.28720585 -0.07810791 0.38595414 -0.00084315526 0.8896749 -0.45977777 -0.23786713 -0.24402502 -0.8025387 -0.43851683 -0.78833115 0.05388639 -0.2071824 -0.61202806 0.068023294 -0.59014547 -0.18012224 -0.64496076 0.18598635 0.57215786 -0.4757503 -0.37783748 -0.60263854 0.49631312 -0.16581425 0.107645944 0.3489708 0.171345 0.62285966 -0.17884272 0.67682177 -0.42459083 -0.6465705 -0.28343982 0.2223323 0.12472332 0.08984785 -0.036208387 0.26721436 0.474699 0.46155307 0.48386 0.33138394 -0.20232822 -0.22037235
brittle -0.6022007 0.0645738 0.31149057 0.036989942 -0.4301899 0.6359221 -0.1271849 0.23323478 -0.2691354 -0.47713497 0.05183008 0.46735752 -0.9175652 0.11452081 0.42069036 -1.0124631 -0.1800112 -0.2532753 -1.0860516 -0.8086503 -0.7312311 -0.5663052 0.6870047 0.16140576 0.011377407 -0.38104376 -0.07065114 0.4652684 0.052491043 -0.577136 -0.61407393 -0.22681886 0.59902996 -0.08354331 0.4463085 0.29662025 -0.4397689 -0.102460966 0.12877043 -0.29510146 0.690892 0.31883374 0.3039548 -0.079248585 -0.2406611 0.19992189 0.030990336 -0.32782394 0.20869364 -0.16554166 0.16224496 -0.5269823 -0.68570876 -0.07011382 -0.3574955 -0.28220728 -0.7813641 0.32264844 0.6344555 0.39687085 -0.14780712 0.30297533 0.12590232 -0.44161406 -1.110698 -0.55808103 -0.4833107 -0.28434786 -0.8828746 0.36266068 0.36967024 0.28651118 -0.855382 -0.28253517 0.25227165 0.04290067 -0.28556946 -0.78895056 0.020156065 0.2575211 0.15111463 0.029478088 -0.6170452 0.42090103 -0.33337754 -0.09041427 0.12212051 -0.66179174 0.020254055 -0.32306316 -0.97113836 1.1818964 -0.25085062 0.29878226 0.6984961 0.02953874 0.61864626 0.45019704 -0.26500696 -0.50166714
immaterial -0.091180116 0.0030785273 -0.23023486 -0.4745163 -0.10603565 0.112705246 0.07839704 -0.15506198 -0.76695734 -0.25268182 0.23843314 0.48512927 0.18404844 -0.03930655 0.26310778 -0.29543078 0.17970261 -0.8452744 -0.40347257 -0.5585523 -0.23559977 -0.0154550625 0.21652499 0.3372292 0.7302184 -0.33056054 0.24718602 0.34273642 0.011214299 -0.18861997 -0.36825964 -0.9342678 -0.19057293 0.010091479 -0.010157072 -0.23613043 -0.13565566 -0.9140029 0.37484145 0.17495301 -0.15406808 -0.50012034 0.47983083 -0.5081322 0.68660223 -0.0020558285 -0.3327151 0.4189906 0.5280291 -0.113587834 0.5362878 -0.74265516 0.63314384 0.2503581 0.21586703 -0.09052413 0.3107914 -0.10008431 0.14839661 0.08969658 -0.35254604 0.46019953 -0.7480003 0.45113784 0.1591335 0.041942447 -0.3161314 -0.21796127 -0.31307805 -0.19397973 -0.6654757 0.4704461 -0.3412346 -0.27948114 0.7780179 0.18307535 0.032871068 -0.5543862 0.43977883 -0.33839062 -0.20845146 -0.475156 -0.6185585 0.20278795 0.032415576 0.4615055 -0.84726655 -1.2067392 0.05712799 0.15050898 -0.01977365 0.12846959 0.50680536 0.46162313 0.34284255 4.8516813e-06 -0.07195716 -0.14538099 -0.31645125 -0.16813284
shape -0.2064458 -1.241153 -0.32070056 0.24393597 0.37085155 0.03368085 -0.58295655 0.043903463 -1.306049 -0.40570965 -0.22736423 0.14353411 0.24159408 -0.3004909 0.5031403 -0.73767185 0.5257321 -0.028403986 -0.7397578 -0.5013184 0.34463057 -0.28301847 0.29021248 -0.19215748 -0.3866681 0.2509263 0.6800883 -0.10761472 -0.48942 -0.49666893 -0.04224772 -0.47967485 0.26301163 -0.021515006 0.27103344 0.5214356 -0.17622125 -1.2725399 0.2835405 0.009034439 -0.39466748 0.4310677 0.967081 -0.5145825 0.48196372 0.1000774 -0.49948722 -0.47971848 0.68767893 -0.95745003 0.032357834 -1.1402224 -0.07398096 0.20102271 0.2162083 -0.0060731117 -0.031763013 0.4152538 -0.121412836 0.7310275 0.1603593 -0.5865556 -0.3580439 0.15012407 0.23512477 0.09354098 -0.07737892 -0.29533502 -0.2655176 -0.6955902 -0.39013728 0.5426504 -0.3784392 -0.47095907 0.13235317 0.34550273 -0.6399741 -0.50697786 -0.37048247 -0.06597133 0.3460184 -0.18691675 -0.23279268 0.052044205 -0.15663886 0.31607378 -0.1391658 -1.2509202 -0.22247952 -0.022894645 -0.42974278 0.6427712 0.5041554 -0.07290123 0.14979234 -0.12016113 -0.22689193 0.57325923 -0.590043 0.33044696
physical 0.23544757 -0.29023167 0.48132938 -0.14860459 0.106630825 0.38658282 -0.25071248 0.3965264 -1.111081 -0.512819 0.111988544 0.33906335 -0.0617703 -0.36479262 0.07764222 -0.6297393 0.76047283 -0.37955675 -0.42646253 -0.021908289 0.13826708 -0.47434384 1.1232954 -0.52589786 0.75460124 0.0026667947 0.08971042 -0.1252321 -0.4707342 -0.16595791 0.3529297 -0.38313907 -0.0051267617 0.04463622 -0.16154721 0.5445714 -0.5940674 -0.5500604 -0.4892382 0.7026121 -0.20023462 0.15714939 0.10671606 -0.25460175 0.11034206 0.3405879 -0.15018721 0.05043979 0.54914385 -0.29940802 0.1807925 -0.4259689 -0.027640231 -0.41920736 0.31510547 0.10249075 -0.030412251 0.6759062 0.5060844 0.6269974 0.472626 0.34071726 -0.6583657 0.4016907 0.159902 0.20596199 -0.21120343 -0.46538746 -0.24765947 -0.5502471 -0.7474513 0.10065486 0.26846832 -0.32386726 0.39284125 0.26740476 -0.25572264 -0.77145493 0.3723848 -0.024285022 -0.12627347 -0.57246286 -0.24892643 0.33545262 -0.39113346 -0.0057492885 -0.23947825 -0.7593006 -0.35332817 0.5035765 -0.28161532 0.38863105 -0.20846803 0.26036316 0.61682385 0.07391162 -0.29593274 -0.81046635 0.60517776 0.2850095
http://purl.obolibrary.org/obo/RO_0000087 -0.11746277 0.3828262 0.071507275 -0.63772017 -0.39981323 0.4388272 0.09499898 0.3369883 -0.04841932 -0.36416513 -0.05402979 0.35125694 -0.50297916 0.14258228 0.4509416 -0.15917927 -0.13201676 -0.042184386 -1.2836055 -0.5145174 -0.14428556 -0.009608841 0.9530039 -0.2617335 0.17009279 -0.5764193 -0.1945193 -0.26736626 -0.02985561 -0.20963454 -0.5961279 -0.44572726 -0.17514522 0.010571797 -0.2757915 0.2026436 -0.17957567 -0.41363937 0.49352702 0.25283068 0.5672636 0.27596173 0.25624466 -0.59313536 0.51271975 -0.5527907 0.24514158 -0.34159353 0.20957111 -0.06781483 0.12058998 -0.46653444 0.044139054 0.1246926 -0.32830623 -0.022736356 0.018629916 0.64882463 -0.2599141 0.23136728 -0.7455828 0.26234114 -0.22430569 0.299558 -0.2966916 -0.1362191 0.25281048 -0.48261657 0.12196633 0.20414254 -0.06915845 -0.095515385 -0.17416108 -0.099250376 0.070919365 0.17982808 0.28569666 -0.555328 0.65977925 0.12101816 0.16208443 -0.19514443 0.12365266 -0.21539585 -0.27912518 0.7147963 0.21232998 0.22951107 0.1568132 -0.43006375 -0.41008797 0.7059194 -0.23253356 -0.002265359 0.27509606 -0.009257449 -0.15851384 0.015766563 -0.2587062 0.16551465
http://purl.obolibrary.org/obo/IAO_0000601 0.00435429 0.12914446 0.19387423 -0.23736036 -0.22763412 0.12294734 0.5413998 0.3528398 -0.4446966 -0.0029769605 -0.30513686 0.5020258 -0.35785833 0.01548123 0.022920014 0.09392759 -0.1690553 -0.37012383 -0.65265965 -0.93530136 0.026830288 0.06624636 0.05873392 0.30242696 0.0061777057 -0.056283686 -0.19653092 -0.00096638565 -0.10186721 0.13839671 0.25562355 -0.6625103 0.17171913 -0.036472358 0.096550986 -0.01324386 -0.11435421 -0.2562685 -0.079234794 0.4710165 0.13104074 -0.15647815 0.58713305 0.06172275 0.66222155 -0.5937818 0.098678805 0.006575861 -0.037578907 -0.15793645 0.47517937 -0.8674048 -0.36268282 0.33466804 0.061991036 0.13808303 0.21579148 0.051924765 -0.26956964 0.34144792 -0.49337783 0.11944293 -0.005670856 0.30951887 -0.12060067 -0.33598247 0.12131153 -0.100112624 0.1979551 0.06174281 -0.101286426 0.25689492 -0.22598496 -0.19481118 -0.45436895 -0.2377435 -0.33219022 -0.27504918 0.026503863 0.43850788 -0.25173745 0.030807536 0.40447947 -0.33573824 -0.043926105 0.65028507 0.09323734 -0.65406865 0.08209625 -0.35859948 -0.33292276 0.45110923 -0.29702538 -0.45215288 0.36451554 -0.47679052 0.17618948 0.40961745 -0.22705005 -0.1551445
http://purl.obolibrary.org/obo/BFO_0000050 0.31799018 0.039548196 0.30374002 -0.1662643 0.07893126 0.64861095 0.041253928 0.25055814 -0.00014893303 -0.6693395 -0.353275 0.46888348 -0.5259536 0.3548487 0.073614754 -0.31649426 0.28538907 -0.016182316 -1.2264497 -0.4210321 -0.33893356 0.31731638 1.2624887 0.17251223 0.4471708 -0.60467887 0.043970134 -0.48209995 -0.4435416 -0.2233443 -0.06117597 0.16148798 -0.032913107 0.418074 -0.15715861 0.15589306 -0.5030573 -0.6692648 0.55519 0.110226914 0.18898962 0.20420256 0.25519362 -0.9443921 0.550531 -0.28909495 0.5543485 -0.39977393 0.3461003 0.099125884 0.10273509 -0.59047014 -0.4469849 0.17146716 -0.1922104 0.07695262 -0.08696689 0.8711526 -0.14142469 0.6211982 -0.400968 0.97120035 -0.30442527 0.5240276 -0.3402163 0.059417725 0.34688947 -0.10354245 0.08500694 0.16450942 -0.13110103 0.061318733 -0.42972937 -0.0024510026 0.07208515 0.32961747 0.15097618 -0.45415714 0.48086876 0.4391111 0.25694728 -0.45710206 -0.018174924 -0.035277724 -0.84429336 0.32608217 0.36296418 -0.3470683 -0.17279114 -0.5040801 -0.4610652 1.0795752 -0.27358168 0.05631555 0.19242084 -0.25396982 -0.17224641 -0.31857476 0.10708714 -0.13101812
http://purl.obolibrary.org/obo/IAO_0000600 0.026057977 0.15128818 -0.029211296 -0.005451888 -0.63052356 0.36667624 0.5539004 0.26704568 -0.36138132 0.2962971 -0.3180165 0.26546496 -0.34661302 -0.07293783 0.16617797 0.16804121 -0.19981954 -0.57161427 -0.7181374 -0.69287574 -0.26384938 0.07677319 0.14601265 0.19498034 0.24455336 -0.07057656 -0.05903398 -0.198205 -0.10054168 0.20361948 0.31518912 -0.67696613 0.3866909 -0.23870076 -0.05077388 -0.19839764 -0.28976327 -0.5618097 0.09230462 0.5263946 -0.0086010555 -0.31560892 0.6551704 -0.24441418 0.2749621 -0.89642936 0.031994615 -0.025268914 0.21364072 -0.33710408 0.4257464 -0.7660497 -0.39534983 0.27969125 -0.18095078 0.0074382056 0.30587742 -0.14018388 -0.3091019 0.28753322 -0.6824179 -0.23344411 -0.1971006 0.2550314 0.1471488 -0.16921203 0.27245086 0.24905919 0.20040931 0.26668605 -0.06783887 0.048954677 -0.30747586 -0.24110709 -0.3779834 -0.3273947 -0.17497806 -0.17030045 0.26555735 0.1901826 -0.4351706 0.10509873 0.57441926 -0.43661824 -0.3428726 0.8113586 -0.010200728 -0.7051086 0.16837938 -0.3924169 -0.3144435 0.29624712 -0.2848519 -0.074471645 0.03613054 -0.24777843 0.44857702 0.50739616 -0.31259283 0.03143828
http://www.semanticweb.org/quy/ontologies/2022/8/untitled-ontology-33#GeoFault:fault_core 0.38816983 -0.18001686 0.3828468 -0.43446517 0.4024599 0.6946145 -0.12327971 0.15701531 -0.16999032 -1.0132891 -0.021450955 0.27832624 -0.5122663 0.103683755 -0.1466083 -0.76218456 0.7648456 0.07464487 -1.0143863 -0.6565332 0.04484004 0.13310927 0.9979783 0.21841832 0.48757765 -0.392487 -0.5142748 0.23400114 -0.34785613 -0.6620152 -0.18324722 -0.11606018 0.017565327 0.22141398 0.04728497 0.4046036 -0.34079176 -0.20687148 0.06318812 0.3642874 0.40704262 0.11108942 0.3715676 -0.36324924 0.6169196 0.028398883 0.0182437 -0.30962244 0.33055973 -0.18644983 0.33135876 -0.8222547 -0.1204177 -0.08325365 0.04433388 0.080426775 -0.31981167 0.60567373 0.2798738 0.17876199 -0.42945117 0.8925586 -0.28393582 0.09267952 -0.3355066 -0.28163818 0.12316008 -0.51033396 -0.23455779 0.18310481 -0.41627944 -0.03834168 -0.23071417 -0.23755626 0.03003842 0.3541702 -0.026919598 -0.5790781 0.48654744 0.6150594 0.09200579 -0.63560843 -0.3445604 -0.09527657 -0.5772717 -0.051010624 0.22298534 -0.25610897 0.0011110489 -0.110333905 -0.70287913 0.5963099 -0.3669677 0.21744055 0.7664988 -0.49322668 -0.010415571 -0.5144226 0.107154034 -0.40895376
http://purl.obolibrary.org/obo/BFO_0000031 0.029276183 0.0559142 -0.37304506 0.15363944 -0.5817334 0.95021945 0.55400395 -0.045335192 -0.5599467 -0.21008158 -0.3779708 0.2562326 -0.2041391 -0.10393095 0.6274999 -0.21370365 0.020808445 -0.5681122 -0.97875977 -0.34418485 0.12437474 -0.28261858 -0.19394636 0.1362171 -0.029018015 -0.09756725 -0.27089953 -0.100463174 0.46644172 0.32030764 0.15782024 -0.76002836 -0.00037129072 0.24683942 -0.1671326 0.7838623 -0.23085608 -0.9253585 0.8203572 0.41108224 0.020634774 -0.058450304 0.27626717 0.15150398 0.545271 0.6839771 -0.0006083532 -0.48797375 0.2931207 -0.24832223 0.013076928 -0.04725815 0.21098648 0.66444725 0.57546735 -0.2622226 -0.47141144 0.7501052 -0.06996284 0.7783117 0.02212401 0.03311179 -0.23889011 0.45614424 -0.55346584 -0.42117915 -0.022982147 -0.8786375 0.28534362 -0.2593815 -0.15013929 0.2533533 0.008264586 -0.07145489 -0.07634397 -0.23627141 0.36020917 -0.2155156 0.5746492 0.12351491 0.6318114 -0.08621017 0.26261055 -0.26880872 -0.50571156 0.06882853 0.21779418 0.061839886 0.14198712 -0.10140486 -0.7389746 0.57898736 -0.07404698 -0.63255316 0.954536 0.09615534 -0.2306168 0.30307254 -0.21680152 -0.3546268
https://www.inf.ufrgs.br/bdi/ontologies/geologicalspatialrelationsontology#UFRGS:GeologicalSpatialRelationsOntology_externally_connected_with 0.14490144 0.08125972 0.14926566 -0.4036586 0.21304785 0.30876535 0.24379607 0.25215173 -0.31424358 -0.47593904 -0.22995716 0.5641901 -0.31371126 0.2225285 0.30709535 -0.26347265 0.14012766 -0.122771464 -0.9277837 -0.6705283 0.019104129 0.19832489 0.71752244 -0.077570744 0.55542046 -0.45914036 -0.28688768 -0.1275315 0.024532942 -0.31481865 -0.29764125 -0.20121767 -0.15315828 0.3561549 -0.011246773 0.28608873 -0.24861623 -0.52424157 0.13106711 0.30075195 0.42223433 0.3076401 0.19221489 -0.25756988 0.7757733 -0.07976768 0.18914874 -0.23848915 0.26213527 0.15300964 -0.05381518 -0.89224666 -0.18299523 0.13910013 0.1338392 -0.0054179477 -0.006172634 0.9031185 0.09503471 0.43690836 -0.002522171 0.77316993 -0.39367142 0.38771835 -0.34218192 -0.13033096 0.08915587 -0.33310825 0.044332813 0.04643299 -0.46941856 0.2237473 -0.11704224 0.17135873 -0.059673734 0.021884473 0.047718693 -0.4982722 0.38106862 0.27784437 0.051037155 -0.41694555 -0.06295979 -0.26403955 -0.52927375 0.18243979 0.0049569183 -0.22944078 -0.15324803 -0.54572266 -0.4776576 0.77733296 -0.15436795 -0.2784654 0.5286387 -0.27939653 -0.22241785 -0.36126605 -0.062674485 0.089941375
system 0.04792841 -0.44858816 -0.10155008 0.168168 0.11749478 1.1331328 0.017363306 0.18418913 -0.38294247 -0.6080437 -0.6407651 -0.29287365 -0.024097325 -0.45247465 0.8586845 -0.46173975 0.32582736 -0.040919345 -0.834927 0.5062749 -0.34336597 -0.49229097 0.6523256 -0.59626424 0.52235055 -0.35568655 0.4174933 -0.1515864 -0.36523747 -0.20436266 0.08159111 -0.12354612 0.15538843 -0.031735376 -0.32282397 0.74538517 -1.0029513 -0.6935352 1.2861974 0.16602749 -0.024617182 -0.27808058 0.06545861 -0.33903438 -0.2813108 0.41148975 0.66907316 -0.5795292 0.81742406 0.07965747 -0.14136262 -0.0044241664 -0.12720348 0.0127424495 -0.34356105 -0.29406333 -0.3073504 0.91953534 0.15884706 0.59701633 -0.41244158 -0.22118081 -0.06725335 0.727909 0.17370386 -0.35759732 0.108762465 -0.5092831 0.050928764 -0.3847484 -0.61033416 -0.40514234 -0.017842311 0.10215254 0.5458478 -0.37468266 0.3737869 -0.87076575 0.39294073 -0.17811693 0.31821454 -0.39002976 -0.010406461 0.22474155 -0.8938652 0.24563633 -0.45160046 -0.6150313 0.10165469 0.07386126 -0.37479603 0.7954688 -0.004266299 -0.10583305 0.24355014 0.20099416 0.0952316 -0.32334366 -0.44032717 0.10814688
https://www.inf.ufrgs.br/bdi/ontologies/geologicalspatialrelationsontology#ufrgs:geologicalspatialrelationsontology_proper_spatial_part_of -0.1905742 0.12952687 0.28103584 -0.24526423 0.109997466 0.58456564 0.08976335 0.20926298 -0.4648933 -0.28392184 -0.054398887 0.750575 -0.06682308 0.25885856 0.5604748 -0.11812215 -0.026740413 -0.6669953 -0.614015 -0.4187627 -0.22495541 -0.123742074 0.30898142 0.27699018 0.51014984 -0.5185802 -0.30097774 0.3401477 0.052143294 -0.10827082 -0.22195649 -0.41940156 -0.28204313 0.116358556 0.13791312 -0.26834872 0.054656625 -0.6287129 -0.06559316 0.28410128 0.14335687 0.31949803 0.32464045 -0.47828513 0.41426545 0.00396349 0.30310652 -0.16795754 0.173893 -0.0431575 0.24356684 -0.74794024 0.0119050555 -0.21560095 0.29878542 -0.31497058 -0.09619205 0.3297089 0.18849869 0.94708556 -0.21057901 0.25816247 -0.09587776 0.48790646 -0.1883021 -0.54444444 -0.00834563 -0.5775943 -0.23501763 -0.39041632 -0.5253736 -0.21740885 -0.055320855 0.078968905 0.24108627 -0.064169675 0.2988279 -0.4227997 0.23821302 0.049482748 -0.044113964 -0.119847864 -0.44770515 0.27413335 -0.1627116 0.37270457 -0.47060767 -0.49004558 0.1840807 0.12256884 -0.25082752 0.68350655 0.17644036 -0.019090662 0.72525597 -0.2897426 0.29609033 -0.19876802 0.28804904 -0.51581365
https://www.inf.ufrgs.br/bdi/ontologies/geologicalspatialrelationsontology#ufrgs:geologicalspatialrelationsontology_has_proper_spatial_part -0.25882012 0.019808212 0.33465642 -0.37460914 -0.20581502 0.5925287 0.08987634 0.26752353 -0.5165767 -0.30773726 0.077201955 0.8408839 -0.15453532 0.42383328 0.4099629 -0.0472841 -0.19572797 -0.768966 -0.7423991 -0.48214844 -0.1706709 -0.059548292 0.3813164 0.12176363 0.35185775 -0.46820572 0.0015968209 0.31641248 0.072727345 -0.14024842 -0.076957196 -0.48144755 -0.029447496 0.1971846 0.15255453 -0.24580914 -0.17427984 -0.58730674 -0.038705427 0.23319523 0.13698241 0.28794652 0.2401587 -0.36535716 0.5026369 -0.14375538 0.23707569 -0.17197664 0.11421395 -0.13933913 0.23630017 -0.64448756 -0.08064771 -0.08976612 0.3726043 -0.34756893 -0.09371037 0.4377717 0.25425044 0.8307096 -0.117219545 0.21012075 0.102543265 0.46273562 -0.3498911 -0.6099537 -0.07210071 -0.60065114 -0.16971865 -0.34179822 -0.3043351 -0.15425673 0.016585762 -0.053691894 0.35292858 -0.04653783 0.31438714 -0.4241468 0.23737422 0.20465884 0.029891724 -0.07209831 -0.59330064 0.11381527 -0.13683574 0.27369118 -0.4546795 -0.499447 0.18771891 -0.027235592 -0.25246894 0.7950128 0.10648922 -0.10086509 0.8246885 -0.50039905 0.26539323 -0.013154075 0.37314495 -0.35703102
smeared -0.59821206 -0.22449946 0.3081363 0.6279263 0.16997543 1.1191484 0.043279458 0.09184942 -0.7857609 -1.1136901 -0.27055988 -0.19796365 -0.76050127 -0.002130522 -0.41054356 -0.38166362 0.3050561 -0.34371954 -0.8101148 -0.15038131 -0.12590338 -0.7264459 0.060660373 -0.019141989 -0.100188665 0.58303404 1.1349062 -0.25866824 -0.20623584 -0.2338962 0.0591025 -0.22016348 0.06105496 0.245997 0.20516554 -0.057943393 -0.7520599 -0.6039843 -0.27929932 -0.22051503 -0.32160002 -0.003984795 0.45031726 -0.82147765 0.4684081 0.45438993 0.31072673 0.066898 0.6803395 -0.40038046 -0.036630914 -0.58649415 -0.1883399 -0.15676059 0.3733563 -0.35554814 0.22732347 0.47108802 0.8219014 0.87223166 0.04802757 -0.15379146 0.1092417 0.024449982 -0.42559123 -0.09065932 -0.45527175 -0.13853186 -0.70580775 -0.2619299 -0.049478862 0.29607484 -0.6587784 -0.4750176 -0.2869559 0.53270316 -0.48467728 0.21490626 0.24347243 0.8043466 0.20364155 -0.04306171 -0.41113713 0.23188442 -0.0789429 -0.3690974 0.3435346 -1.3083358 -0.6805357 -0.14938723 -0.32751638 0.053777613 -0.04705765 -0.47465268 0.012575874 0.11663144 -0.5696812 -0.24382481 -0.7564518 -0.088187225
disposition -0.72645617 0.27262408 0.05897055 -0.92975664 -0.404515 0.6849396 0.073214546 -0.015317092 -1.0949625 -0.16731791 0.30952585 0.3956222 -0.7573524 -0.53581953 0.70588905 -0.17773062 -0.076687664 -0.6952261 -0.87959474 -0.8037456 0.14361706 -0.4562718 -0.14254582 0.27013028 0.17773306 0.17809217 0.29889187 -0.2663009 0.48820382 0.25474772 -0.70968956 -0.5554975 -0.50297564 0.08435304 -0.09167669 -0.23243222 0.13737266 -0.36044148 0.18950962 0.16431814 0.24140207 -0.19073084 0.4308165 -0.5107527 0.43968007 -0.086364836 -0.3760193 0.83584255 -0.04887301 -0.3028465 0.39066884 -0.24198474 0.5413363 -0.047829933 0.5461725 -0.48700297 -0.22202204 0.3374897 0.65158755 0.85768515 0.18583629 0.2538558 0.017674787 -0.03807514 -0.08040828 -0.35083959 0.023979496 -1.052559 -0.62315685 -0.28449202 1.7779268e-05 0.008815681 -0.1218633 -0.6886204 0.48919445 0.21115738 0.17268708 -0.2350527 0.31074667 0.18790032 0.11692282 -0.12809913 -0.71152884 0.06370093 0.6288043 0.3499499 -0.215425 -0.22488421 0.45457676 0.20764317 -0.22946906 0.016310709 -0.08949761 0.17497064 0.59783965 0.05266116 -0.28393134 -0.11146755 -0.9375657 0.18668808
earth -0.38574848 0.21437876 0.45446926 -0.12474579 0.22279769 1.0945345 0.07888345 0.17580423 -0.69146556 -0.04408259 -0.0046872874 0.97746 -0.88426524 -0.08227327 0.2186388 -0.45790783 -0.58064276 -0.6327257 -0.7165807 0.025522811 -0.5054433 -0.076880224 0.5668396 0.70231485 0.09765531 -0.24177365 0.39468807 0.12866081 -0.4744837 -0.81958157 -0.45878243 -0.1990553 0.30500442 0.45688057 0.12551945 0.28607267 -0.4094284 -0.2193171 0.820047 -0.43236625 0.23880865 -0.5486275 -0.015103482 -0.5847266 0.27691737 0.14388363 0.37492433 -0.11406456 -0.16420138 -0.7335498 1.0255456 -0.049861837 0.37016103 -0.09501177 0.31273165 -0.3490421 -0.791901 -0.21300092 0.6023936 0.12205486 -0.47208673 0.5168943 -0.47057918 -0.10006313 -0.44902822 -0.17050263 -0.59517634 -0.66727215 -0.3577137 -0.20493297 0.49641722 0.28163964 -0.68075883 -0.38418773 0.26763207 0.10657554 0.42207608 -0.73348945 0.37437344 -0.03935778 -0.06887653 -0.53766197 -0.49788916 0.49483597 -0.10779897 0.5707651 -0.31033528 -1.1541847 0.0774602 0.16244745 -0.32033038 0.39233366 -0.3599256 0.47745648 0.5710662 -0.50617373 0.04159506 0.14151749 -0.9872864 -0.032870896
0000080 -0.4969547 -0.2605665 0.50129086 0.3366033 -0.28025463 0.7493205 0.16322675 -0.031777162 -0.7048915 -0.540766 -0.21656623 -0.022882339 0.24984899 0.04501929 0.046526767 -0.37762102 0.45480138 -0.20350507 -1.4036257 -0.39872268 -0.114205554 -0.2205341 0.87843573 0.1028214 0.3628163 -0.10851659 0.6512092 0.22976317 -0.012258882 -0.305473 -0.64491224 -0.2865093 0.3100929 -0.53725773 0.66376084 -0.1951513 -0.22585493 -0.74032265 0.17406316 -0.36869696 0.32083458 0.34363475 0.1810558 -0.2605422 0.63230175 -0.32895833 -0.18123052 -0.6682547 0.6497636 -0.121718325 0.0876634 -0.9234263 -0.8226258 -0.18981567 -0.06504274 0.120498374 0.11295192 0.77873963 0.32434106 0.6873824 0.054279942 0.11500623 -0.2680649 0.031547423 -0.3272026 -0.038310457 -0.29425395 -0.1423012 -0.24894519 -0.0031110474 0.14185771 -0.22000937 -1.0885811 -0.61027056 -0.6643427 0.04674937 0.11089368 -0.31159842 -0.33083147 -0.14934345 -0.51023555 0.104148045 -0.4231022 -0.11668643 -0.5648193 0.22769856 0.059543207 -1.1158576 -0.18032864 -0.34495953 -0.3621547 0.97808415 -0.3486246 -0.054864652 -0.54367155 0.27102184 -0.00887318 0.20064864 0.0416744 -0.1606518
. -0.13411474 -0.838035 -0.07857696 -0.20613904 0.033462033 0.05764722 0.06671557 0.6526847 -0.816291 -0.029325282 -0.42003173 0.08366897 -0.2975402 -0.3564506 -0.22301021 -0.7576185 -0.14147425 -0.49951428 -0.28096902 -0.46871385 -0.11252606 -0.6445002 0.17188805 0.22576949 0.25317755 0.51674706 0.5901102 0.39007014 -0.2904904 -0.13941453 -0.36030844 0.033709466 0.31396708 -0.546997 0.42739436 0.11433984 -0.5131684 -0.4923311 -0.32327667 -0.08075575 0.008964965 0.49924943 0.042809654 0.07074261 0.113468796 0.301223 0.6017392 -0.15228947 0.059046004 -0.24070235 -0.25989503 -0.2996271 0.0845747 -0.19968493 -0.58524853 0.15553512 -0.122158244 0.3908472 -0.2518847 0.84634984 -0.47815564 0.08059268 -0.37500587 -0.32997265 0.33538717 -0.50101906 0.31144738 -0.39147717 -0.90341294 0.20480677 -0.5471589 0.31212264 -0.269417 -0.39792654 0.61985564 -0.44795534 -0.6834528 -0.66609293 0.61182195 0.24025469 -0.42622522 -0.4183957 -0.024846563 0.53041875 0.17682025 0.5285227 -0.41513085 0.16042751 0.7466471 0.05978399 0.4630132 -0.19607219 0.16814786 0.08802779 0.29663977 0.45420787 0.32010528 -0.59622407 0.1298045 -0.002396802
http://purl.obolibrary.org/obo/BFO_0000002 -0.18678607 0.12975116 -0.15062903 -0.27972835 -0.30496788 0.5154418 -0.345525 0.29642475 -0.24201734 -0.0936325 -0.1947987 0.87891644 -0.36250547 0.33930838 0.47912988 -0.18961744 0.007797683 -0.9451085 -1.033498 -0.8900735 0.08546754 0.061707217 0.024759619 0.66555417 0.27374563 -0.11258868 -0.41545853 -0.23646 -0.18604587 0.40199238 -0.0154613685 -1.0403254 0.117204934 0.11741774 -0.14894852 -0.13432238 -0.4035625 -0.55360603 0.4758325 0.7802429 -0.17085339 -0.9128284 0.00736019 -0.42520332 0.25161895 0.41196218 -0.009812857 0.01736936 0.16014549 -0.40179232 0.4139257 -0.48951128 0.046069123 -0.08537483 0.23281588 -0.36452135 -0.39247817 0.11834965 -0.1110303 0.21739458 -0.12559825 0.4182119 -0.100432195 -0.24744788 -0.7014217 0.04106419 0.39394587 -0.27367514 -0.16556183 0.39474612 0.046810817 -0.0007787079 0.115155 -0.39223364 0.2517608 -0.24555738 0.10074037 -0.2613719 0.541859 0.39198858 0.5054172 -0.043070886 0.028032668 -0.1297231 -0.7573482 0.37615487 -0.14409018 0.08257321 -0.22853668 -0.052050356 -0.70728153 0.5261671 -0.010999325 -0.118596666 0.4643531 -1.0108738 0.19219513 0.65275997 -0.26301494 -0.34612805
https://www.inf.ufrgs.br/bdi/ontologies/geocoreontology#ufrgs:geocoreontology_carrier_of -0.15747145 0.20114279 0.5932714 -0.34370095 -0.4139128 0.5988794 0.052015286 0.15341288 -0.6103188 -0.5291342 -0.33871743 0.78198576 0.11238637 0.40471283 0.34527236 0.017949859 0.100865364 -0.6740989 -0.84253836 -0.3257832 -0.39744934 -0.10190244 0.35815766 -0.03274219 0.5503501 -0.50569165 0.22932091 -0.064130865 -0.09279922 0.1884655 0.45362976 -0.397152 0.14005935 0.11822147 0.12457352 -0.051770337 -0.47644335 -0.54835904 0.17400372 0.4763979 -0.03782531 0.052117735 0.0146443015 -0.749876 0.29209122 -0.38646242 0.51562715 -0.46943998 0.22354399 0.1548406 0.24837768 -0.34559098 -0.22971949 0.049576767 0.23586322 -0.3913895 -0.10467003 0.25503156 0.38805968 0.6301791 -0.033331577 0.2629391 0.010748465 0.58900255 -0.22544707 -0.40253887 0.05094419 -0.59906936 0.16103521 -0.317293 -0.1797001 -0.20760977 0.0102420775 0.1370281 0.13086696 -0.15564103 0.2800655 -0.35377407 0.10119181 0.1757345 -0.099277 -0.025896976 -0.256606 0.22017981 -0.19489221 0.373979 -0.35299316 -0.47901353 0.21565667 -0.041845996 -0.23036584 0.92326736 -0.09403999 -0.092018254 0.59999895 -0.50297165 0.39824492 -0.12243229 0.3634601 -0.008057435
