1324 100
continuant -0.18658255 0.61556137 0.40385273 -0.23086703 -0.4265038 0.124485835 0.059349686 0.06353121 -0.42289615 -0.2670844 -0.61527926 0.8502407 -0.21609013 0.90376997 0.61818653 0.38514623 -0.14329472 -0.60407925 -0.048752274 -0.28713006 -0.5331746 -0.037711326 0.14869465 0.2650085 0.7625947 -0.34072322 -0.37690055 0.15085779 0.07561188 0.25370714 -0.12322808 -0.10901348 -0.5652025 0.112326086 -0.1135326 0.060413465 0.78288203 -0.4468245 -0.5152491 0.043759864 0.19885927 0.022356234 -0.08848212 0.008708086 -0.3325864 0.1259284 -0.021209605 0.38849178 0.47842667 0.07191018 0.3761282 -0.8840864 -0.2452682 0.038752325 0.50620186 -0.5209515 -0.4425949 0.3326384 0.5443562 -0.015023835 0.8079839 0.16784862 -0.13761288 0.5575314 -0.17869763 -0.015430788 0.19320288 -0.8801718 -0.33802158 -0.5758588 0.18131244 0.20225802 -0.46518105 -0.295481 0.060335673 -0.25537974 0.11484113 -0.14088546 0.33808327 0.2630541 0.2708046 0.39873183 -0.22135235 0.2178565 -0.19311512 0.067010485 -0.5715719 0.16258468 0.027636735 0.008769938 -0.24056567 0.5791333 0.34519562 -0.0020429543 0.92747384 -0.15451922 -0.2044541 0.20903325 0.19332774 -0.31012723
independent 0.0794075 0.43123364 0.4240535 -0.46321446 -0.21270637 -0.07460178 0.8253058 0.043034967 -0.4135575 -0.3403499 -0.8935511 0.9594496 -0.23828751 0.9012394 0.25016057 0.36222392 -0.37330213 -0.72790533 -0.0006767594 -0.2724298 -0.4100855 -0.009300933 0.27722475 0.11088869 0.44501954 -0.54472107 -0.36796108 0.25088355 0.06360003 0.00088256167 -0.08532384 0.08608895 -0.3570518 0.10391729 0.12037765 -0.04583891 0.6636764 -0.51870275 -0.49905553 0.14124358 0.29232004 -0.21089971 0.025458777 -0.055517543 -0.10062836 -0.07023395 -0.52107495 0.22259626 0.63070995 -0.40833402 0.24098417 -0.87950224 0.20726027 0.003585351 0.6579033 -0.3880722 -0.42170203 0.28757128 0.5354219 0.27623683 0.6855836 0.46900818 -0.071339846 0.38066936 -0.0704991 -0.015446063 0.055045374 -0.60214645 -0.17307368 -0.42754197 -0.10799054 0.047320794 -0.16773485 0.29006514 0.24419184 -0.35210228 0.3858725 -0.24533461 0.46028763 0.021899866 0.06281583 -0.024201581 0.08374782 0.15735719 -0.49075183 0.25700954 -0.84420013 -0.05007481 -0.21364273 -0.2765571 -0.17904691 0.524633 0.42155388 -0.05442139 0.9996183 -0.33814827 0.2128632 -0.16833773 0.59046006 0.049303733
subclassof 0.16571173 0.5876021 0.31749544 0.36364123 -0.44161227 -0.05215396 0.33938608 -0.021108666 0.07658126 0.014794017 -0.7959684 -0.010532842 -0.062272333 0.53029084 0.02834379 -0.092463985 0.1837616 -0.6931266 0.18627101 -0.07772351 -0.6966273 0.020405032 0.12397872 0.08468771 0.37549284 -0.34632066 -0.026806172 -0.16319518 0.29752663 -0.055244405 -0.2883099 0.06438411 -0.3423141 -0.014163016 0.030918105 -0.20532824 0.02184736 -0.27315363 -0.57732576 0.21863593 0.5755754 -0.26391298 -0.14206032 -0.25484547 -0.48322746 -0.72461444 0.19393124 0.22651975 0.6412925 -0.36936104 0.11796395 -0.18859817 -0.63597184 -0.05542897 0.069217466 -0.13478903 -0.27075845 -0.030782185 0.38860753 -0.3371338 0.5910198 -0.0804635 -0.0010884048 0.38447854 0.3238896 -0.13197307 -0.5983106 -0.40970126 0.211819 -0.26004875 0.44641745 -0.1518054 -0.58200735 0.09566635 -0.24921897 0.26760754 0.4771111 -0.37954894 -0.34545088 -0.09677438 0.10321735 0.11445689 -0.3160199 0.49786708 -0.4542862 0.6611595 -0.37168834 -0.18653907 -0.21641 -0.014762292 0.118337154 0.3981459 0.44235042 0.20377828 -0.12822361 -0.08938391 0.46784607 -0.07087804 -0.13105634 -0.33692405
http://purl.obolibrary.org/obo/BFO_0000004 -0.11343438 0.41461134 0.1669834 -0.22391106 -0.13066503 -0.27942923 0.90116876 0.15196705 -0.10203983 -0.5221467 -0.82169616 0.7932955 -0.494211 0.6857511 0.025970252 0.5740973 -0.00017101225 -0.4276016 0.059373744 -0.26439774 -0.33899835 -0.022782072 0.44714186 0.26932812 0.73646057 -0.5497769 -0.63739425 0.0643921 -0.04248175 -0.23299482 -0.3606465 -0.42266622 -0.33054432 0.30748335 0.07340305 0.21438104 0.90586925 -0.5719906 -0.7703788 0.38092947 -0.007530548 0.28778562 0.11006345 -0.16677156 0.13254017 -0.097117096 -0.105573095 0.50898737 0.54624677 -0.5787432 0.021096025 -1.1247647 0.11368997 -0.05296495 0.630664 -0.17900558 -0.5127618 0.40322167 0.51920086 0.4413327 0.8851394 0.5511834 -0.32087836 0.56344205 -0.060699504 -0.12371957 0.2888836 -0.6371654 -0.5227158 -0.25855675 -0.19337086 0.21311727 -0.19108655 0.0044746622 0.34115866 -0.3068548 0.36729547 -0.1575872 0.2598233 -0.06819192 -0.03210302 0.09534715 0.13073164 -0.122941144 -0.888478 0.03549167 -0.48372307 0.3075156 0.06451925 -0.19046141 -0.16879389 0.36357057 0.48482764 -0.16442446 0.83727986 -0.3550394 -0.24307062 -0.27108097 0.23022652 -0.12875436
fault 0.48127127 0.11243518 0.5431441 0.5075874 -0.3670003 0.030258775 0.11506721 0.026569586 0.3468558 -0.210244 -1.0010722 -0.116212025 -0.24612984 0.43913665 -0.26896316 0.008500823 0.5062181 -0.5424353 -0.17639601 -0.048836816 -0.35432 0.09877793 0.41171443 0.017136144 0.115418896 -0.56785345 0.06435658 0.26406425 0.13457137 -0.020809451 -0.102622956 0.28253177 0.21577972 0.010365951 0.020051103 -0.29553872 0.31991038 -0.1283983 -0.09878103 -0.03622838 0.37642714 -0.20443209 -0.47287697 0.0077805286 -0.06997766 0.056870025 -0.3469079 0.35928288 0.5337937 -0.38865903 0.30715495 -0.29421034 -0.28716746 0.2181512 0.26505843 0.25372794 -0.6624708 -0.0321437 0.25339887 -0.38442063 0.61082315 0.11444611 0.6673982 -0.06739872 -0.018850602 0.06945793 -0.57173467 -0.58364946 -0.21893151 0.23156953 0.87018156 0.1879445 -0.73199403 -0.035564642 -0.08987016 0.2923348 0.41337007 -0.2805091 0.2169032 -0.28640303 0.4817582 0.24305393 -0.50186324 0.93058866 -0.36007294 0.35614476 -0.5177828 -0.23988631 -0.23627602 -0.38024282 0.04053568 1.1754801 0.45585403 0.38363126 0.019446908 -0.38679534 -0.13820778 -0.17698453 0.6590249 -0.4175031
of -0.047808934 0.35667658 0.46788725 0.1831394 -0.5016214 0.2032832 0.039606825 -0.35715923 -0.03428398 -0.052412026 -0.41439784 0.48307106 -0.2730303 0.6620783 0.2877437 -0.07006252 0.49630943 -0.6134436 -0.010128918 -0.28657758 -0.55756444 -0.22723009 0.0069327946 -0.09009258 0.33854398 -0.6268814 -0.19001092 -0.13710415 0.71510106 0.05616857 -0.08220874 0.017326826 -0.6162773 -0.19689655 -0.07469141 -0.32384562 0.14074147 -0.47406134 -0.5732268 -0.2553039 0.7154366 -0.18147445 -0.47233576 -0.3925595 -0.124297336 -0.7883634 -0.2856657 -0.14264373 0.45639816 -0.23352295 0.29801327 -0.28337908 0.0022574724 0.098409235 0.26169926 0.15432587 -0.15333709 0.27906924 0.7505809 0.23958991 0.47142693 -0.15357155 -0.12147556 -0.04253537 0.47047606 -0.16652939 -0.49517435 -0.47798797 0.23983435 -0.3310928 0.6395034 -0.097504474 -0.4687768 -0.06281431 -0.47981805 0.027977047 0.61986756 0.02682532 0.11843869 -0.33655414 0.101983935 0.01300221 -0.37999985 0.13332324 -0.43632165 0.6951383 -0.08195951 -0.13690136 0.060784616 0.020891748 0.101922534 0.44838303 0.075561106 0.3676252 0.0337376 0.17127503 0.17683464 -0.3080281 0.00568758 -0.15212147
http://www.w3.org/2000/01/rdf-schema#subClassOf 0.13467374 0.41169894 -0.07913666 0.24717979 -0.41831666 -0.2164592 0.6419724 0.03222916 0.41533688 0.104226165 -0.6058755 0.13741542 -0.29126844 0.31284493 -0.109775946 0.405836 0.31485608 -0.31786895 0.13893767 -0.21850872 -0.3651622 -0.05775475 0.1532442 0.082107015 0.28458822 -0.49600655 -0.5967365 -0.44328257 0.27722338 -0.18705292 -0.1214303 -0.4700983 -0.20941938 0.060943544 0.038265023 -0.08044658 0.14622183 -0.5765972 -0.5451635 0.44749323 0.54356354 0.10015154 -0.2081939 -0.1559285 -0.10539208 -0.67975426 0.2734092 0.24426186 0.655177 -0.49995962 0.22131462 -0.5673358 -0.46392733 0.035656504 0.14353733 0.24065302 -0.090335935 0.29717645 0.42238835 -0.078590825 0.41322753 -0.10959252 -0.36086902 0.29653084 0.3718268 -0.072643094 -0.28648075 -0.18796936 0.31806996 -0.30920258 0.44337335 0.20844308 -0.36252537 -0.06554603 -0.19560389 -0.01634326 0.5062383 -0.115837574 -0.48358 -0.054557446 -0.11631989 0.005547845 0.46106154 0.3250423 -0.95204395 0.27358338 0.057534534 0.2609848 0.09002412 0.15518165 0.1622384 0.4417957 0.6787446 -0.03377331 -0.35158786 -0.4484645 0.098392464 -0.12187262 -0.41829848 -0.2778244
ro 0.0953489 0.53452873 -0.10197305 0.16526154 -0.5120321 0.17975312 -0.13463692 0.12316333 -0.105775595 0.24382924 -0.9993411 0.55655795 0.18292472 0.74606603 0.36338827 0.27567792 0.31520778 -0.978134 -0.30240014 -0.19954818 -0.8309688 0.4590302 0.3447763 -0.34381357 0.79033715 -0.65554833 -0.15379699 -0.1265516 0.7313086 -0.49546134 0.4497666 0.10216445 0.2364171 -0.055281647 -0.11111511 -0.19689125 0.2864029 -0.6212667 -0.54500157 0.38432437 0.88827425 0.0023044138 0.08041356 -0.26659554 0.17253835 -0.34862736 -0.04375841 -0.09401185 0.4334163 -0.70427954 0.85719824 -0.20416488 -0.22178186 0.110308394 0.21385701 -0.07076258 -0.09066926 -0.16459276 0.21753818 0.13534227 0.10789106 -0.09541754 1.1228627 0.45504636 0.16885264 0.26434603 -0.3146862 -0.4132547 -0.15627335 -0.33802623 0.17261702 -0.10729375 -0.95608383 0.24078543 0.103788435 0.34421697 0.3948591 -0.3281074 -0.18098566 -0.05368846 0.5089784 0.36204726 -0.5102089 0.1822848 -0.22275975 0.29410964 -0.696472 0.07707405 -0.31056362 -0.71398866 -0.33457065 0.56191134 0.4571255 0.43566442 0.06105692 -0.5065288 0.5880683 -0.14305215 -0.12124555 -0.24902041
super 0.07427352 0.21037094 0.27814263 0.30239886 -0.40825814 -0.042927094 0.20376763 -0.1030754 0.013899609 0.37060156 -1.1890022 0.13770626 -0.13024041 0.09930996 0.0120517565 0.1827766 -0.11503 -0.6267009 -0.14318712 -0.06962665 -0.70491856 -0.24956827 0.21315683 0.0009736767 0.3219919 -0.54909253 0.15039489 -0.04901232 0.47793043 -0.3068552 -0.16287073 0.24468993 -0.1851999 -0.2671546 0.07991023 -0.3100034 0.3535304 -0.44774997 -0.39760327 0.099991016 0.5730931 -0.13377942 0.108538285 -0.3300654 -0.59646684 -0.9088297 -0.28536823 -0.19905646 0.5840047 -0.022027332 0.08109975 0.2139419 -0.4897758 -0.061216846 -0.14038566 0.50817674 -0.2953083 -0.08494615 0.7641109 -0.3045722 0.7960506 0.17855689 -0.31936857 0.07945131 0.46786627 -0.19423664 -0.6217553 -0.22604948 0.16865566 -0.64636874 0.5269833 -0.18021643 -0.9488745 -0.31154668 -0.14181808 -0.059713587 0.25662935 -0.11653553 -0.37042552 0.09724507 -0.16060254 0.46238497 -0.21114781 0.31845444 -0.5020557 0.64358175 -0.1486076 0.048589177 -0.23378903 -0.21415614 -0.0033884232 0.6762468 0.34913546 0.42594093 0.000384417 -0.010537841 0.23582311 -0.20039462 -0.09637115 -0.27450216
class 0.056860704 0.32642874 0.070599236 0.6874761 -0.51523703 0.100252286 0.38224265 -0.26636344 0.11209317 -0.08938657 -0.739694 0.032481547 -0.288641 0.40597835 0.07222109 0.07695663 0.15185301 -0.5741209 -0.18185413 -0.11044635 -0.43311712 -0.06573259 0.19509171 -0.01670278 0.2248273 0.03621062 -0.037850272 -0.19801672 0.22645834 0.03044796 -0.048822504 0.40215772 -0.5870928 0.07341497 -0.15460348 0.06979556 0.11222034 -0.64263797 -0.5498337 0.14528593 0.6116529 -0.301438 0.09758842 -0.17050126 -0.52424407 -0.92217886 0.14905915 -0.073593736 0.8953143 -0.5716631 0.008208779 -0.376913 -0.35310575 0.033012778 0.32591307 0.42484918 -0.17474921 0.13908139 0.6884402 -0.5810868 0.19078815 -0.23026371 0.24568376 0.1935121 0.78739226 -0.19211353 -0.5023296 -0.53034365 0.2845588 -0.65694195 0.5441473 0.051422622 -0.7650904 -0.1567412 -0.3584002 0.04766902 0.1456404 -0.31463295 -0.3910266 -0.15945868 0.2727371 0.42399505 -0.09908222 0.5524628 -0.32806072 0.7817042 -0.11276382 0.023701068 -0.31622386 -0.078666225 -0.22483556 0.5478248 0.4005102 0.22799404 0.07182176 -0.18512154 0.3577754 0.08663526 -0.024056781 -0.36310837
http://www.semanticweb.org/owl2vec#superClassOf 0.24781448 0.1661266 -0.035162248 0.22742204 -0.48897535 0.06887528 0.7734286 -0.05787574 0.55809593 0.21680377 -0.68115884 0.015456525 -0.36326534 0.14727847 -0.13382432 0.27461192 0.16544826 -0.38441098 -0.2880981 -0.3287517 -0.56092554 -0.19857304 0.064484306 -0.084425986 0.39145544 -0.3792468 -0.6380815 -0.24590988 0.23187248 -0.31171545 -0.08370656 -0.26020226 -0.15707977 -0.0029786632 -0.085260466 -0.19919705 0.35689035 -0.6070912 -0.6719559 0.48542485 0.31761926 0.065628655 -0.054245748 -0.077464275 -0.06751541 -0.8028556 -0.04639933 0.015549842 0.64343834 -0.47976315 0.050398067 -0.20219187 -0.5564233 0.01051912 -0.01882987 0.5735144 -0.24730091 0.14439508 0.44221276 -0.049301643 0.42326784 -0.22354354 -0.36120698 0.1766662 0.5806454 0.023244523 -0.27174774 -0.25351948 0.18559057 -0.5917454 0.4350669 -0.09072963 -0.7106714 0.033132385 -0.22279151 0.13216777 0.20822388 -0.25013438 -0.3782316 -0.09316742 0.098852605 0.12723763 0.29786316 0.19976221 -0.9144135 0.69637895 0.36708528 0.14000224 -0.2160027 0.24600138 -0.1100309 0.402364 0.42642173 -0.03659705 -0.2812245 -0.48857924 -0.0005148668 -0.23191327 -0.3774572 -0.46420875
label -0.3641625 0.015908232 -0.12553406 0.026735114 -0.19114171 0.17515616 -0.12630944 0.29440245 -0.5256691 0.2050771 -0.17725064 -0.2821537 -0.3846211 0.4170916 -0.47531477 0.6984318 0.4152344 -0.6298466 -0.17454946 0.19814087 -0.11487988 -0.36639565 0.17051978 -0.42696404 0.1515816 -0.2891277 0.5576222 -0.024359373 0.18265408 0.025557332 0.20073126 0.17718978 0.028361652 -0.100135505 0.27756295 0.048870847 0.62353194 0.0049912757 -0.271404 0.535345 0.44375995 -0.112606056 0.08105859 -0.028054807 -0.16179067 -0.314142 -0.55585694 0.014975509 1.01204 -0.08556544 -0.1391769 -0.19283989 0.21678954 0.56755596 -0.4626524 0.2624665 -0.06523739 0.34992346 0.280055 -0.32655442 0.22729647 -0.052537896 0.27227712 -0.058029667 0.38594383 0.11879629 -0.56138706 -0.11110544 0.2748844 -0.3283812 0.24116394 0.33277422 -0.5446932 -0.47793856 -0.79344326 0.12107337 0.03818472 -0.03565969 -0.11588782 -0.13499352 0.06309079 0.48162764 -0.13248283 0.40427867 -0.5019023 0.731199 -0.37278408 -0.36767125 -0.414587 -0.49284446 -0.69094723 0.44841117 0.1133205 0.10296372 -0.18530923 -0.045003988 0.45537832 -0.15848042 0.29525363 -0.14920689
geological -0.17501602 0.896698 0.48421332 0.027256843 -0.20343943 0.8471148 0.42767012 0.29570392 -0.7922973 0.58550304 -0.39768642 0.6346946 -0.21210618 0.48535812 -0.5127591 -0.07717582 -0.12224357 -0.5629862 0.022795694 -0.16958046 -0.14099458 -0.3679808 0.43935248 0.054862905 0.63747877 -0.31798068 -0.61455286 -0.08748041 -0.079294026 -0.35905108 0.37201816 0.054831814 -0.08145674 0.23904505 0.009924228 -0.45339093 0.057861082 -0.4631117 -0.51071566 -0.34822163 0.6680081 -0.2149742 -0.08977475 0.12059895 -0.23979333 0.07037776 0.17706229 0.087606885 0.30416563 0.18289927 0.2749088 -0.8569836 -0.38554588 0.4123572 0.07358941 -0.21255825 -0.6393143 0.277072 0.24418914 -0.029654222 0.32609504 0.3200145 -0.23883632 0.52190816 -0.039879728 -0.40352133 -0.6562851 -0.7688847 0.4657037 -0.37211028 0.30742955 -0.3876536 -0.7181545 0.16875722 -0.10984717 0.32792643 0.45682418 0.25724462 -0.11660433 -0.022993699 0.3533741 0.3216566 -0.044108063 1.05081 -0.22301967 0.0040023853 -0.317389 -0.28280047 -0.11015084 -0.20323177 0.017258225 0.8967942 0.22997274 -0.31072217 0.64795864 -0.33316517 -0.14598006 -0.11392078 0.21490376 -0.16265708
structure -0.023146067 0.18242514 0.3428593 0.3189796 -0.018120501 0.1058908 0.25542104 -0.39361382 -0.6018703 0.18696935 -0.7392063 -0.06842133 0.106423214 0.8010236 0.32978046 -0.004700521 0.16986172 -0.25571355 -0.1928697 -0.33442223 -0.5159916 -0.3884404 0.71159744 0.7037156 0.55341977 -1.0454655 -0.044101737 -0.14623594 -0.093127616 -0.39214033 -0.73051476 0.62698954 -0.40104085 0.6145512 0.14449857 0.96554184 0.5592746 -0.50046724 -0.14267409 0.08328559 0.16423503 -0.31221488 -0.34293228 -0.30021176 -1.1049145 0.7647456 -0.3655057 0.37456506 0.67315763 0.22169624 -0.24926531 -0.3728407 0.15956748 0.297069 -0.28917617 0.10375668 -0.8721978 0.07451622 -0.085298456 -0.45690542 0.24108595 -0.043270096 0.15038797 -0.42144045 0.38803136 -0.067837015 -0.28179252 -0.7377208 0.06371534 -0.25827885 0.521539 -0.1740734 -0.4098465 -0.47189257 0.2094622 0.4200634 0.51997983 -0.18495242 0.5531908 0.34178784 0.31508073 0.29947695 -0.40812054 1.1074823 -0.11924201 0.17180584 -0.6176843 -0.034345947 0.30858424 0.29887983 -0.10991207 0.92274445 0.8874031 0.30492336 0.2953964 0.07759517 0.38517338 0.017754624 -0.42457137 -0.13902639
iao -0.045081314 0.554541 -0.09699451 -0.25600395 -0.4537632 -0.009618382 -0.104729205 0.48062694 -0.6294934 0.15131511 -1.0736387 0.34446272 -0.45036578 0.42459115 0.019660506 0.5874846 0.19997273 -0.5949129 0.2083653 -0.31676352 -0.52172816 0.3703134 0.11222698 -0.17147723 0.270398 -0.40541518 0.038740102 0.36082655 0.04480671 0.007111274 -0.042188648 0.026917702 -0.36645007 -0.14749388 -0.4107422 -0.39609236 0.2975117 -0.23810984 -0.4953108 0.3693947 0.79607034 -0.02154219 0.3920291 -0.38352147 -0.71279234 -0.9653619 0.48344332 0.27458483 0.6317712 -0.49845892 0.22269398 -0.3788431 -0.5183012 -0.18207592 0.15051146 -0.09277101 0.12977603 0.20405684 0.06376259 -0.13001113 0.25350234 -0.042638984 -0.13775684 -0.2224953 0.30600464 -0.6007055 -0.29345143 -0.5431659 0.44853967 -0.29423806 0.6608625 0.335812 -0.9397733 -0.35837564 0.05230563 -0.09010603 0.18366018 -0.36935517 -0.532156 0.21056664 -0.05741622 -0.37321946 -0.23211868 -0.10446492 -0.026214125 0.704395 -0.37424994 -0.2525622 -0.15377435 -0.28825274 -0.64482427 0.2788171 -0.19965464 0.121476896 0.18816799 -0.35098544 0.4087548 0.20404641 -0.2106924 -0.12941612
http://www.w3.org/2000/01/rdf-schema#label 0.02369506 0.27351096 -0.35554048 0.15609802 -0.306393 -0.010138161 0.25510374 -0.0021806061 0.52058977 0.25145704 -0.5044163 -0.03832728 -0.45388785 0.3376889 -0.2786293 0.36491847 0.5050473 -0.34690258 -0.12346255 -0.088403046 -0.3306901 -0.1474667 0.05619811 -0.122381836 0.3445318 -0.50788164 -0.3291836 -0.36969817 0.35508248 -0.43296978 -0.006839183 -0.26554286 0.11249484 0.07673003 0.012534037 0.103027575 0.31753582 -0.439906 -0.47411555 0.44160932 0.39903265 0.24980946 -0.043563984 -0.29338562 -0.2047276 -0.44545743 0.0061101746 0.19688626 1.0010266 -0.4726503 -0.017319577 -0.4115883 -0.21725388 0.24058776 -0.09763581 0.5286269 -0.042837486 0.035195816 0.4585464 -0.14095204 -0.0039349413 -0.1579654 -0.13105565 0.045350756 0.5178678 0.09538622 -0.13319373 -0.04898042 0.4467954 -0.29342118 0.44377497 0.25153154 -0.5622761 -0.19375661 -0.19078574 0.08209225 0.04112969 0.032394607 -0.285039 0.07348567 0.2189865 0.23248236 0.1261391 0.13193817 -0.74910575 0.43667433 0.16733937 0.1349369 -0.10178933 -0.20598604 -0.40883175 0.4558918 0.32075962 -0.019838853 -0.4243327 -0.47615108 -0.016774323 -0.26300317 -0.13465284 -0.28512946
bfo -0.012911842 0.528133 0.5128949 -0.25504687 -0.7226041 0.4818219 0.11937604 0.34515792 -0.57709897 0.0436846 -0.9604791 -0.004327495 0.15255886 0.6360365 -0.27394068 -0.12676623 -0.20684925 -0.9459214 -0.47101736 0.266645 -0.5682226 -0.25007245 1.0156944 -0.40646526 0.5265579 0.15977292 -0.2608626 -0.16483691 0.21200429 -0.4851694 0.22275257 0.23929897 -0.64041483 -0.048780642 -0.2610431 -0.09236569 0.3788537 -0.710231 -0.527477 -0.08074662 0.7518739 -0.38738516 0.18598941 0.009699277 -0.4569617 -0.3590717 -0.3273874 0.41089314 0.8998104 0.19560741 -0.522818 -0.8063792 -0.4655141 0.09501114 0.039262433 -0.09362478 0.34713537 0.5302032 0.5939303 -0.09811518 0.24046251 0.08326456 -0.3378468 0.26222575 0.30824143 -0.045161255 -0.0675096 -0.4315647 0.070802696 -0.50266373 -0.1599 0.17666394 -0.5308282 0.32456163 0.3830019 0.12907773 -0.17642157 -0.44474337 0.14022876 -0.11911759 0.5281072 -0.44695443 -0.784437 0.60145724 -0.5731524 0.19000801 -0.3590786 -0.15878639 0.12096824 -0.40962857 0.121170364 1.038634 0.51786536 -0.2534423 0.09945328 0.049944855 0.45700905 -0.42399082 0.05426672 0.49531975
object -0.45587143 0.7973915 0.4057005 -0.36760476 -0.034528144 0.7570882 0.6056898 0.68464696 -0.8642505 -0.09637447 -0.38335714 0.18430471 -0.2722104 0.92369074 -0.039704915 -0.1479722 -0.2320328 -0.45883483 0.1304281 0.051066633 -0.24616922 -0.33395463 0.49299935 -0.3034238 0.7256222 -0.3372806 0.12160254 -0.36943263 -0.108243465 -0.6580396 0.4275039 0.46893921 -0.03219839 0.4371736 -0.15713115 -0.030533137 0.41015488 -0.6216099 -0.76593894 -0.665281 0.48369822 -0.2651335 0.13497312 0.004693285 -0.6083819 0.2659011 -0.0051492774 0.34770384 0.7376798 0.07954247 0.73503673 -0.44096106 -0.055665344 0.1125359 0.070464484 0.10211036 -0.2673746 0.38654155 -0.25757635 0.06695264 0.43303737 -0.051727347 -0.30473882 0.6542423 -0.14870656 -0.120691374 -0.23852009 -1.0322225 -0.46389815 -0.21223412 -0.15398948 -0.0044193044 -0.7769886 0.097594045 0.2796316 0.1362939 -0.21527101 -0.35470536 0.06393182 -0.46805954 -0.21817486 0.050157387 0.23355283 0.87399983 0.12115567 -0.05091777 -0.7152409 -0.23324595 0.5336206 0.2529354 0.6405064 0.9347274 0.1200205 -0.23395324 0.43696856 -0.09012851 0.03296738 -0.27919224 0.35518914 0.041654285
entity -0.31973058 0.18054073 -0.04151778 -0.5227906 -0.33436966 0.2780257 -0.40250945 0.1797699 -0.8872179 0.2645593 -0.50705177 0.5726366 -0.2853502 0.958001 0.25911412 -0.023641594 -0.13718545 -0.4497182 -0.18297544 -0.5224723 0.0068754014 0.1853126 -0.10396352 0.16682959 0.9364202 -0.31701303 -0.26296008 0.9190837 0.18065156 0.04670091 0.3959185 0.38051036 -0.39769122 -0.45324832 0.009119267 -0.091243975 0.7706906 -0.6062567 -0.5674415 -0.45558676 -0.039245963 -0.34136418 0.39677098 -0.18451448 0.0563405 -0.552705 0.043765962 0.160836 0.5239301 -0.36665466 0.09873138 -0.98017144 -0.12611406 -0.020131849 -0.057862762 0.409147 -0.052865125 0.009701447 -0.019427432 0.30011123 0.27164656 0.006969545 -0.1831525 0.29238233 0.15428293 -0.15447754 -0.18983276 -0.6436241 -0.6227927 -0.5111342 -0.62332344 0.02476635 -0.019423328 -0.5503294 -0.042560715 -0.74112785 -0.63128036 0.26670346 -0.09044655 -0.14190437 -0.45476535 -0.16167127 -0.5844856 0.5303027 0.24157585 0.11379303 0.05660454 -0.027815474 0.15916398 -0.1483202 -0.14726564 0.1207242 0.34729937 0.121373154 0.42394045 0.07454343 0.35748088 0.628569 0.47999564 -0.7621153
region 0.09117077 0.37915757 0.55338603 -0.4593893 -0.3531188 -0.09382296 0.0815784 -0.24081542 -0.7152743 -0.2734314 -0.9933822 0.44002953 -1.0371304 1.3263206 -0.077865474 -0.36858302 -0.23863555 -0.0055500367 -0.3197477 -0.41148624 0.028423693 0.16594632 0.21690045 0.19586863 0.395667 -0.6323658 -0.6630122 0.039694626 0.017503178 0.2232662 -0.46603197 0.09921554 0.039308663 0.057680476 -0.1642713 -0.0136221275 0.49729633 -0.211725 -0.24458672 -0.46737945 0.30294594 -0.076965205 0.26700073 -0.4165663 -0.35411024 -0.24951538 -0.5822253 0.6972021 -0.25390998 -0.105646655 0.15919386 -0.46168628 -0.16585386 -0.34568173 0.5147363 -0.26765203 0.22112593 0.5069389 0.5483664 -0.52289 0.5223228 1.0738316 0.05451587 0.09688917 0.32497716 0.14672281 -0.22291596 -0.7274945 0.31312788 -0.6211089 -0.05559366 0.76184887 0.088347144 -0.03252211 -0.16328785 -0.46659198 0.158594 -0.1421142 -0.05414489 0.28222418 0.23275496 -0.04243839 -0.70584756 0.29908326 0.15328556 0.43754914 0.49097392 -0.45573097 -0.40151078 -0.23976769 -0.24089217 0.3898862 -0.7791606 0.3407007 0.83521235 -0.09828845 0.20913567 0.30815038 0.27925095 -0.011401948
zone 0.45138484 0.15851666 0.5303749 0.20430197 0.0010585007 -0.1301884 0.43596303 0.24739082 -0.1769843 0.14824384 -0.7287867 0.2104767 -0.28908676 0.9132721 0.5348926 -0.30470288 0.13924012 -0.3209888 0.0055999267 -0.34708366 -0.18416196 0.41232038 0.6609223 -0.2775407 0.032377318 -0.5098843 0.005498629 0.86001396 0.42002848 -0.19597211 0.0877164 0.115936615 -0.43309394 0.023470487 0.51124865 0.12242242 0.35910526 -0.98859155 -0.026850166 -0.007757484 0.13890295 -0.3438988 0.346402 -0.17146504 -0.41908097 -0.1339516 -0.23570493 0.40015462 1.0209947 0.17348757 0.006526963 -0.741269 0.23799157 0.29711163 0.19472894 0.061956994 0.05817991 0.117597364 -0.39424282 -0.22216238 0.54696625 0.22927761 0.15084432 0.51493937 0.28573132 0.111745775 0.12670599 -0.008676115 -0.5839883 -0.24615015 0.119748384 -0.0052327383 -0.73088115 -0.13089256 0.050014902 0.016303146 -0.0473521 0.1834662 0.0020877002 -0.6297078 0.52312726 -0.48235336 -1.0256124 0.61500496 -0.62588906 0.3158825 -0.7367811 -0.33592004 0.17865303 -0.61234456 0.6149758 0.9152196 0.71027714 -0.5781038 0.30997396 -0.04343662 0.50155926 0.21786703 0.5269401 -0.5007523
) 0.15041973 0.053967774 -0.8814508 -0.90537375 0.41186374 0.31566373 0.62745124 -0.21275479 -0.87124985 -0.39835688 -0.69251955 0.6514764 0.41784424 0.10252865 -0.084740035 -0.072632946 0.13883333 -0.059988562 -0.27046302 -0.55227244 0.34510258 -0.157151 -0.06079668 -0.2028473 0.96437836 -0.5073119 -0.36322516 0.66006464 -0.1936851 0.21195789 0.17358443 -0.05700282 0.14797351 -0.60128146 0.25838414 0.78691614 0.24186341 -0.89985305 -0.5226043 0.22466056 0.530221 0.71603835 0.19895892 -0.2809402 -0.34709787 0.42441368 -0.7231272 -0.04632983 0.49009344 0.23689061 0.066139966 -0.3556464 0.272101 0.36882964 0.13297985 0.07610228 0.48267207 0.5740068 0.034393493 0.11610627 0.40053284 0.8561113 -0.62293345 0.77777994 0.276822 -0.16331583 -0.034329884 -0.29382244 -0.053777438 0.36515835 -0.38000003 0.09892311 0.18789901 -0.0652534 -0.67864716 0.2745061 0.018874891 -0.7620452 0.1434964 0.80490714 0.5762748 -0.26541907 -0.04036995 0.7671043 0.22748953 0.59080726 -0.026377719 0.07489437 0.23195285 -0.59775025 -0.43842888 0.040399116 -0.23445797 0.147527 0.6961868 0.36477116 -0.3634691 0.2788426 -0.052076045 0.25900444
( 0.18567385 0.27125937 -0.3260889 -0.59691465 0.2639799 0.59271544 0.11656308 -0.054093197 -0.6403072 -0.7541273 -0.64943117 0.75972134 0.23223555 0.019508028 0.060015824 -0.2760699 -0.31737328 -0.06788183 -0.6264686 -0.6977957 0.046385337 -0.26782566 0.0041852873 -0.05344193 0.5333074 -0.42633834 0.05418343 0.64981776 0.11892818 0.470741 0.08460088 0.05601992 0.5032539 -0.4680119 0.22344986 0.2920688 0.22205842 -0.7369945 -0.29141057 0.311121 0.43608913 0.29343835 0.009766802 -0.17768517 -0.47859254 0.14278305 -0.6321025 -0.024378242 0.43384534 -0.012905662 -0.15365769 -0.28596783 -0.111305825 0.13055563 0.1356126 0.2771699 0.4441318 0.53033507 0.30600414 0.24651405 0.10871412 0.98944116 -0.47807217 0.9149065 0.22741368 -0.058230598 0.22940369 -0.38547564 -0.03455388 0.6136239 -0.06437606 -0.014300609 -0.5383371 -0.23471375 -0.5095971 0.19019464 0.0035441134 -0.8363396 0.26648018 0.739073 0.43769574 -0.3659546 -0.20515347 0.76349103 0.13903366 0.66336054 0.31531468 0.0039865132 0.4197597 -0.7762551 -0.2668564 0.17254335 -0.27620125 0.52516955 0.54222345 0.081318535 -0.25635222 0.2005258 -0.0594183 0.073795974
surface -0.2842678 0.09167488 0.6614085 0.06945482 -0.19609861 -0.29778573 0.24025635 -0.11064168 -0.36504963 -0.08107391 -0.67950046 0.20047568 -0.42573908 0.41389444 -0.048380014 -0.6662577 -0.29877594 -0.5794794 -0.45004526 -0.15600473 -0.7542043 0.029363267 -0.01639713 0.2404295 0.5986109 -0.57537204 -0.66414183 0.31981355 -0.4372283 -0.3890241 -0.19580129 0.42185766 -0.12802961 0.32342112 -0.5119561 -0.24958557 0.5923709 -0.073596574 -0.900304 -0.29915178 0.29400766 -0.20049046 0.2594495 0.27322942 -0.09711976 -0.71768457 -0.37048295 0.6202131 0.14430812 -0.0091360565 0.67818916 -0.7820703 0.3648093 -0.08748461 0.14027937 -0.36890566 -0.57012403 -0.14825329 0.34332663 -0.34515697 0.37576434 0.50845283 1.1274236 0.1276926 0.071781814 -0.5156316 -0.10392105 -0.60893804 -0.75360036 -0.2328727 -0.017086854 0.60691315 -0.7768164 -0.552854 -0.10791841 0.46679756 0.48459268 -0.28010416 0.6590594 0.28198498 -0.18384504 -0.17269501 0.13184115 0.18542145 -0.21736676 0.824897 0.02362762 0.08931995 0.74083525 -0.13734359 0.035508536 0.33908635 0.2825245 0.46174395 0.28589 -0.56923103 0.5145178 -0.17022711 0.074271925 -0.09897949
quality -0.68408304 0.18437949 -0.028882097 -0.3673224 -0.57149655 0.4705078 0.08997183 0.16679071 -0.89356995 -0.15378362 -1.0153067 -0.10362859 0.1943963 0.93770975 -0.31647894 -0.24511558 -0.00036513445 -0.78911495 -0.37008268 -0.6008152 -0.26528543 -0.02712537 0.52518624 0.11512665 0.5486524 -0.5849691 -0.20808995 0.0938866 0.28677455 -0.44556025 -0.15545167 0.022759827 0.1859739 -0.3503754 -0.29731405 -0.09467034 0.26370925 -0.5537758 0.03005455 -0.46657214 0.8379642 -0.78608495 -0.22422388 -0.0002120357 -0.06809762 0.35962838 0.40106684 -0.23192726 -0.08770567 -0.50646424 0.5438918 0.09336915 0.10057182 0.14063327 0.31448108 0.064029224 0.06319279 0.21376541 0.35155213 -0.69214165 0.37990695 -0.08377137 -0.12102371 -0.31646293 -0.11541975 -0.21478428 -0.57244897 -0.6133811 -0.34260568 -0.028722735 -0.033552937 -0.16921563 -0.3345015 -0.8141051 -0.6357848 -0.26913312 -0.10693774 -0.5368396 -0.7472073 -0.15454876 -0.3480769 0.6274545 0.21666647 0.12664704 0.32646465 0.58420306 -0.1643344 -0.2601506 -0.19462912 -0.39714414 0.34951305 0.050084855 0.5042637 0.60103494 -0.31035647 -0.49685332 0.22310849 0.27082524 -0.7413394 0.08964081
comment 0.029580493 0.27136585 0.04713239 0.087632485 -0.3941109 -0.22331701 -0.18581495 -0.17220125 0.11244952 0.15671025 -0.7690202 0.17384505 -0.123761185 0.7265086 -0.28502572 0.48655936 0.04324771 -0.67043006 0.34661153 0.04023108 -0.28817073 -0.16758268 0.5398081 -0.19913028 0.34237954 -0.36385214 0.15880574 0.09395589 0.59803426 -0.26785442 0.11132628 0.26655295 -0.39570567 -0.15163451 0.2622722 -0.1758193 0.1774059 -0.6372846 -0.29902655 0.16160075 0.512695 0.113353364 -0.11095622 -0.015436225 -0.0869274 -0.24150725 -0.23427123 0.12615466 0.54978013 -0.21406128 0.055182863 -0.2571059 -0.08035572 0.6182415 0.27706757 0.17548846 -0.10404357 0.14950073 0.31886792 -0.60190403 0.108932264 -0.17625616 0.19624299 -0.10093576 0.44313157 -0.17776765 -0.50450367 -0.44623768 0.4420166 0.0800478 0.378628 0.14395924 -0.77562034 -0.19880998 -0.24816278 0.31960756 0.2226136 -0.16177009 0.044847034 -0.11872805 0.27900228 0.43858513 -0.28708816 0.375752 -0.4883722 0.58335245 -0.37598056 0.3888714 -0.15392382 -0.2605674 -0.33209717 0.4692906 0.4345347 0.043791305 -0.22406559 0.083657525 0.06164977 -0.29871035 0.023979142 -0.1604619
material 0.11818024 0.24157818 0.29224122 -0.009825507 0.19308394 0.65994877 0.45459485 0.24783356 -1.1190828 0.24666406 -0.30535254 0.5781611 -0.74843633 0.68908775 -0.039996978 -0.1406063 -0.0076584187 -0.6552212 0.046843346 -0.24613385 0.24655062 0.13637751 0.03318571 -0.035335492 1.1728932 -0.27506766 0.15147442 -0.12845029 0.36642042 -0.291469 0.4986371 0.18307869 0.15006742 -0.39025897 -0.10899305 0.031777527 0.49935263 -0.52681834 -0.6821559 -0.47737306 0.37293595 -0.1443537 -0.051234286 -0.30801877 -0.17546651 -0.41001058 -0.0075969137 0.22237276 0.48726657 -0.35084808 0.53085065 -0.23189035 0.66658187 -0.10462043 0.49112034 0.4770329 -0.18072857 0.13411425 -0.36488545 -0.23223124 0.29100162 0.4156633 -0.07548283 0.06838996 -0.03659642 0.12722737 -0.40620458 -0.5371932 -0.7864323 -0.30436334 -0.36534613 0.2928913 0.023862578 -0.56836796 -0.050414525 -0.44620264 -0.1467658 0.1778266 -0.48452753 -0.40633857 -0.4344828 -0.44895354 -0.47920743 0.8076437 0.40270105 0.24614523 -0.32455614 -0.26218563 0.5658684 -0.31816533 0.5777123 0.60374653 0.27767915 -0.25454852 0.6963625 -0.32107458 0.32203656 0.33186188 -0.028961958 -0.5724769
core 0.32613167 0.74440956 0.5396562 0.138448 -0.20557983 -0.08007935 0.6893502 -0.010988877 -0.4066799 -0.22021142 -1.1895014 -0.09568695 0.19221272 0.9198059 -0.060922235 0.10546673 -0.14033419 -0.52934474 0.045757107 -0.48945308 -0.019616906 0.3451801 0.40131614 -0.2323336 0.8882725 -0.4499986 -0.7002396 -0.02811432 0.3157838 -0.5038521 0.19152564 0.32332757 0.31471455 -0.2336435 -0.19957787 -0.28774846 0.21409051 -0.77809364 -0.5228084 -0.35530126 0.6276023 -0.36132053 -0.14622767 0.1267783 0.1424281 -0.27727887 -0.19444281 0.3834596 0.3073837 0.9225439 0.21957831 -0.88031125 0.5332652 0.13133726 0.54532826 0.20156854 0.087066844 0.5554619 0.08676299 -0.5363 -0.09947523 0.4856705 0.3134552 -0.066721484 0.08838768 0.16233289 -0.12103657 -0.31148112 -0.10763364 0.33712783 0.07730381 -0.050331205 -0.85229707 0.35205796 0.06714107 0.38369077 0.2194661 -0.04285242 0.45961544 -0.27375138 -0.08649839 0.059461866 -0.41151893 0.5558998 -0.12301274 -0.05640435 -0.4234399 -0.12809876 0.09856298 -0.18736999 0.6112762 0.5482015 0.2645894 -0.08187612 0.016063383 0.009581098 0.5006987 -0.80204666 0.44270235 0.2255508
spatial 0.26892394 0.39747828 0.65210867 -0.65222526 -0.62323344 0.035002504 0.06491976 -0.30824327 -0.43797708 -0.7874178 -0.967693 0.52383125 -0.5574975 1.36832 0.2945865 -0.44188106 -0.014683151 0.13263167 -0.70281154 -0.39807996 -0.07652508 0.049126644 -0.0149016185 0.2545722 0.2967673 -0.5428007 -0.61421955 0.4934907 0.1609587 -0.3658472 -0.28160498 0.2271029 0.032217108 -0.13143344 -0.36569655 0.20253685 0.7141694 0.04898681 -0.5018364 0.26343712 0.44334385 0.34065682 0.28991786 -0.18987048 -0.20402914 -0.12944427 -0.34342182 0.32969195 0.14477259 -0.23372148 0.07083378 -0.41843522 0.037679482 -0.39648226 0.529705 -0.40293977 0.02696672 0.37300423 0.75412965 -0.43470553 0.6075428 0.87676686 0.45093784 -0.051852927 -0.26954287 -4.6705693e-05 -0.1316986 -0.76846486 -0.07999146 -0.70836425 -0.14135249 0.7984948 0.12144472 -0.45049962 -0.32093513 -0.3188267 0.3165844 0.08825242 0.40486166 0.20101278 -0.12287583 -0.28728193 -0.18372715 0.0868904 0.30716264 0.23549722 0.014854253 -0.4985318 -0.2656507 -0.112578444 -0.46008486 0.5652593 -0.16930443 0.8162092 0.7322798 -0.1747001 0.05561724 0.112895854 0.1887733 -0.4008303
rock 0.03099388 0.62873894 0.25656146 0.73570436 -0.30090097 0.85055137 0.59260696 0.6532715 -0.71822673 0.0155569175 -0.94463617 -0.02193501 -0.018410552 0.23989762 0.19386724 -0.020684425 0.10559894 -0.27029377 0.17368487 -0.05340277 -0.5785334 0.15957136 0.16090038 -0.16723144 0.6266239 -0.5743144 0.002378664 -0.12720758 0.11729575 -0.45794123 0.070514254 -0.14385815 -0.7739611 -0.44934547 0.39397305 -0.08944461 0.7690505 -0.6270137 0.06723513 0.17852452 0.6859224 0.25398105 0.39439252 -0.30865628 -0.086786814 -0.5809394 -0.20061183 0.40757802 1.1548742 0.42045256 0.13715164 -0.77234954 0.48607004 0.20802872 -0.07695354 0.6556181 -0.6077977 -0.06514663 0.28053564 -0.07369103 0.56587 -0.24940887 0.99073195 -0.28189024 0.44737723 0.7714578 0.04513615 -0.7688163 -0.03886077 -0.054227617 0.49966663 -0.8070517 -1.0503002 0.18692309 -0.6671513 0.22007377 0.027190326 0.23424253 0.13072686 -0.16807131 0.46253464 -0.08747102 -0.011500349 0.55751795 -0.103264794 0.54530084 -0.51703936 -0.13862076 0.3554511 -0.48527312 0.2871198 0.6339455 0.05882368 0.23250926 0.43394583 -0.15221407 -0.51728565 -0.655394 -0.20195736 -0.16517739
boundary -0.52020526 0.6214043 0.79029167 -0.26922214 -0.2545333 0.14640552 0.6047347 0.43210015 -0.5833602 0.11596858 -0.39080134 0.805181 -0.94578075 0.6154885 0.41200984 -0.37399176 -0.3928507 -0.49457225 -0.9420818 -0.20242187 -0.15343487 -0.3275925 0.28292271 -0.4719745 0.21085912 -0.15631472 -0.46299744 0.43963626 0.23189701 0.4924715 0.07373423 -0.2836431 -0.027393192 -0.20529696 -0.32318622 0.44655022 0.6214398 -0.83556193 -0.8131969 -0.45627728 0.38148552 -0.5751589 0.24397653 -0.22479372 -0.66626745 0.07617864 -0.15051924 0.6254973 0.19648853 -0.20616804 0.6491924 -0.40145066 -0.057730127 -0.22033979 0.12882537 0.1743309 0.075769715 0.1304097 0.083135754 -0.3303193 0.22431998 -0.004575068 -0.350089 -0.060873605 0.16173363 -0.09058482 0.22219126 -0.37198156 -0.37342885 -0.5297639 0.023287572 0.22041412 -0.4866917 -0.35028994 -0.12441362 -0.38163373 -0.11927128 0.2582087 0.056237083 0.24917142 -0.07173238 0.20161736 -0.67975587 0.46059775 -0.20874667 -0.07146901 -0.55556756 -0.5862672 -0.28727695 -0.29986566 -0.10837359 1.1131014 -0.078068964 0.2794612 0.7259682 -0.48675168 0.06452791 0.08499702 -0.027473588 -0.6037328
http://www.w3.org/2000/01/rdf-schema#comment 0.09571745 0.3332885 -0.55403847 -0.0018997383 -0.31887102 -0.21057868 0.07868237 -0.03323633 0.57401013 0.2851077 -0.69184077 0.07582095 -0.21784095 0.39400688 -0.58401567 0.63207 0.19359018 -0.6310067 0.2636821 -0.11922575 -0.016507104 -0.07959376 0.46022636 -0.1526646 0.40099353 -0.46847516 -0.27893674 -0.030367479 0.360165 -0.59450084 0.006736205 -0.08148148 -0.06174798 -0.08912884 0.18268843 -0.3126615 0.16267593 -0.5292095 -0.3320048 0.3862707 0.4511536 0.40573302 -0.18624426 -0.024996748 0.07402728 -0.2937191 -0.23169032 0.32881618 0.70900047 -0.31629825 0.15326014 -0.42049822 -0.11669202 0.6307128 -0.039262798 0.32952192 -0.017002549 0.09897819 0.4050353 -0.3118923 0.10461423 -0.15631394 -0.12951568 0.08007968 0.537995 -0.017328948 -0.21003874 -0.24751744 0.4538332 -0.0042734616 0.35543978 0.19171047 -0.5314159 0.11090724 -0.05327148 0.27973336 0.17799076 -0.21000108 -0.09999112 -0.29692534 0.32579687 0.25947198 0.06725493 0.33287182 -0.7711171 0.60011923 0.07148918 0.45063597 -0.015200722 -0.08028733 -0.32401183 0.32498223 0.3986442 -0.259528 -0.3743758 -0.33003616 -0.2635672 -0.38593775 -0.03236516 -0.12145579
0000602 -0.016633682 0.94189763 0.06647341 -0.27403238 -0.7335214 0.32477993 0.35946888 0.20230599 -0.2409888 -0.045193117 -0.43383437 0.717222 -0.36406836 0.40956387 0.067180395 0.29573983 -0.09732821 -0.77468 0.20096482 -0.5742205 -0.69457316 0.036221463 0.45156726 -0.13348956 0.40290505 -0.44598517 -0.24348128 -0.25304148 0.47303236 0.044966478 -0.072407395 0.095957704 -0.0888387 -0.37866443 -0.009240439 -0.26595137 0.5674513 0.051662754 -0.279728 0.1045191 0.0021733 -0.18646276 0.3939477 -0.4041324 -0.3728228 -0.44738021 -0.117859595 -0.035200946 0.41008413 -0.21597782 -0.091712914 0.053884886 -0.48255756 -0.007454531 0.2911764 0.21836902 0.0060614455 -0.038211398 0.056966312 -0.23860812 -0.0048012445 -0.014544649 0.04150905 0.6599774 0.15987687 -0.2611348 -0.29643947 -0.38983196 0.36071163 -0.36664182 0.48281422 0.22595944 -0.45421165 -0.43411088 -0.51186883 0.04930379 -0.18301882 -0.27279702 -0.053826943 0.05386853 -0.13132268 0.38207972 -0.056656644 0.1316688 -0.291062 0.7876802 -0.13803093 -0.10828424 -0.12476568 -0.28092316 -0.6772685 0.32875156 0.111625865 0.11991291 0.0885116 -0.402652 0.3230145 0.33481514 0.03455339 -0.058132313
dependent 0.13863099 0.016907824 -0.032499094 -0.64952666 -0.76611286 -0.21720742 0.33116612 -0.46602115 -1.067085 0.26766273 -0.7162223 0.44774136 0.30267513 0.514106 0.3391284 0.3178326 0.17730732 -0.264809 -0.40634793 -0.9937955 -0.63551927 -0.056987733 0.8888185 -0.20721301 0.47877783 -0.49898693 -0.41828835 0.37008953 0.19889647 0.07965854 0.0277355 0.5737801 -0.5302893 0.22217178 -0.6514026 0.18322794 0.1160489 -0.7981783 -0.10275939 0.2594602 0.21697222 -0.24329562 -0.3990549 -0.33327568 -0.5519926 0.13242167 -0.08762498 -0.35107148 -0.12972793 0.10503883 -0.060748927 -0.17042856 0.008411421 0.54055834 0.4355189 -0.5215763 -0.544528 0.47891387 -0.31939143 0.16403937 0.82607806 0.1942798 0.08017528 0.5998276 -0.15214749 0.06479956 -0.05975863 -1.0589601 0.073485695 -0.6062677 0.38995373 -0.15682086 -0.30163717 -0.31422347 -0.05236821 -0.6329488 0.405045 0.10514453 0.49419203 -0.00072937575 0.52700996 0.18252341 0.34579143 0.82975787 0.3442433 0.51051134 -0.49198276 0.26502192 -0.009454256 0.041244328 -0.37533817 0.7029476 0.72520643 0.21023966 0.4589367 0.050957795 0.38462105 0.3754047 -0.488134 0.06585491
role 0.5523501 0.37148935 -0.13182591 -0.078373395 -0.7756291 0.10567735 -0.17853668 0.14060172 -0.7234109 -0.74204576 -1.1602092 0.6985137 0.17638996 0.8275474 0.4264215 -0.06411051 0.68768543 -0.23078635 -0.12762503 -0.7916512 -0.41255158 0.21559078 1.2407892 -0.6717259 0.32444873 -0.2984223 0.016437715 0.33757067 0.36762062 -0.033446204 -0.22754161 0.1314019 0.053812675 -0.70992273 -0.31187704 0.14336611 0.16643365 -0.69920796 0.18780912 0.4535209 0.6718078 -0.2856006 0.1750917 -0.7956762 -0.107040785 -0.03663366 -0.8398989 0.52492243 0.6615309 0.06830582 -0.16717306 -0.09009722 0.233845 0.017208878 0.2798187 0.19347137 0.2469759 -0.08359352 0.09929724 -0.017943082 0.5259222 -0.033544965 0.41153163 -0.26137215 0.0060508656 0.40084317 -0.044068124 -0.44697934 -0.26016915 -0.1309334 -0.029230757 0.2031476 0.4659846 -0.21675564 -0.06580228 -0.86976177 0.15627974 0.10882974 0.07112025 -0.3429679 0.5625983 -0.22982855 -0.83731425 0.46165678 -0.07523566 0.19395237 -0.76952887 0.12043884 0.38099486 -0.2910834 -0.0020593186 0.58564174 0.027273782 -0.115744606 0.7698511 0.17329569 -0.07380093 0.19354701 -0.0719455 -0.34924915
https://www.inf.ufrgs.br/bdi/ontologies/geocoreontology#UFRGS:GeoCoreOntology_geological_object -0.32079527 0.8277815 -0.11375689 -0.31100935 -0.054149847 0.7400821 0.9779937 0.53688544 -0.55246663 0.1902549 -0.43941185 0.3181038 -0.611442 0.6552683 -0.8285464 0.103579596 -0.2228524 -0.47356832 0.22114891 -0.050243527 0.18003914 -0.53503823 0.745122 -0.28167918 0.8821488 -0.40624666 -0.9683272 -0.4479768 0.05276156 -1.2301317 0.3650484 -0.26677656 0.10806661 0.43489575 -0.33059728 -0.23998883 0.15252663 -0.75726056 -0.88620657 -0.1401615 0.56834453 0.06889724 -0.049182568 0.12954849 -0.25318867 0.39328605 0.07976972 0.42715728 0.5626859 0.1277397 0.78539455 -0.8509939 0.31184843 0.30733716 -0.14880434 0.26062575 -0.26634324 0.22455922 0.15706909 0.04727042 0.019848961 0.099017076 -0.7868318 0.6780106 -0.10402853 -0.41113007 -0.2844939 -0.7151761 -0.4116684 -0.18048842 -0.16371009 -0.072414674 -0.33238292 -0.049284596 0.47848496 0.14210925 -0.013731793 0.18186145 0.106934376 -0.6467164 0.17175981 0.13261485 0.057004116 0.8411493 -0.347427 -0.3568334 -0.09472358 0.04585915 0.43076685 -0.006390439 0.42905438 0.5781697 0.37846974 -0.54356 0.22175251 -0.5628587 -0.73112804 -0.69771075 0.24266797 -0.2549527
process -0.20078751 0.35151625 -0.10740497 -0.31623185 0.262099 0.5900607 0.75012773 1.0003139 -0.6941542 0.19862129 -0.88623655 0.1999035 -0.08930461 0.47153124 0.10208861 -0.17734559 -0.17680001 -0.27260163 -0.32115617 -0.7790394 0.28481603 -0.3285709 0.46827093 0.43876308 0.91455996 0.1832736 -0.027305068 0.3740698 0.40062463 -0.11044889 0.37915224 0.1552352 -0.6666993 0.2629765 0.5218872 0.0005458578 0.3344485 -0.7551281 -0.31903547 -0.33799067 0.5783895 -0.06763276 -0.17736553 -0.49012908 -0.48872364 -0.05839124 0.091423735 -0.1409969 0.42721704 0.5929524 -0.70458597 -0.795422 -0.2725904 -0.088466495 0.015879046 0.34993833 -0.040983252 0.7514337 -0.19840874 0.09432742 0.37725645 0.63531697 0.10994004 0.70211965 0.23081893 -0.18685342 -0.100675374 -1.0235776 0.49838808 -0.51897967 -0.28905648 -0.2541365 -0.17954862 -0.4441321 -0.3388216 -0.87831014 -0.2129952 0.3034072 -0.21024595 0.40290558 0.14410242 -0.19986427 -0.5191259 1.0198128 0.08053166 0.08434636 -0.33331612 -0.03449311 0.23788379 -0.33124283 0.48085213 0.76159436 -0.39646742 -0.3132155 0.19867723 -0.13006584 0.14454544 0.08757908 0.36493948 0.16376552
wall -0.19658655 -0.06378304 0.29750684 0.15326476 -0.24363613 -0.032982484 -0.17120087 -0.13117 -0.24614787 -0.31154034 -0.9193633 0.55468696 0.46672055 0.7753722 0.024976121 -0.09793874 -0.09473237 -0.88347656 -0.095826045 -0.24672753 -0.39501846 0.4135661 1.2361394 -0.15455376 0.26341817 -0.4790023 -0.7006101 0.535831 -0.36748704 0.03700111 -0.51967543 0.4165886 -0.09307811 -0.15556414 -0.72749984 -0.37729478 0.33194122 -0.50150955 0.3288906 -0.025613405 0.3466179 -0.63448864 0.135003 0.27243733 -0.08914149 -0.11416051 -0.6148078 0.3922779 1.0383223 0.40773037 -0.01077798 -0.8067609 0.7517029 0.6517603 0.10800449 -0.16901796 0.4260536 -0.03156856 -0.045716424 -0.36517918 0.51671726 0.16253906 0.059627116 0.1621646 0.09411615 -0.18733138 0.4102316 -0.28089052 -0.3675447 -0.044757675 0.3160263 -0.22067216 -0.21342538 -0.32412747 -0.04859435 -0.06376181 0.37976158 -0.28489435 0.80828285 -0.53462934 0.19608888 -0.4481459 -0.5710425 0.18241994 -0.09859437 0.6020416 -0.77219623 -0.2914198 0.30172795 -0.52082795 0.025606101 0.2578923 0.31327677 0.23334818 0.36612526 -0.17502192 0.35269758 -0.76211697 -0.28731415 -0.25255573
volume 0.42698893 0.43188885 0.66104156 -0.000622286 -0.68738395 0.42204383 0.3760282 -0.23065464 -0.671296 -0.098359935 -0.5854596 0.20156822 0.13028766 0.70599043 0.36015984 -0.21894789 0.056963462 -0.47358072 -0.17169726 -0.03512921 -0.42669874 -0.5152623 0.7480063 -0.24856411 0.87822 -0.74046427 -0.39652804 -0.12366749 0.18293805 -0.4362711 0.19398493 -0.02676932 0.005223803 0.0012512236 -0.88174975 0.31059384 0.5011672 -0.59038216 -0.12326655 0.15798931 0.31393152 -0.6568263 0.14308196 -0.19675109 -0.21344714 -0.05972756 -0.27546844 0.5074092 1.0695913 0.31518045 0.8071574 -1.1244603 0.35919055 0.20737801 -0.056134112 0.04348789 -0.5225856 -0.039952643 -0.4937016 -0.39591214 0.1723404 0.08445725 -0.09603125 -0.20512918 0.09328906 0.18179783 0.32864535 -0.3004923 -0.7834066 0.020195113 0.5336056 -0.07349155 -0.5525034 0.058978852 0.18681528 0.00081023236 -0.073785394 0.03727624 0.34486023 -0.35358736 0.57731014 -0.24120511 -0.34462112 0.5717145 -0.2594062 0.5194789 -0.6870679 -0.69403654 0.3717169 0.3486057 0.15732469 0.8643824 0.30082852 0.19516048 0.5617637 0.14340019 -0.1463384 -0.02917488 0.43341538 0.10124232
fiat -0.21900159 0.7094798 0.45351708 -0.44573876 -0.22123604 0.20595199 0.69497156 0.33043382 -0.78638256 0.5477658 -0.62450236 0.64975965 -0.7100686 0.3959751 0.42468688 -0.5812758 -0.7374647 0.07796491 -0.8961044 -0.42545575 0.07042028 -0.115351155 0.288375 -0.09179621 0.23316799 -0.7575404 -0.31250197 -0.4506754 0.2056032 0.07625109 -0.15863751 0.1133547 0.16592388 0.41722378 -1.0230426 0.42075965 0.42471698 -0.15365602 -0.061522517 -0.030256648 0.6491373 -0.56535876 0.7215568 0.50144607 -0.87501484 -0.20109427 -0.19954783 0.0032026498 0.74803245 -0.56669384 -0.22258513 -0.3999196 0.013217977 0.1385067 -0.044208 0.48673725 -0.29772803 0.3617104 -0.33248088 -0.1839977 0.7324175 0.31089953 0.007284146 -0.29474717 -0.2137517 -0.2678962 -0.12991062 -1.0193617 -0.118694864 -0.49106422 0.31103486 0.4332209 -0.76419985 -0.5061704 -0.640911 -0.14217505 0.57507074 0.23369008 0.18887143 -0.23059501 -0.2446515 -0.2986689 0.5313383 0.58370274 0.042334672 0.31962708 -0.29883194 -0.545882 0.051458485 0.13898799 0.4421186 1.0344776 0.08383835 0.5281077 0.6067505 -0.41078752 0.015181279 0.25325257 0.25301552 -0.3452115
occurrent 0.5720961 0.5766302 0.06040046 -0.48584118 0.112856366 0.76217365 0.2865536 0.62079424 -0.66761965 -0.3501053 -0.9345256 0.18988737 -0.8544748 0.8111863 0.108319156 -0.08889623 -0.26886135 -0.28962836 -0.013238388 -0.3558942 0.40081334 -0.28464258 0.5269178 -0.2261387 0.47558996 -0.5464356 -0.350108 0.5773145 0.440519 -0.5007971 0.32651907 0.07435101 -0.28734195 0.09938761 0.21805544 -0.47453123 0.1740216 -0.41627526 -0.0048390003 -0.3723033 0.52784145 0.11449488 -0.06834096 -0.7713374 0.17132784 -0.0075538945 0.0705189 0.18049446 -0.26837346 0.2371844 0.14660601 -0.5160578 0.15743005 0.3829705 -0.10118752 -0.3857502 0.09270493 0.4795829 -0.49431318 0.06343646 0.0045835534 0.78049314 0.095097184 0.742226 0.23386712 -0.25678673 -0.35613567 -1.1617084 0.23898976 -0.8028465 -0.23448402 0.4514796 -0.0048506893 -0.024766045 -0.1888272 -1.0003134 -0.08461922 0.032033253 -0.17080098 0.20586559 0.5141211 0.119055875 -0.456417 0.7558118 -0.0667816 0.626329 -0.40739602 0.11661489 0.06475954 0.011318851 0.49995467 0.1685178 -0.5837318 -0.11751655 0.74583447 -0.2828828 0.27349943 -0.061496414 0.5453501 -0.28617555
http://purl.obolibrary.org/obo/BFO_0000019 -0.6459327 0.4924718 -0.5082906 -0.59249264 -0.91812557 0.12947837 0.6284967 0.32536376 -0.007265752 -0.0812968 -1.358569 -0.22841984 -0.19772981 0.90095645 -0.5360695 -0.0016734868 0.012572635 -0.36969393 -0.4121935 -0.7786761 -0.07853683 0.10215191 0.8759468 0.25277546 0.4632847 -0.49060053 -0.8516909 -0.27836418 -0.08052005 -0.9397056 -0.09700435 -0.20276888 0.25430658 -0.022128059 -0.14319625 0.15894607 0.18750921 -0.7006918 0.14840046 -0.36233714 0.6390896 -0.15668175 -0.099661365 0.09587801 -0.36875573 0.016510261 0.4737351 0.00029898336 0.14414282 -0.847929 0.6594908 -0.32810134 -0.061263755 0.09282369 0.12666391 -0.07654215 -0.26560432 0.15173505 0.4489855 -0.6424401 0.39692453 -0.31734622 0.05819658 -0.3289095 -0.3058404 -0.29336366 -0.22295412 -0.80154175 0.09280455 -0.17151906 -0.056125052 -0.20293699 -0.2897141 -0.7420267 -0.4157516 -0.17030154 -0.327099 -0.59533584 -0.9310791 -0.38609517 -0.3568558 0.6128299 0.60601294 -0.08480242 -0.30473667 0.6521859 0.2888154 -0.18906912 -0.4774034 0.35184228 0.21139003 0.0042816824 0.72790325 0.4457182 -0.56379044 -0.59398806 -0.12399885 0.09270088 -0.8828935 -0.07127096
0000081 0.70087415 0.36865658 -0.011311675 -0.2499636 -0.5592753 0.16985773 0.27862 0.1776508 -0.14564042 -0.20619223 -1.235955 0.33381027 0.2322572 0.81589365 0.3730543 0.47762868 0.54232216 -1.0123802 0.18872802 -0.5706713 -0.73619133 -0.10778848 0.5809806 -0.19497363 0.48232326 -0.5425857 -0.37452638 0.32462123 0.027652184 -0.6385723 -0.16133374 0.1050661 0.054007173 -0.37006292 -0.41373107 -0.4796814 0.38162017 -0.9522895 -0.36821267 0.25378996 0.47217166 -0.70165604 0.261662 -0.2095209 -0.18666027 -0.42064872 -0.46177664 0.5175202 1.0035315 0.14731236 0.4221024 -0.47279176 0.60249984 -0.18326548 0.027438832 -0.12473036 -0.10155821 -0.093583405 0.056659337 -0.39394483 -0.088413745 -0.4077346 0.26248816 0.020014724 0.011304228 0.7191399 -0.30727452 0.047181547 -0.6239345 0.03230368 0.14973502 -0.076720245 0.13557422 -0.36295524 0.10363029 -0.25768647 0.08738621 0.1796736 0.121977404 -0.2450631 0.3499739 0.08479304 -1.1776046 0.31879234 -0.32315361 0.6467631 -0.7388802 0.16283998 0.22386551 -0.21947545 -0.12636007 0.70761466 0.39203513 -0.34128934 0.64782333 -0.13552566 0.15898734 0.028262198 -0.039009813 -0.8521844
http://purl.obolibrary.org/obo/IAO_0000602 -0.21126904 0.61072284 -0.45340052 -0.40260896 -0.33502728 -0.070020296 0.47842267 0.22540414 0.081793785 0.18237235 -0.44118866 0.4713466 -0.47159776 0.009861577 -0.10704744 0.57708126 0.2936484 -0.3801651 -0.050266445 -0.43854088 -0.29751143 -0.038484164 0.122421384 -0.31624618 0.31917152 -0.5173771 -0.5259792 -0.15376209 0.08532216 -0.42666858 -0.073557295 -0.3163319 -0.032700807 0.03169037 -0.23051716 -0.10886806 0.49786687 -0.23742929 -0.57159895 0.30382484 -0.016528264 0.31311777 0.2714904 -0.7070323 -0.13845845 -0.6485898 0.13220748 -0.093991704 0.54759103 -0.45936793 0.20501152 -0.21213894 -0.41057372 0.077486366 0.023476766 0.3661144 0.10371 0.112746134 0.27719593 0.076425456 0.074060254 0.08202289 -0.28576052 0.48743984 0.4760174 -0.08219438 -0.003401399 -0.18454449 0.5299486 -0.47318822 0.3171091 0.3302297 -0.45975775 -0.24319443 -0.1601125 0.13163397 -0.11943899 -0.016267804 -0.19625083 0.18672189 -0.09879643 0.097917594 0.22833762 0.023410868 -0.45485824 0.6198997 0.19581053 -0.08511657 -0.07283123 -0.072513245 -0.7758668 0.2237882 0.10339613 0.030555556 -0.08215042 -0.6571213 0.06557691 -0.1952174 -0.20218825 -0.18330304
some 0.024513282 -0.2428414 -0.08765487 0.43901134 0.12520102 0.93244034 -0.3448592 0.14332625 -0.35424387 0.16663092 -0.6788154 -0.0046223826 -0.6903448 0.75796485 0.10018628 -0.027427975 0.33419865 -0.6452986 -0.2716374 0.102576144 -0.6551177 0.9183403 0.17189005 -0.6047911 0.20209971 -0.6921582 -0.21988195 -0.19946393 -0.23056707 -0.23857704 0.6848062 0.018853512 0.5382667 -0.43755466 -0.2941109 0.6340407 0.32945514 0.0051219603 0.22881986 -0.7022325 0.53264856 -0.1463413 -0.060484502 0.33541286 0.09628778 -0.2593323 0.064402565 0.37273994 0.63284963 0.48321524 0.12397072 -0.56396407 -0.19538496 0.9233008 -0.05731839 0.06480902 -0.2516885 -0.062944934 -0.272694 0.3216744 -0.28198037 -0.51052666 0.41063777 -0.023535823 0.025663475 0.47011167 0.29244798 -0.25755408 0.20698914 0.28624055 0.1957528 0.36589414 -0.6469289 -0.21905683 -0.13972425 -0.10797108 0.17386582 -0.55137473 0.15980823 0.19837807 0.55791146 0.1325352 0.34079826 0.5670605 -0.17203495 0.13542953 0.43777266 0.16541336 0.3887848 -0.83544606 0.038667645 0.9344494 0.2153038 -0.3130408 0.13713777 -0.79481673 0.22037576 -0.39114642 -0.084353365 -0.35101393
than 0.26770577 0.4361196 0.689723 -0.16639265 -0.5116183 -0.038074877 0.35913548 -0.07088986 -0.7728461 0.008841939 -1.2394804 1.0015001 -0.38159612 1.1195238 0.626638 0.65730244 -0.18720527 -1.1489006 0.09664748 -0.40320584 -0.0014026035 0.3229634 0.57132936 0.25452092 0.84267294 -0.5337355 -0.66017187 0.060857113 0.43740654 -0.20561753 -0.4665026 -0.33969522 -0.132037 0.014288762 -0.3886491 0.09736727 0.10589758 -0.2994807 -0.22363067 0.54607 0.14866553 0.17220023 0.5808245 -0.10167865 -0.16730829 0.069658965 -0.5043708 0.38907662 0.57986015 -0.0015751983 -0.0743843 -0.9213949 0.091344684 -9.813928e-06 0.5254352 -0.64462173 -0.49290213 0.5370025 0.7544825 0.21697234 0.70320445 0.17379488 -0.41031048 0.3981299 0.5126894 -0.0841263 0.18859829 -0.5516194 -0.31573093 -0.64359534 -0.05444494 -0.12557894 -0.27117565 0.35213625 -0.07813534 -0.07806618 -0.02232483 -0.31494728 0.11353631 -0.12945603 -0.19861785 0.15096004 -0.24770172 0.5361843 -0.21710627 0.6182511 -0.8047583 -0.21669918 -0.03566447 -0.24996914 -0.14396028 0.42020652 0.0260386 0.06861637 1.1147797 -0.55857974 0.29131487 -0.508313 0.9175935 0.10359394
SubClassOf 0.16358069 0.62503386 -0.21114005 0.44200957 -0.2790691 0.44183046 0.27892387 0.03974009 0.835967 0.31596795 -0.7003264 -0.005782116 -0.2603222 0.37010443 -0.19834527 -0.08162872 0.6054942 -0.41613096 -0.13525489 0.2420711 -0.5051326 0.21179174 -0.016093515 -0.13667208 0.16917291 -0.5239061 -0.49533352 -0.14357877 0.19544104 -0.5896486 0.059950754 -0.26642206 -0.025664294 -0.18859756 -0.48653555 0.118725166 0.1357623 -0.42669162 -0.43208617 0.31885943 0.4105959 -0.18442464 -0.09888481 -0.018216241 -0.33414057 -0.58887136 0.111765034 0.03993608 0.7497387 -0.35391477 0.17280588 -0.33559504 -0.48609087 0.101574324 -0.30894783 0.39655843 -0.21082167 0.009896763 0.39880174 0.3412863 0.1362151 0.15719728 -0.4522001 0.2974217 0.2643348 0.4317156 0.16212963 -0.16175143 0.17765142 -0.5064184 0.30476177 0.1340262 -0.5736764 0.05917009 -0.22174148 0.34273806 0.15537609 -0.22110099 -0.22405456 -0.12204783 0.33401325 -0.053981025 -0.03780693 0.13736202 -0.7593433 0.56223375 0.63085985 0.05077982 -0.11222723 -0.10339196 -0.14508319 0.57335526 0.49574733 0.07969521 -0.2737885 -0.569537 -0.015728671 -0.65336114 -0.4080168 -0.3914814
http://www.semanticweb.org/quy/ontologies/2022/8/untitled-ontology-33#GeoFault:fault_zone 0.5646015 -0.13479567 0.2151249 0.57990706 0.19738692 -0.21325155 0.503333 0.56899667 0.5853988 0.33532712 -0.8389512 0.60579926 -0.46140933 0.6531755 0.1561703 -0.35844192 0.62450373 -0.013990174 -0.42498523 -0.6022903 0.0073025604 0.6350371 0.8250562 -0.33420905 0.18736261 -0.36185735 -0.5989151 0.96987677 0.00024650843 -0.014785224 0.3383159 -0.18168974 0.11295741 0.09115966 0.25711516 -0.15843114 0.30890095 -1.2173215 -0.28656027 0.0119843045 0.13895933 -0.03517012 0.21099508 -0.35815376 0.042461835 -0.13074917 0.0016558539 0.5264993 1.2873499 -0.30305937 -0.39543214 -0.9762811 0.080014825 0.4807916 -0.0300952 0.19995661 -0.07276738 -0.2547284 -0.41114825 0.17535926 0.45379424 0.3992102 -0.14463744 0.004625164 0.18176827 0.01091377 0.4953813 -0.41399932 -0.73824745 -0.7324774 0.053075653 0.126115 -0.5083201 0.09955659 0.18540482 -0.30182967 -0.12484916 0.09848177 -0.29326108 -0.49085355 0.647346 -0.21172816 -0.7432604 0.7213073 -0.97483236 0.24737203 -0.3634572 -0.31397852 -0.0024405322 -0.39420724 0.46430224 1.0358778 0.8019924 -0.83734596 0.13810635 -0.6746234 0.0888984 -0.110968344 0.054719545 -0.8149297
deformation 0.0028448466 0.5845791 0.26876768 0.4204618 0.25610608 0.29696253 0.79637605 0.67881113 -0.7014059 0.14043207 -1.1477394 0.08012784 -0.39344022 0.5308102 0.37835604 -0.46064296 0.31135684 -0.4805766 0.26733863 -0.28977233 -0.09877318 -0.08366053 0.63728195 -0.0095337 0.5241561 -0.30976287 -0.22821952 0.40932053 0.55535734 -0.24492012 0.027322602 -0.25026762 -0.39082074 -0.005086191 0.6782155 -0.02384446 0.19858019 -1.2701985 -0.5930021 -0.0035550508 0.7824668 -0.111129135 -0.15734798 -0.51665676 -0.277013 0.290354 -0.25639963 0.06980283 0.20375797 0.35381383 0.61557764 -0.1411105 -0.011400495 -0.42846468 -0.09169378 0.44820216 -0.1700434 0.4782302 -0.41763353 0.14417419 0.16679208 0.6250655 0.5033164 -0.16523202 0.48543164 -0.028435895 -0.24311507 -0.8635756 0.018280672 -0.4098529 -0.33382753 0.30211687 -0.70400184 -0.16203605 -0.4872112 0.11076268 -0.30439723 -0.21140048 -0.09852147 -0.047363404 0.43887585 0.2726187 -0.28294596 0.6432567 -0.26436305 0.046984963 -0.12248377 -0.0716986 0.07560618 -0.17141525 0.3618507 1.339393 -0.2549032 -0.98708385 0.6023496 -0.0247236 0.37761965 0.04769678 0.36558405 0.03222215
slip -0.41981354 0.52194 0.58565205 0.053335417 -0.3672839 -0.025794297 0.2640479 0.1621239 -0.44098955 -0.08227678 -0.043200474 0.20644924 -0.5598764 0.7415823 0.25182086 -0.38368854 -0.5155974 -0.69238216 -0.032532282 -0.36545455 0.2782206 0.14345326 0.5487565 0.09593749 0.6676859 -1.2648969 -0.38390794 0.52176726 -0.16291286 -0.53482026 -0.7755097 0.73434407 0.16918845 0.34673792 -0.25167066 0.22514129 0.9075066 -0.28386998 -0.7475179 -0.20269799 0.5468863 -0.32339147 0.35870326 0.38153476 -0.72749615 0.0900343 -0.35301274 0.40018645 0.28863814 -0.14426011 0.38300723 -1.1975807 0.76072013 -0.30466914 -0.11020801 -0.3437756 -0.701049 0.14165281 0.57032317 -0.15746 0.2636609 0.51094186 0.60435843 -0.21897966 0.73474765 -0.5964458 -0.37492126 -0.6425341 -1.0248098 -0.007800599 0.5106363 0.017398447 -0.3715117 0.30974585 0.1838289 0.349693 0.11525147 -0.464269 0.8887904 0.11182598 0.25755623 0.3477133 -0.26294664 0.5369591 -0.18010984 0.13220774 -0.37373915 0.25006452 0.87381303 -0.05684468 0.36099526 0.55081993 0.6472223 0.14529793 0.6103783 -0.43673682 0.4158169 0.069520436 0.4036001 0.33606908
0000050 -0.0066621467 0.23862247 0.3230345 0.5160992 -0.08170747 0.18338792 0.5760072 0.6192574 -0.17021948 0.06664065 -1.0392398 0.0219167 0.13837811 0.94625735 -0.07007305 -0.13799748 -0.41681972 -1.0176402 0.03808194 0.19831975 -0.44667432 0.09125062 0.8983836 0.08739705 0.7049793 -0.5271474 -0.23100896 -0.441641 0.17224167 -0.6268328 0.09795561 0.17747279 -0.3046756 -0.10557409 -0.20308568 -0.18896405 0.6327643 -0.7675921 -0.13240686 -0.15943348 0.3727944 -0.38867232 -0.030513387 0.15186283 -0.27951965 -0.1607809 -0.3761491 0.6302256 1.2228132 0.23358287 -0.005835864 -0.7503807 0.36811137 0.4693337 0.1980674 0.43328735 0.023291001 0.44854742 0.09556308 -0.08735147 0.3312849 0.051857963 0.18817592 0.193632 -0.08670498 0.013640096 -0.0008975081 -0.50562614 -0.66648537 -0.047482044 0.32434624 0.06905242 -0.8203029 -0.08808407 0.30922097 0.22632843 0.27713242 -0.5638568 0.31036294 -0.34468842 0.35055286 0.11323289 -0.38130522 0.9402939 -0.6330894 -0.0006126497 -0.31527668 -0.35367456 -0.122297846 -0.1541413 0.52565724 0.91348255 0.5921353 0.30838215 -0.21724622 -0.27702793 0.39643925 -0.2374955 0.7016881 -0.5108227
0000601 -0.26650843 0.8901412 0.27804473 -0.37888855 -0.64801145 0.13959096 0.47493455 0.21772419 -0.4650853 -0.07611258 -0.34960994 0.5416846 -0.2801846 0.48495576 0.0073381956 0.08923782 -0.28128254 -0.8361832 0.17415807 -0.6251219 -0.73394805 0.31607938 0.5454613 -0.29732412 0.41574627 -0.43099096 -0.34282026 -0.3239265 0.67549664 -0.11991172 -0.059388455 -0.05532142 -0.36537373 -0.36435428 -0.0043951697 -0.45953727 0.48491815 -0.01780433 -0.4234895 -0.07450477 -0.09995295 -0.101400055 0.3570034 -0.34924722 -0.04666183 -0.5016387 0.054832548 0.036447085 0.21557993 -0.20128396 -0.093057156 -0.019423889 -0.485433 0.19774921 0.50473523 0.078994654 0.008182351 -0.022000112 0.26859915 -0.23322444 0.18218373 0.0031140887 0.09681134 0.6479217 0.22151789 -0.35178992 -0.40877196 -0.68962246 0.42871308 -0.41020948 0.22691545 0.20980997 -0.6177626 -0.23151739 -0.5136187 0.1229963 -0.24118479 -0.3008133 -0.118438885 0.09117625 -0.11134698 0.35242134 0.30796543 0.10681383 -0.41131765 0.80686414 -0.008072734 -0.025440011 -0.09051799 -0.33525923 -0.5067009 0.33166125 0.29367015 0.028774511 0.102196194 -0.4254274 0.46160594 0.040868234 0.10923451 0.15798451
https://www.inf.ufrgs.br/bdi/ontologies/geologicalspatialrelationsontology#ufrgs:geologicalspatialrelationsontology_externally_connected_with -0.11264709 0.5351485 0.4105028 0.106247045 -0.034247402 -0.15321966 0.48837805 0.19391575 -0.3111948 -0.20222111 -0.6968851 0.56613535 0.036405914 0.6091668 -0.0104284445 -0.15867285 -0.3010692 -1.0471021 -0.082128644 -0.037286982 -0.47549626 0.08410199 0.845921 -0.17130013 0.3673135 -0.72759694 -0.18494645 -0.019818103 0.23829116 -0.6045036 -0.23811185 0.08767031 -0.24862362 -0.16442356 -0.30560276 -0.07342623 0.24325502 -0.60119927 -0.55303746 0.11482198 0.30779144 -0.22098808 0.19128795 0.33545473 -0.3122585 -0.22131379 -0.3865001 0.5985664 0.4030263 -0.056471933 0.10889008 -0.33475727 0.37912968 0.15600684 0.33694524 -0.41721046 0.027585886 0.20712757 0.5036663 -0.12558801 0.4743316 0.017558625 0.06329482 0.48065016 0.16714182 -0.17657685 -0.17907028 -0.4397462 -0.43668193 -0.033535045 -0.23207997 0.3679454 -0.5310846 0.23095393 0.14436786 0.28926325 0.24380073 -0.38835907 0.42197853 -0.2636038 0.09200945 -0.006215036 -0.3021096 0.25305888 -0.5266849 0.3566598 -0.4058905 0.04255174 0.1775436 -0.4690745 0.2160713 0.5563338 0.6259214 0.018814865 0.4633368 -0.29500827 0.43054757 -0.26954803 0.43444857 0.014288502
0000600 -0.05268178 0.78025174 0.091672674 -0.2325926 -0.7717642 0.26282564 0.5638798 0.35687086 -0.21798365 -0.027648862 -0.54599917 0.52763075 -0.35935596 0.24740347 0.078019656 0.11685556 -0.039701603 -0.50570726 0.033814043 -0.66749096 -0.74322426 0.18057506 0.34328333 -0.080871925 0.4501454 -0.50171834 -0.06707551 -0.28102294 0.34007072 -0.037424646 0.16072716 0.19098161 -0.0132682165 -0.47158986 0.03827586 -0.203236 0.7418664 -0.014850888 -0.2634574 0.13745734 0.19672577 -0.14318864 0.56726575 -0.56547457 -0.3595171 -0.90955544 -0.17664227 -0.22080249 0.67811584 -0.14673598 -0.06615277 0.05682877 -0.6789589 -0.14610763 0.26868632 0.6829256 0.12311265 -0.08488643 -0.08099941 -0.24783225 0.10902391 0.20287672 0.40244073 0.49692744 0.25983378 -0.20647149 -0.27832314 -0.17128797 0.3392499 -0.4974856 0.47594085 0.24788652 -0.48425093 -0.46703622 -0.5464941 0.09467029 -0.32812735 -0.30834618 -0.27262932 0.06174311 -0.26900807 0.3861897 -0.11582955 -0.019479347 -0.50921166 0.8437814 0.03796159 -0.33152923 -0.06947996 -0.48180753 -0.6167359 0.4189724 -0.06722907 0.3537979 0.03210125 -0.43873015 0.58735776 0.25644496 0.082316205 -0.09807027
0000087 0.30647472 0.36912748 -0.01758211 0.18739247 -0.27140528 0.03290437 0.3220965 0.051334064 -0.3694619 -0.18175939 -1.1411837 0.23710856 0.46087706 0.6263069 0.34788817 0.33454108 0.10214945 -0.8975552 -0.11537294 -0.23680165 -0.5590741 0.21335796 0.933171 -0.45264933 0.39052325 -0.58004355 0.27754217 -0.22477642 0.31760165 -0.43407512 -0.13455027 -0.05448413 -0.14348516 -0.30969012 -0.36146647 0.031352527 0.31753436 -0.88130033 -0.17942807 0.2387335 0.5191426 -0.2042002 0.12468377 -0.20825048 -0.05201303 -0.3462761 -0.5812906 0.242795 0.78850305 -0.08076252 -0.035145577 -0.13288769 0.34929466 -0.048277553 0.12177286 -0.06883935 0.07159642 0.20103598 0.28918928 -0.18846868 0.3120067 -0.46921802 0.47382218 0.07375204 0.28371334 0.44995293 -0.47559112 -0.3834653 -0.16230263 0.023279589 -0.12940736 0.13563265 -0.3661029 -0.14712746 -0.12025248 0.04032689 0.51043993 -0.059385806 -0.07638668 -0.15826333 0.35067314 -0.19792232 -0.62490857 0.4452002 -0.44121042 0.40069962 -0.54135734 0.17415866 0.25544408 -0.077657916 -0.19195166 0.8984895 0.4955835 -0.18468745 0.5122166 0.0005613645 0.15697603 -0.09610181 0.05928126 -0.4060978
generically 0.33006388 0.030274687 -0.4058784 -0.62210834 -0.7117586 0.36386326 0.371599 -0.41656762 -0.3650406 0.1168174 -0.9782154 0.6538851 0.14126629 0.94937307 0.2514261 0.16342254 0.15911351 -0.18943125 -0.3328481 -0.5696161 -0.2053857 -0.4162164 0.55339515 0.23411879 0.8326826 -1.0164133 -0.34316835 0.3505828 0.08112991 -0.51447386 0.14671953 0.40412778 -0.36626118 0.018834721 -0.6364298 0.5454319 -0.011266567 -0.2565699 -0.019799165 0.10507182 0.020991901 -0.3771535 -0.6626562 -0.07997531 -0.6873142 0.62797344 -0.53031474 -0.108021736 0.2472099 -0.08230884 0.5860769 -0.48038504 0.0066673565 0.42953423 -0.098460786 -0.52092665 -0.3406869 0.08129844 -0.08594564 -0.28243604 0.54037213 -0.30371082 0.20168537 0.24101794 -0.051590126 -0.40259472 -0.47757298 -0.9153133 -0.14977212 -0.69023037 0.1564808 0.17125888 -0.45719713 -0.24870007 -0.17534795 -0.55849785 0.22074401 0.16271667 0.012606254 -0.07118577 0.17520727 0.49791816 0.04027924 0.46489382 -0.30276033 0.6759631 -0.9394928 0.3089329 0.18238927 0.47815835 -0.3011333 0.51704943 0.7413229 0.3195222 0.79282904 -0.1409105 0.5019215 0.22006966 0.10634381 -0.01333335
http://purl.obolibrary.org/obo/RO_0000081 0.6662217 0.5465031 -0.6452497 -0.20464306 -0.4594738 -0.22254276 0.5507565 0.09702901 0.011664381 -0.23407447 -1.130607 0.36031762 0.19815567 0.43181852 0.15335977 0.41282627 0.5600349 -0.5470626 0.16806744 -0.7801177 -0.5386948 -0.14358646 0.6072714 -0.34489563 0.3659065 -0.46461976 -0.98880744 0.21152924 -0.05419296 -0.8800534 -0.21335383 -0.11528249 0.34247077 -0.5310351 -0.5495749 -0.050703045 0.3402418 -1.1162633 -0.52975357 0.6158176 0.43442106 -0.46381912 0.359018 -0.4124327 0.15634899 -0.52647823 -0.36503062 0.6775548 1.120366 0.031038735 0.59035945 -0.41060713 0.46420202 -0.050186053 -0.13117361 0.15660067 0.2146074 -0.090006694 -0.04957814 -0.17015195 -0.13668692 -0.23817962 -0.08947727 -0.08940675 0.19482759 0.66413134 0.044646576 0.07967959 -0.57870334 -0.1021773 -0.076545455 -0.005263165 0.44978693 -0.12954932 0.28273967 -0.41851643 0.097260654 0.07215729 0.2948037 -0.7183712 0.2378814 -0.07779125 -0.85519063 0.2911402 -0.50450635 0.3631261 -0.1516538 0.17464228 0.3038701 -0.16397455 -0.08404383 0.5241806 0.4961291 -0.5723926 0.41490576 -0.37079218 -0.36873162 0.03697773 -0.1845129 -0.68157524
http://purl.obolibrary.org/obo/BFO_0000040 0.0717423 0.4744732 -0.070904456 -0.19722669 -0.27782464 0.339289 0.39092228 0.41366914 -0.54415494 0.47133532 -0.69168824 0.72616315 -0.8621457 0.60990715 -0.2277543 0.25074127 -0.45859104 -0.18905428 -0.02790183 -0.40485987 0.4393893 0.24340633 0.27495238 0.22865267 1.0904733 -0.45694667 -0.5648117 0.03562959 0.09157335 -0.67203856 0.4475862 -0.33408913 0.0076934495 -0.16392553 -0.041272722 -0.29691213 0.56887937 -0.5533081 -0.5269343 -0.37154573 0.22437306 0.28687605 0.39409885 -0.28089598 0.0119067915 -0.76121813 -0.07971019 0.43370417 0.5853118 -0.56905246 0.73386234 -0.9204944 -0.050714467 -0.2762464 -0.08404103 0.67226857 -0.17961243 0.11448416 -0.23833928 -0.22581959 0.33076042 0.11459143 -0.35122806 0.14268483 -0.01808775 -0.108126834 -0.2735299 -0.5068319 -1.0323792 -0.37443048 -0.62870306 0.36535212 -0.22282574 -0.6127766 0.32170922 -0.23100968 -0.15780348 0.081953265 -0.3857704 -0.6825443 -0.53369397 -0.7210015 -0.41197962 0.6703894 -0.18743177 0.04467648 0.17404702 -0.024874713 0.66734904 0.3953431 0.39328837 0.12415424 0.52582455 -0.08936163 0.28512803 -0.5991422 -0.058119997 0.21523409 -0.07136671 -0.86021805
http://purl.obolibrary.org/obo/BFO_0000023 0.19547385 0.13655329 -0.4712419 -0.13382864 -0.60521305 -0.3886235 0.09599919 0.25705022 -0.16513649 -0.5611078 -0.8498529 0.6928437 0.057679318 0.5550078 0.2385236 0.15147093 0.47760773 0.0023112854 -0.4778722 -0.855935 -0.19798212 0.33412483 1.5219913 -0.7366728 0.09274287 -0.22930199 -0.7977184 0.5498574 0.011624391 -0.23200725 -0.62626505 -0.2948874 0.2956968 -0.5123805 -0.3709439 0.31516397 0.3247009 -0.90477747 -0.0543879 0.65662044 0.4881481 0.2946028 0.23221235 -0.821919 0.07397653 -0.034176026 -0.6900426 0.80287886 0.71004903 -0.19562694 -0.43003795 -0.37277794 -0.040639162 0.2510417 0.05246436 0.17267996 0.19282444 -0.063217185 0.019338364 -0.15767029 0.46352267 -0.2113727 0.22851136 -0.23946045 0.36173546 0.23677684 0.02901121 -0.4141602 -0.062583745 -0.252758 0.0069276756 0.30950293 0.47043815 -0.30461308 -0.0039752927 -0.8902432 0.2665319 0.094525374 0.20436421 -0.3963477 0.44426453 -0.22761478 -0.74311733 0.39067516 -0.6370038 0.3055562 -0.4441824 0.31351957 0.3065066 -0.0579044 -0.22627176 0.421278 0.11825635 -0.51028776 0.60141015 -0.17160374 -0.43579844 0.18445404 -0.4390456 -0.41810137
0000051 0.0067367544 0.24548596 0.35804644 0.5288806 -0.071054086 0.32091868 0.58055216 0.59336036 -0.34215233 0.1004675 -0.95102143 0.07315215 0.1744678 0.80769324 0.10448427 -0.15848297 -0.3779615 -1.1047606 -0.087438464 0.25570673 -0.57212967 -0.15925606 0.96617347 0.070932515 0.6011998 -0.64451057 -0.1775949 -0.34752455 0.14418025 -0.569291 0.1412502 0.0611462 -0.43593302 -0.20939854 -0.051162172 -0.11484218 0.6493943 -0.78811324 -0.10467626 -0.021108318 0.47886214 -0.33189908 -0.15171634 0.08529085 -0.34514076 -0.16126925 -0.24650341 0.4874405 1.0887271 0.37447497 -0.1592469 -0.630442 0.24995777 0.41296694 0.1100702 0.2818043 0.04900665 0.46621087 0.26419142 0.07904194 0.2935272 -0.04422318 0.08176966 0.20972797 0.1617155 -0.15805063 -0.013045841 -0.3626907 -0.40290746 -0.17692827 0.4573621 -0.053269617 -0.6655955 -0.17564352 0.37975234 0.2715662 0.30170915 -0.4671559 0.18713143 -0.13748658 0.4716162 0.2272082 -0.47891483 0.93131465 -0.7953705 0.051501106 -0.27374566 -0.34973153 0.006010703 -0.2177515 0.31789988 0.8439828 0.68999743 0.32561076 -0.16654237 -0.45232832 0.25648275 -0.19235696 0.5876022 -0.5239742
damage -0.060204074 0.46967515 0.6941583 0.12092044 0.061687905 -0.42339155 0.66780895 0.31347945 -0.749514 -0.570605 -0.75433356 0.5728123 0.17546958 0.57557255 0.26750264 -0.103333466 -0.027849846 -0.74299645 -0.1349999 -0.05975813 -0.12189458 -0.090116106 0.16554911 -0.19166246 0.33949563 -0.38656723 -0.5255123 0.47356883 0.17407 -0.15980648 0.03423186 0.16708928 -0.042017136 0.23905921 -0.36763832 -0.2631207 0.33446383 -0.71914166 -0.83248806 -0.13989346 -0.05410919 -0.37655 -0.11461675 -0.13877793 -0.21713279 -0.33183646 -0.36623454 0.22930774 0.16569555 0.13029057 0.18612507 -0.88781166 0.35581347 -0.26423952 0.520318 0.31124088 -0.38130012 0.38534188 0.18417259 -0.14724888 0.25239348 0.5024774 -0.16094013 -0.27113062 0.20423128 -0.15259726 0.27071473 -0.13882858 -0.9341745 0.37453195 0.14023274 0.32860646 -0.41469786 -0.07515291 0.2516892 -0.0459341 -0.49734354 -0.1510034 0.4150933 0.06860198 0.30156955 -0.13977836 -0.5468835 0.7786414 0.050620332 0.017501177 -0.53276044 -0.4297758 0.4871245 -0.14670517 0.08897592 1.2187343 0.13559584 -0.5093687 0.27582592 -0.45790833 0.29945222 -0.19268838 0.8351567 -0.21136697
and -0.117656544 0.30798334 -0.28368473 -0.2487494 0.05936842 0.841396 -0.35498193 0.04551096 -0.45960596 -0.13407019 -0.18777211 0.32177216 0.07940387 0.3349599 -0.0836327 0.08918766 0.40618068 -0.9734615 -0.24311692 -0.8492328 -0.69823027 0.09236431 0.45262134 -0.10819415 0.64452523 -0.6885907 -0.10242386 0.4283846 -0.16231883 -0.3970176 -0.2388032 0.2986054 0.43524143 -0.38843536 -0.009626068 -0.05907203 0.06435274 -0.49089837 -0.2891202 -0.09459492 0.84471184 -0.399487 -0.3994099 0.50982136 -0.31954336 0.5591938 -0.1375984 0.23233265 -0.013808662 0.3125416 -0.70993304 0.22446533 0.36224145 0.1475588 0.112952635 0.52110314 -0.73425674 0.1220353 0.4911254 0.0005655082 -0.35222855 0.26299658 -0.09607519 -0.22391038 -0.043072898 0.7414387 -0.16122831 -0.60643727 0.21437652 0.13096683 -0.035584275 -0.5605845 -0.042493578 -0.27332112 -0.26471373 0.32900748 0.02776884 -0.8065915 0.357611 0.59541506 0.033673577 0.5493365 0.1053025 0.82660687 0.08002596 1.085845 0.006052346 0.5640031 0.21299233 -0.68932 0.31256545 -0.079691015 0.10619025 -0.07921931 0.049283233 -0.2668719 -0.087647535 -0.17237028 -0.86947507 -0.6574067
http://purl.obolibrary.org/obo/BFO_0000003 0.5342424 0.50194556 -0.29950285 -0.3755582 -0.048690256 0.5564643 0.9287051 0.53645796 -0.15881994 -0.3100472 -1.0192543 0.30902177 -1.0887859 0.6698535 -0.17202027 0.39092484 -0.1856463 -0.009792569 -0.00878098 -0.37906522 0.37230346 -0.30612156 0.45468867 -0.15344124 0.5044332 -0.49629742 -0.93416256 0.29574135 0.12023756 -0.65870845 0.3730735 -0.25570035 -0.26270106 0.20932229 0.36641484 -0.50938046 0.41297865 -0.63146245 -0.11753214 -0.23794317 0.35932055 0.5111939 0.2237977 -0.86476576 0.39228517 -0.2491012 0.12243598 0.31701967 0.06622136 -0.08340537 0.23120944 -0.965299 -0.0584723 0.32003886 -0.04647595 0.007359503 0.16221884 0.41078395 -0.25697434 0.21105234 -0.042931512 0.5716447 -0.39480495 0.9128799 0.4316004 -0.64569014 -0.06136719 -1.0708121 0.12931043 -0.6794556 -0.13140407 0.40711516 -0.14314355 0.1748808 0.25866804 -0.7797023 -0.062120773 0.059932522 -0.445472 -0.1080856 0.34663907 -0.07161487 -0.072917685 0.44853818 -0.55856705 0.61477077 -0.14113934 0.08866601 0.059966486 0.33493432 0.23215474 0.2566865 -0.55081815 -0.19060661 0.45684224 -0.52948934 -0.19647495 -0.051806077 0.3647536 -0.49915764
http://www.semanticweb.org/quy/ontologies/2022/8/untitled-ontology-33#GeoFault:fault_wall_volume 0.08812976 -0.16398299 -0.10392382 0.30667862 -0.14656276 -0.33900636 0.17414738 0.12112011 0.24064496 -0.27856964 -0.86978596 0.6404637 0.06926927 0.41181183 -0.24655071 0.18220823 0.16235262 -0.55366385 -0.46839002 -0.29131028 -0.13942833 0.5975552 1.3997356 -0.24495637 0.45005545 -0.60622346 -1.016048 0.6167124 -0.35287616 -0.52978325 -0.73062307 -0.010261665 0.14276272 -0.08554429 -0.64919275 -0.50796866 0.29929602 -0.819545 0.07275191 0.413912 0.43632808 -0.025856722 -0.104298845 0.08585212 0.21015976 -0.03277737 -0.34827486 0.6918478 0.8853609 -0.14935057 -0.06063884 -1.004021 0.54372203 0.77689046 0.0985424 0.17900383 0.15831412 -0.22819771 0.077548884 -0.2544299 0.68194336 0.17555189 -0.17860618 0.35774738 0.1266785 -0.06600132 0.29107496 -0.42938438 -0.4804549 -0.11235049 0.38299704 -0.2385936 -0.18610317 -0.18811622 0.11822455 -0.028382784 0.7765935 -0.17889075 0.7460647 -0.9036616 0.27909258 -0.49691898 -0.57591033 0.14918259 -0.80884385 0.20283648 -0.5299137 0.25880408 0.07843804 -0.38617575 0.098927535 0.3599482 0.58247936 0.0052809757 0.20208181 -0.86947834 -0.18242687 -0.9552964 -0.3610825 -0.23217113
brittle 0.064220995 0.4011651 0.037895918 0.40926406 0.073210806 0.41867355 0.79041713 0.33657634 -0.3136998 0.29087287 -1.2534459 0.07458777 -0.64500046 0.97534615 -0.3883636 -0.64965224 0.07957522 -0.67648417 0.35098955 -0.7791422 -0.18999363 -0.2864199 0.71170324 -0.05640107 0.86775976 -0.37471598 -0.27072662 0.055817798 0.791583 -0.76532894 0.462434 -0.079087384 -0.053778645 -0.26686537 0.45927826 -0.21870962 0.42555952 -1.2401066 -0.5903973 -0.21389796 0.89050716 -0.18620418 0.064635776 -0.19652997 -0.10241346 0.32706684 -0.58252156 0.33725402 0.27566028 0.02958915 0.73900706 -0.026216224 0.51694936 0.38006288 0.13821232 -0.23543733 0.04165112 0.2888913 0.22525087 -0.35014772 -0.08470236 0.28224126 0.5223755 -0.44601876 0.07660036 0.06674523 -0.32376522 -0.8150316 0.068083495 -0.40434042 -0.5768613 0.08907329 -0.67789143 0.41170827 -0.12540333 0.06626284 -0.40236607 -0.28398868 -0.24160112 -0.435619 0.66744155 0.5593622 -0.13525496 0.35210708 -0.24861076 0.50480753 0.36472523 -0.5779234 -0.6153409 -0.98413193 0.36081055 0.74719226 -0.43807176 -0.5556452 0.032936886 0.17854914 0.014713627 -0.14888237 0.30719966 -0.26641387
temporal -0.040806558 0.58473665 0.29503682 -0.576163 -0.3775437 0.4772138 0.87458867 0.14632945 -0.5184934 -0.5745202 -0.8637902 0.20702505 -1.145072 0.72999716 9.7219e-05 -0.6143002 0.16830912 0.19558135 -0.3460797 -0.9285665 0.034538828 -0.5015556 -0.14900774 0.3739378 0.20277244 -0.40628234 -0.818335 0.6857483 0.50980204 -0.12059794 -0.15631752 0.21080856 -0.28661132 -0.4024681 0.35105282 0.4180329 0.30496147 -0.09178985 -0.45960757 -0.25878894 0.83626944 0.12613766 0.02834727 -0.44308713 -0.98486215 0.14776085 -0.09670966 0.085968934 0.12157121 0.25055254 -0.13329881 -0.28999668 -0.1761046 -0.2473633 -0.01814775 0.15079607 -0.008097554 0.36588493 0.3952086 -0.24718398 0.21821928 0.99490386 -0.025229778 -0.36290345 -0.22925235 -0.6254672 -0.29911402 -0.73098254 0.19288602 -0.68010026 0.20027415 0.608351 -0.18509682 -0.43638724 -0.45143062 -0.49986467 -0.61688405 -0.13389029 -0.17250124 0.29646358 -0.010235213 -0.17373116 -0.085353464 0.527277 0.2560377 0.25260168 0.16184063 -0.5991077 -0.4099877 -0.43507186 -0.13040438 0.2588001 -0.76086336 0.25766253 0.548823 0.12049298 0.21661922 0.11607354 0.2675021 -0.17794986
shape -0.76532537 0.4688748 0.04689587 -0.29492515 -0.5631778 -0.27479833 0.48556274 0.39789373 -0.72217447 -0.032027945 -1.0626916 -0.19656041 -0.09161706 0.8228516 -0.22539625 -0.5252268 -0.21002075 0.020302845 -0.13214771 -1.1650062 -0.24263105 0.84413177 0.35916954 0.68732584 0.3663249 -1.0191615 -0.23681168 0.68233764 -0.06959641 -0.28986517 -0.5003418 -0.119191416 -0.479243 0.33692423 0.28611356 0.01976578 0.34571582 -0.427411 -0.14133547 -0.22656143 0.275377 -0.31093466 0.7284304 -0.05113044 -0.10008436 0.2926581 -0.5913197 0.64822125 0.120570384 -0.17105988 0.19862406 -0.46775943 0.60067266 0.073501386 -0.0013599659 -0.1406836 0.17782451 0.028240377 0.30957097 -0.39706182 0.22008656 0.8470202 0.9797028 -0.31019032 0.35854778 -0.5693532 -0.39725873 -0.7236188 -0.23029062 -0.4636635 0.09875052 0.073221676 -0.5375969 -0.612252 -0.20939758 0.582392 0.4690417 -0.8129245 0.11542536 0.45153186 0.03631291 0.13352962 0.25801265 0.039694797 0.22009154 0.5606646 -0.22549127 -0.30207494 0.24815539 -0.424794 -0.14379615 0.24877816 0.8183225 0.94829214 -0.17890637 -0.4415556 1.0190898 0.32426673 -0.9036723 -0.20660824
immaterial 0.041875444 0.04288769 0.9736792 -0.24340597 -0.06800482 -0.10321329 0.24068137 -0.2651333 -0.89239967 -0.4628873 -0.25306427 0.56083435 -0.5181317 0.9428874 0.60424685 -0.289969 0.3655413 -0.20677938 -0.40180922 -0.37704405 0.013027103 0.11838232 -0.15254389 -0.43672213 0.083755575 -0.7037183 0.12878567 0.628323 0.24955307 -0.39572063 0.24970831 0.12048489 0.08961453 0.098836765 0.12294394 -0.099521294 0.35811418 -0.5559543 -0.85873514 -0.19570622 -0.14952745 0.16996948 0.42791295 -0.6428205 0.22708249 -0.3311398 -0.23463109 0.29387626 0.5086107 -0.302241 0.7275957 -0.6396826 0.54081917 -0.07292911 0.7049536 0.02125555 -0.20304546 -0.16976391 0.15897493 0.09686309 0.30986926 0.51886755 -0.011702087 0.5161357 0.14029507 0.0015068116 -0.1299281 -0.4873806 -0.410821 -0.5062398 0.032661375 0.52409077 -0.041842703 -0.66395384 0.16667695 0.11283555 -0.12625352 0.0037411342 0.014428176 -0.109900706 -0.10760854 -0.20349957 -0.27070537 0.20276183 0.3634968 0.6185523 -0.5847269 -0.61217475 0.45472658 -0.15415286 0.055469528 0.87044823 0.5959043 0.08386234 0.96754557 -0.56365937 0.21497825 0.02850207 0.18773538 -0.65875775
http://purl.obolibrary.org/obo/BFO_0000050 -0.25208032 0.120645866 0.08004837 0.6292484 -0.075399086 0.14714012 0.58255845 0.55808127 0.0015493977 0.23042625 -0.8359939 0.102212034 -0.21911591 0.7186378 -0.25718054 -0.109485485 -0.19159463 -0.7909437 -0.11270725 0.033187114 -0.33699548 0.07573904 1.0009211 -0.105860025 0.43211251 -0.5656217 -0.51511633 -0.6380473 0.03287852 -0.85242 -0.11820111 -0.2540889 -0.13724552 -0.022535814 -0.24090993 0.036864303 0.5274382 -0.8614757 -0.3310335 0.1064344 0.46633142 0.14346083 0.17596649 -0.000119708304 -0.22136904 -0.12717137 -0.3268354 0.6744079 1.2667713 0.011580563 -0.2083904 -0.8143965 0.46930823 0.36359885 -0.016112454 0.4453787 0.03192911 0.26712072 0.123873755 0.39789295 0.26878926 -0.13234718 -0.19986951 0.0036667902 0.05810141 0.1059405 0.31432936 -0.3938634 -0.60005486 -0.050222494 0.11318101 0.12100092 -0.4806125 -0.25362957 0.40816432 0.34692568 0.34665433 -0.5896608 0.3502101 -0.4000941 0.31505507 -0.052111097 -0.19410524 0.58910704 -0.8179879 -0.07872838 0.26806167 -0.124253504 0.19726557 -0.14318839 0.3714069 0.89289707 0.85314155 0.03805015 -0.24152385 -0.63275635 0.058158077 -0.46472362 0.20956624 -0.32334763
physical -0.3715723 0.59409434 0.7032617 -0.34440732 -0.12372048 -0.4692935 -0.110511705 -0.08477045 -0.61973697 0.1310323 -0.18432897 0.22609983 -0.20679508 1.1261082 -0.17379965 -0.0535264 -0.30451208 -0.57102853 -0.2867539 -0.008738029 -0.012490933 0.076851256 0.31198233 0.38476446 0.59616774 -1.085121 -0.4821731 0.2838777 -0.20385545 -0.13896304 -0.6490754 0.76424867 -0.26530787 0.23111396 -0.3022424 -0.031890206 0.6427974 -0.31756476 -0.22348224 -0.08486125 0.32137826 -0.462457 0.3331135 -0.096517496 -0.025028247 -0.14256604 -0.062785804 0.53420454 0.3381897 0.25578782 0.6017652 -1.0358844 0.7467853 0.24211323 -0.26334435 0.13300805 -0.8133509 0.36281225 -0.002237743 -0.25103897 -0.11788227 0.25856492 -0.009655708 -0.077721335 -0.27001727 -0.13322274 0.23491521 -0.36109284 -0.7753908 0.37466767 0.057168856 0.34844303 -0.3006529 0.025374029 0.10258209 0.40394613 0.026437033 -0.601261 0.5949255 0.05182075 0.07476575 0.033969518 -0.12994379 0.47187912 0.6426185 0.5013612 -0.40909454 0.17023957 0.7119532 -0.4346982 0.37016636 1.0738596 0.23157255 0.13035518 0.72536874 -0.08883568 0.14551143 0.023867875 0.27343935 0.39165655
0000080 -0.023865884 0.1728998 0.3977209 0.20424604 -0.49717453 0.032796495 0.8233137 0.21325345 -0.020668292 -0.05641156 -1.4522581 -0.29520777 0.05324942 0.90147406 -0.22790086 -0.12917356 0.1318357 -0.804177 -0.2544864 -0.51177436 -0.28158915 0.4001198 0.64832246 -0.03533399 0.15814005 -0.7226732 -0.16653475 0.01304823 -0.11052184 -0.4370059 -0.038837407 0.12220007 0.28071755 -0.40969127 -0.01962382 -0.7027275 0.5230753 -0.71963143 -0.09252684 -0.2660403 0.5142719 -0.3285346 0.2545056 0.36980885 0.2042507 -0.642637 -0.082234435 0.048281893 0.5314266 0.024047887 0.24172369 -0.3640873 0.7414272 0.08660244 0.5236727 -0.31946865 -0.20337328 0.32411984 1.1634926 -0.33529422 0.29630968 -0.3148716 0.7420415 -0.34707302 0.04409994 0.07201167 -0.47888324 -0.65301234 0.1939475 0.18118104 0.29644385 -0.2829504 -0.6036941 -0.033867154 -0.3828473 0.5122216 0.16401492 -0.6791127 -0.22503176 -0.29296166 -0.051047355 0.62833875 0.031180935 0.10265969 -0.2573227 1.1588442 0.29134324 -0.5136855 -0.4862339 -0.51233894 0.2602088 0.75173974 0.3166519 0.42631721 -0.10250642 -0.3302045 -0.11460505 -0.47545603 -0.10493146 -0.16780116
https://www.inf.ufrgs.br/bdi/ontologies/geologicalspatialrelationsontology#ufrgs:geologicalspatialrelationsontology_has_proper_spatial_part 0.06564786 0.7504893 0.43270278 0.0429752 -0.21952166 0.13892056 0.6458072 0.022703474 -0.46081358 0.003179065 -0.8479923 0.73390466 -0.15624887 0.77935183 0.16424507 0.5107644 -0.21970905 -0.7782257 -0.20809208 -0.28713515 -0.23042528 0.19419223 0.55720747 -0.09594358 0.5854506 -0.6314098 -0.114519775 -0.006936991 0.34836012 -0.17716962 0.09701171 -0.05126193 -0.06991555 -0.004738127 -0.11643101 0.06341035 0.51141 -0.49324545 -0.39633992 0.15468293 0.4659833 -0.035568412 0.06523253 -0.14220157 -0.16993962 -0.28570655 -0.10910501 0.03873583 0.45052794 -0.045203146 0.2817791 -0.6733652 -0.046338994 0.027141469 0.3581334 -0.309369 -0.1338881 0.5538805 0.34184468 0.048984826 0.21889332 0.15334998 0.04968481 0.46538946 0.2703878 -0.20626327 -0.10855328 -0.52581334 0.03237539 -0.46544668 0.12847127 0.20084658 -0.6950018 0.23948869 -0.03302279 -0.11348654 0.41805714 -0.009885968 0.23982379 -0.0029054862 -0.14104466 0.12019071 -0.23897721 0.30681053 -0.58912796 0.15225661 -0.5262249 -0.24066143 -0.10032328 -0.10136026 -0.158976 0.543045 0.23354238 -0.14552426 0.6263881 -0.2668804 0.07015946 -0.14998169 0.5758804 0.08058674
system 0.26465032 -0.3773892 -0.12765819 0.023100847 -0.20088616 0.15491937 0.38508275 -0.09989546 -0.42999047 0.28103155 -0.571212 -0.31199616 0.047258984 0.7212469 -0.1696585 -0.49053913 -0.055520892 -0.46423677 -0.42474958 -0.09030264 -0.43349138 -0.43891323 1.1158733 0.35124883 0.74699694 -0.7167206 -0.44379935 0.54861665 -0.23806688 -0.700829 -0.17196728 0.6794843 -0.38346365 0.20670483 -0.5387585 0.5579287 0.45306757 -0.69355685 0.01719642 0.30380753 0.1939388 -0.8647057 -0.23746625 0.04915109 -1.2829124 0.32982427 -0.5527824 0.5596169 1.0057522 0.07663608 0.01090183 -0.77204955 0.64827746 0.5077107 -0.658883 0.24568757 -0.1813371 0.19194733 -0.10893482 -0.6056453 -0.09045866 -0.2526674 -0.10930789 -0.25254548 0.30913046 -0.13628298 0.10632131 -0.28510085 -0.40867528 -0.1422157 0.48391336 -0.591228 -0.43060163 -0.30470812 0.22926798 -0.51583827 0.19009058 -0.03478957 0.33028477 0.049654473 0.65899205 -0.020629222 -0.2002489 1.3023915 -0.36979204 0.4680897 -0.48305357 -0.27155337 0.31460357 -0.13988875 0.29061756 0.7825191 0.35465485 0.40403438 -0.1790347 -0.35788298 -0.13247214 -0.22663468 0.04336491 -0.15672812
http://www.semanticweb.org/quy/ontologies/2022/8/untitled-ontology-33#GeoFault:fault_core 0.046257284 0.601202 0.27124292 0.062252842 0.33081478 -0.06476431 0.81594926 0.33850038 -0.2698705 -0.04886234 -0.7576165 -0.16517879 -0.22412005 0.48062745 -0.2933689 0.07994598 -0.42552784 -0.39512148 0.038339186 -0.45183167 0.40470597 0.14182241 0.53341234 -0.017950105 0.7384703 -0.40957302 -1.0207105 -0.12302636 0.18950936 -0.9386155 -0.26636916 -0.11225938 0.2736546 0.06597107 0.026604287 -0.15366445 0.56047803 -0.8854093 -0.70342344 -0.020069467 0.4575106 0.24287722 0.07096594 0.025295641 0.4475545 -0.12728485 -0.26992643 0.630866 0.5593105 0.53475475 0.18496041 -0.8611125 0.66565514 0.21061175 0.12162077 0.30577275 -0.042524215 0.42334253 -0.077757776 -0.099148534 0.07438795 0.5249802 -0.13605413 0.20434263 0.39813268 -0.052428663 0.006154496 -0.48157552 -0.507335 0.25830504 -0.21789788 -0.068267114 -0.46411356 0.07130002 0.31443834 0.51386315 0.38167945 -0.16576056 0.65079135 -0.41376776 0.31955874 -0.1798376 -0.7112784 0.5311855 -0.46350074 -0.2850669 0.17856663 0.17303939 0.37376115 -0.2359819 0.31429633 0.73201966 0.28584442 -0.408962 0.21131831 -0.43472114 0.009246092 -0.69670075 0.35518748 -0.14572002
http://purl.obolibrary.org/obo/IAO_0000601 -0.13028625 0.61511123 -0.29184493 -0.4068548 -0.28107917 -0.023802845 0.63018566 0.27142897 0.12889081 0.09384315 -0.6112956 0.35205203 -0.56795794 0.16012432 -0.0882363 0.5703906 0.29225653 -0.40870193 -0.046843883 -0.51442945 -0.18137057 0.2807936 0.22472435 -0.34373593 0.41947377 -0.54943013 -0.5359196 -0.10379545 0.29349446 -0.29371023 -0.024898697 -0.45093918 -0.07069969 0.004666093 -0.2999767 -0.23988491 0.4338805 -0.22535582 -0.62872714 0.14330079 -0.04108241 0.35963744 0.25301257 -0.52429354 0.20521812 -0.5311088 0.2582799 -0.014129946 0.26761365 -0.38405073 0.05384423 -0.2452704 -0.23026033 0.14295714 0.17588109 0.17309603 0.19949524 0.1357768 0.21450469 0.07633816 0.19095169 0.08242527 -0.33941093 0.5586445 0.3871049 -0.21292473 -0.14527044 -0.45369583 0.37602523 -0.4646734 0.10311513 0.5105847 -0.689808 -0.1691519 -0.07167528 0.1374709 0.037344225 -0.05619486 -0.25639963 0.21535642 -0.083700895 0.14963304 0.30188444 -0.053596642 -0.5981635 0.5472694 0.16248167 0.18804333 -0.13684039 -0.00824138 -0.49621278 0.3447139 0.12307521 -0.065432385 0.03341603 -0.6786308 0.2244152 -0.32011196 -0.122934945 -0.23692743
https://www.inf.ufrgs.br/bdi/ontologies/geologicalspatialrelationsontology#ufrgs:geologicalspatialrelationsontology_proper_spatial_part_of 0.0009910936 0.7048537 0.36832023 0.029333794 0.10984465 0.028703352 0.61211383 0.22914596 -0.43776286 -0.06947138 -0.6786617 0.79626346 -0.052259233 0.6137733 0.48618302 0.39843097 -0.2506937 -0.62845075 -0.3951916 -0.39345837 -0.19857736 0.19896936 0.48414508 0.06333927 0.5201889 -0.66427225 -0.16187894 0.1534742 0.3502406 -0.17736356 -0.06263959 -0.21562195 -0.15876563 0.2441225 -0.2043153 0.16805229 0.5808911 -0.6223378 -0.47615558 0.1983176 0.31663257 -0.052343097 0.0897247 -0.1702266 -0.30042896 -0.055876374 0.09203335 0.2148791 0.47346902 0.005938318 0.35903642 -0.7957609 0.018758629 0.040421028 0.33695555 -0.3398644 -0.30771285 0.4809743 0.083407454 -0.027877502 0.26809287 0.23290461 -0.009505993 0.5933416 0.13425939 -0.05002458 0.082611255 -0.73185384 -0.14849241 -0.36973444 0.13754435 0.26125938 -0.73820245 -0.007679551 -0.12873286 -0.29593837 0.35061702 0.16449426 0.42011243 0.16289406 -0.11678014 -0.016205773 -0.32332084 0.42622778 -0.41476002 0.1394253 -0.71372247 -0.22480048 0.017864773 -0.060738593 0.022411112 0.5513195 0.19600163 -0.13040423 0.7710322 -0.31015828 -0.06558751 -0.027952613 0.5810151 -0.07360848
http://purl.obolibrary.org/obo/BFO_0000031 0.14268722 -0.17777848 -0.4913631 -0.58179533 -0.7272489 0.29619423 0.36156234 -0.57248485 -0.26588187 0.13583353 -0.74685603 0.4655882 -0.0025142669 0.7496687 0.08396387 0.47648126 0.3165098 0.033178918 -0.3078713 -0.6693437 0.02453469 -0.22230273 0.69793725 0.034719467 1.1083326 -0.7371983 -0.8493884 -0.093113884 0.2485295 -0.5919632 0.035580408 0.03519515 -0.023781769 0.4017227 -0.5528089 0.48839673 0.08901813 -0.4550343 -0.18720509 0.5565953 0.05144318 0.08756002 -0.47699404 -0.13904805 -0.14277452 0.5744487 -0.1746139 -0.1272784 0.22057754 -0.24032873 0.32934612 -0.75807184 -0.014613611 0.47278157 -0.1317569 -0.29784644 -0.30438793 0.24840738 -0.19881028 0.11157375 0.7224092 -0.1332233 -0.33543926 0.59351593 0.019242011 -0.36416435 -0.111089416 -0.80735904 -0.3879336 -0.5841713 -0.034902666 0.008863251 -0.32747105 -0.26203513 0.22693144 -0.46464744 0.3966454 0.20824152 0.08624189 -0.17651181 0.47168282 0.3701286 0.30250642 0.3273624 -0.4381201 0.31860402 -0.4988444 0.5205385 0.1635868 0.5735538 -0.23299126 0.52854574 0.92876136 0.08475849 0.5439963 -0.28245792 0.11276657 0.110171005 -0.5127059 -0.1288902
smeared -0.25123453 0.24884175 -0.024714196 -0.41493276 -0.36840788 0.11695278 0.7351829 0.3041774 -0.48039788 -0.2614441 -1.3318641 -0.49883613 -0.20343259 1.2030319 -0.46890587 -0.30562288 0.55539024 0.43936703 -0.21433944 -0.6831601 -0.18087436 0.31206048 1.1113834 -0.05561381 0.8042602 -0.47784343 -0.4272773 0.4428722 -0.64292264 0.1262006 0.3476451 0.3320006 -0.5532208 -0.2510413 -0.21061835 -0.26001698 0.18759513 -0.36962694 0.17681825 -0.9644675 0.3973222 -0.19433749 0.103755094 -0.3563283 -0.592503 -0.14620118 0.13092461 -0.50497216 -0.32542473 1.1028683 0.15858965 -0.4949987 0.0021155626 0.22559507 0.065467104 0.18021573 -0.022890475 0.13021067 0.8502172 -0.46643823 0.45184964 0.6016211 0.9886761 -0.03240247 -0.4890029 -0.06607813 0.031391267 -0.7323987 0.05106659 0.074626565 -0.042449802 -0.15048546 -0.1982168 -0.17695889 -0.39061156 0.51665163 -0.12758188 -0.2680374 -0.35478622 0.00016047449 0.4223403 0.2380013 0.3292015 0.90864295 0.49048898 0.2942753 -0.00045161444 -0.17144787 0.38351488 -0.1423544 0.89369607 0.57597315 0.3268651 0.39601701 -0.6750385 -0.45454368 0.3734204 -0.6999586 -0.11190104 -0.021750808
earth -0.38320068 -0.13853317 0.11696562 0.3166521 0.26357952 0.77539545 0.676205 0.17190523 -1.302127 0.042126406 -1.1307583 0.2785743 -0.18756728 0.9605761 0.13774061 -0.09188265 0.5674088 -0.43438277 -0.06843841 -0.24363074 -0.31965113 -0.18760692 0.14702424 -0.2462009 1.1552218 -0.24650082 -0.4944539 0.15432818 0.6492157 -0.5643344 0.36265516 0.14609161 0.011351756 -0.3390429 0.5045204 0.20690802 0.32152522 -1.1954787 -0.7317595 -0.50527 0.54143775 -0.4648694 -0.05894552 -0.50532746 -0.24589199 0.08262769 -0.1972889 -0.32867938 0.1775957 -0.25170243 0.33156776 -0.37928495 0.41189346 -0.13118033 0.083425276 1.0010976 -0.3085496 -0.070025355 -0.27447808 0.5961399 0.6069722 0.364642 0.07876748 0.19393821 0.3306798 0.07289918 -0.14161596 -0.9720197 -0.24648201 -0.29975367 -0.61077493 -0.5296579 -0.44890717 -0.18913753 -0.28613505 -0.28712606 -0.5326861 0.13778852 -0.63381416 -0.7552851 -0.12959136 -0.33786285 -0.008716047 0.6449593 0.5987341 -0.20710717 -0.41277322 -0.3102216 0.4612523 -0.59757763 0.26564777 1.3005306 0.06472642 -0.4195464 0.24078728 -0.2461863 0.5199234 0.063808985 0.2553418 -0.16390045
https://www.inf.ufrgs.br/bdi/ontologies/geologicalspatialrelationsontology#UFRGS:GeologicalSpatialRelationsOntology_externally_connected_with -0.20135961 0.31997487 -0.008051497 0.110747725 -0.0496028 -0.09204988 0.43399602 0.18649648 -0.07233594 -0.20515323 -0.51053977 0.50555944 -0.23549272 0.548494 -0.35113403 0.14285646 -0.13530241 -0.69520885 -0.19844443 -0.14748612 -0.22882743 0.24066247 0.98090285 -0.26854077 0.52499807 -0.61666286 -0.5371839 -0.1373913 0.08461207 -0.9232173 -0.35157034 -0.26254165 0.031365912 0.07024145 -0.29398978 0.17449427 0.32892916 -0.6611104 -0.5401995 0.2863766 0.20141548 0.25946194 0.12802291 0.1408488 0.1212014 -0.11246734 -0.21439546 0.6230191 0.48663142 -0.2960851 0.054805737 -0.7299506 0.4248658 0.22267234 0.08267704 -0.049631044 -0.003934531 0.18443574 0.38946128 0.07565607 0.30205035 -0.04872426 -0.17707865 0.4876629 0.16113122 -0.18135875 0.13443838 -0.4767311 -0.4828597 0.059382033 -0.3458993 0.2541274 -0.42083487 0.009729141 0.25761622 0.20956948 0.36320058 -0.29948357 0.5333621 -0.28788614 0.2907366 -0.07023847 -0.18419476 0.0684604 -0.8385347 0.035671107 0.065060735 0.4312617 0.3070265 -0.3063739 0.0518289 0.54138875 0.68601835 -0.2849904 0.33453664 -0.50974095 0.020034684 -0.4589144 -0.039482646 -0.05852166
http://purl.obolibrary.org/obo/RO_0000087 0.3450226 0.39912298 -0.44842526 0.22839911 -0.2943842 -0.07963125 0.58022064 0.19824211 0.038292125 -0.06253511 -0.981065 0.19655062 0.0012277499 0.29092437 0.015067231 0.39761388 0.08053002 -0.5423937 -0.14169002 -0.3504002 -0.33283004 0.083394565 0.99089 -0.5794066 0.33626354 -0.4713115 -0.43807402 -0.23484187 0.2686695 -0.73369324 -0.27731434 -0.35767 0.12382701 -0.43781778 -0.43723577 0.26595455 0.42141834 -0.92220974 -0.3438654 0.7882749 0.49935573 0.08799957 0.2354362 -0.31622154 0.16478445 -0.482909 -0.4282801 0.48824546 0.97028786 -0.1739165 -0.03622924 -0.20447087 0.31023082 0.06513049 -0.20615968 0.35704726 0.16063762 0.2831096 0.15979879 0.22346735 0.21594553 -0.4382125 -0.17832692 -0.14602102 0.46455342 0.3090407 -0.011944332 -0.23603058 -0.22876535 -0.15666921 -0.05995578 0.07013256 -0.22796874 -0.03270021 0.055723086 -0.1689072 0.42235744 -0.15466464 0.11421815 -0.38607952 0.28365058 -0.16819909 -0.31737828 0.28960297 -0.9248269 0.2456291 0.11534388 0.26991734 0.22239491 0.01950018 -0.17403977 0.6711246 0.36727145 -0.31302094 0.268505 -0.30205998 -0.47211564 -0.2719211 -0.038463775 -0.29094997
https://www.inf.ufrgs.br/bdi/ontologies/geocoreontology#ufrgs:geocoreontology_generically_depends_on 0.25047296 0.74983513 0.17074455 -0.11881545 -0.6454378 0.16629025 0.3706693 -0.105178766 -0.24330795 0.5344987 -0.50031596 0.43393314 -0.10707303 0.30111802 0.24187475 0.61615515 0.18962549 -0.7244921 -0.2696716 -0.25581473 -0.40322813 -0.071707785 0.31616777 0.32732618 0.7327287 -0.800125 -0.551738 0.44176742 -0.08056011 -0.3580034 -0.1348733 0.28400216 -0.37394643 0.15571699 -0.37593088 0.09814401 0.7445333 -0.38976982 -0.4320331 0.020228188 0.32801217 -0.264603 -0.29060116 -0.11445005 -0.8143705 0.1128838 -0.11277727 0.33625057 0.47076833 -0.116020866 0.53521013 -0.8154356 -0.03875784 -0.16413738 0.29127598 -0.20265512 -1.0358942 0.24029452 0.34244162 -0.18659785 0.28145203 -0.05190885 -0.03267124 0.16292737 0.20572855 0.3225339 -0.14958704 -0.72311544 -0.09025975 -0.51016027 0.85138625 -0.17758043 -0.67913383 0.39067206 -0.15153536 0.06381845 0.06689437 -0.14408998 0.6590756 -0.14909938 -0.093697295 -0.08514159 -0.46045485 0.8882938 -0.09776573 0.5337688 -0.7577813 -0.310122 -0.02084021 0.424229 0.03379249 0.37599644 0.41577268 -0.019959204 0.1584848 -0.06849281 -0.22106144 0.038906083 0.2161291 0.25011867
disposition -0.03680195 0.24348107 -0.12545191 -0.6675019 -0.46660435 0.3960834 0.31377363 -0.1481496 -1.1596495 -0.44916302 -0.82813877 0.6038465 0.21221383 0.61565125 0.3039817 0.3964862 0.14438958 -0.075347126 0.11679124 -0.65666306 -0.11225897 0.23842928 0.718684 -0.23875403 0.85935014 -0.15382247 -0.15887767 0.35174924 0.30421746 0.32814166 -0.30605158 -0.29328442 -0.1409489 -0.5195781 -0.4356735 0.26941228 0.536786 -0.49003375 -0.0043194764 -0.0061758975 0.4851672 0.24022426 -0.07107037 -0.52029395 0.34907338 0.10194331 -0.3818833 -0.08342141 -0.00046474423 0.19732675 0.36469686 -0.6818115 0.1483273 -0.18973057 0.75161725 0.15684977 0.012035663 0.2579401 0.04453455 0.15952288 0.7526479 0.6039006 0.44422758 0.31092197 0.024334537 0.39742288 -0.14500742 -1.2133905 -0.013241904 -0.50377184 -0.56633526 0.05637712 -0.07988961 -0.025580386 -0.68134564 -0.62179035 -0.026618976 0.1969337 -0.20747696 0.03514791 0.29120868 -0.5405905 -0.26698115 -0.11842943 0.6355285 0.4830129 -0.9449414 0.13770151 0.319736 -0.23843308 -0.0803026 0.14354739 -0.3760551 -0.058216177 0.86177814 0.040271163 0.2034706 0.022692116 -0.32834402 0.058872413
. 0.47450796 0.5292683 0.020954106 -0.65177417 0.07732414 0.21139686 0.7146633 -0.21798052 -0.1489792 -0.21220024 -1.0164486 -0.013875251 0.052482482 0.61734957 -0.20744616 -0.5885547 -0.3050406 -0.098102055 -0.12862672 -0.38322568 -0.05542994 -0.02297639 -0.03666637 0.032093562 0.05956474 -0.36844218 -0.32119557 0.0032598746 0.08203593 0.3882211 -0.9259162 -0.15194035 0.3938397 -0.51286757 0.16347097 0.2696383 0.09116362 -0.18670066 0.18996473 -0.20889227 -0.0114380205 0.2524772 0.40582848 -0.09224083 -0.9146153 0.22007874 -0.6691596 0.051199462 0.4266282 -0.013685977 -0.48170957 -0.24949135 -0.054355517 0.058249995 -0.047478743 0.32446113 0.39297578 0.48078343 0.31645146 0.41558123 0.3333286 0.84070766 0.004859807 0.42265815 0.35476848 -0.048799314 0.18430276 -0.3016347 -0.3566521 0.5372185 0.34815744 0.7077673 -0.13531488 -0.62059194 -0.30306548 -0.18579885 -0.68525994 -0.8884912 0.36200193 0.48725045 -0.415927 -1.0936868 -0.0034025433 0.7163268 0.30217645 0.49200416 0.17636524 -0.15940614 0.19597863 -0.4503188 0.48955342 -0.25997186 0.08183825 -0.044664595 0.040100127 0.13070111 0.36848524 -0.17599338 0.6278353 -2.6789392e-05
http://purl.obolibrary.org/obo/IAO_0000600 0.05116982 0.46203282 -0.48765883 -0.3289084 -0.38748285 0.0012627067 0.51394314 0.2857581 0.41275826 0.35393375 -0.74599934 0.40247053 -0.6878951 0.20349662 -0.05143543 0.38097256 0.36377585 -0.15511365 0.0605634 -0.47746164 -0.3510044 0.092136145 0.0028827158 -0.107475184 0.3700611 -0.6461102 -0.5297403 -0.25455374 0.07790055 -0.46243095 -0.029734116 -0.27491772 -0.020999908 -0.12813902 -0.21338582 -0.015816988 0.56996685 -0.15148161 -0.52568454 0.36607498 0.035927806 0.32006395 0.4566862 -0.6988857 -0.30087307 -0.789977 0.11170329 -0.20105499 0.7088149 -0.43816972 0.09984643 -0.008090716 -0.5843596 0.08715211 -0.06641353 0.5471024 0.006736381 -0.07359265 0.066466555 0.042625874 0.084682174 0.15605551 -0.12683165 0.034096286 0.44684538 0.045555223 -0.030052794 -0.08703888 0.3341066 -0.5629626 0.36502683 0.38706174 -0.45668697 -0.31950295 -0.19159 0.08877648 -0.11953183 -0.036632225 -0.338634 0.21109316 -0.037904553 0.2637617 0.24136934 0.031837657 -0.64839643 0.6355636 0.43693915 0.027714873 -0.15355234 -0.038243182 -0.6722956 0.27184683 0.12725304 0.13385986 -0.04018211 -0.7019936 0.2954893 -0.15621889 -0.15776274 -0.40149963
http://purl.obolibrary.org/obo/BFO_0000002 0.13474426 0.17588294 -0.47276017 -0.7953973 -0.53158826 -0.0015388216 0.32695022 0.35881373 -0.2746631 0.51828706 -0.70891017 0.41552433 -0.5491788 0.23907742 0.05747915 0.7948478 0.025906371 -0.17301321 0.17417139 -0.56922716 0.06929179 -0.132142 0.51294875 0.21473801 0.7937244 -0.0028841603 -0.94572955 0.05826694 0.40507713 -0.8490322 0.37567362 -0.23312262 -0.20735966 0.2116307 0.23428562 0.1144061 0.44128376 -0.8667707 -0.77798873 0.123229 0.37295738 0.4102016 0.12944584 -0.51797503 -0.2867216 -0.045656 -0.23661283 0.42338327 0.2533483 -0.3800166 0.8444642 -0.72534674 -0.19682743 -0.26248103 0.45306635 0.28372338 -0.32335386 0.40771997 0.2758681 0.25016704 0.22719708 0.06656595 -0.13376614 0.3324515 0.14396921 0.038495608 -0.16523762 -0.7936554 -0.1995847 -0.543916 0.059206985 0.27130112 0.14747879 -0.41798705 0.4389393 -0.57374984 -0.11074547 -0.18016002 0.023122331 -0.08089621 0.27224436 -0.027544437 -0.513372 0.6165153 -0.28424153 0.061378792 0.009878771 0.48396623 0.01560438 0.42531124 -0.1323042 0.645064 0.15598488 -0.42690066 0.3971159 -0.25839755 0.0039431322 0.45338508 0.04749708 -0.23708446
